#ifndef MLP_WEIGHTS_FOLDED_H
#define MLP_WEIGHTS_FOLDED_H

// MLP FOLDED Weights (BN merged into Dense) - Generated by Python
// format: float32


// --- Layer 0 Folded (dense_0 + bn_0) ---
const float layer0_weights[31232] = {
    0.12411276f,    0.35483548f,    -0.05407900f,    0.27221945f,    -0.64006156f,    -0.38794878f,    0.13585518f,    -0.29467386f,    -0.26873517f,    -0.32057324f,
    -0.41390818f,    0.14715327f,    0.05151660f,    -0.37956813f,    -0.00997355f,    0.16894735f,    0.09664342f,    -0.22559227f,    -0.13210900f,    -0.17472588f,
    -0.06545252f,    0.13060635f,    -0.07179766f,    0.15760285f,    0.03165224f,    0.27622059f,    -0.42045763f,    0.32256576f,    0.11726180f,    -0.06268514f,
    0.12074316f,    -0.01052393f,    0.02649474f,    -0.92986721f,    -0.09656455f,    0.02787727f,    -0.40143096f,    0.28575024f,    0.23419468f,    -0.15937363f,
    0.21384510f,    -0.37771687f,    -0.29197308f,    -0.09759276f,    0.12426856f,    -0.11451375f,    -0.29124197f,    -0.04105733f,    -0.04399574f,    0.20877644f,
    -0.33084586f,    0.28007337f,    -0.24680229f,    -0.06479489f,    -0.10302147f,    0.64331174f,    0.08675361f,    0.10732484f,    0.11908395f,    -0.16010374f,
    0.34524488f,    -0.46038419f,    0.19386362f,    0.41269919f,    -0.21885438f,    -0.15863575f,    0.04014635f,    0.35056907f,    0.01489479f,    -0.02806173f,
    -0.09316186f,    -0.17605005f,    -0.02368095f,    0.21153559f,    -0.25411746f,    -0.08464311f,    -0.10733103f,    0.01100482f,    -0.29708204f,    -0.04925919f,
    -0.28182155f,    -0.28280416f,    0.30869460f,    0.29961997f,    0.12607986f,    -0.16036294f,    -0.01393812f,    0.23479263f,    0.09380209f,    0.20360532f,
    0.64195853f,    -0.73673642f,    0.07569984f,    -0.02418027f,    0.07436093f,    0.03372339f,    0.00164893f,    -0.19601299f,    0.26837295f,    0.17718735f,
    -0.11221878f,    0.09074291f,    0.18923412f,    0.34242004f,    -0.01250708f,    0.28431916f,    -0.48948473f,    -0.87737900f,    0.17973055f,    -0.13122359f,
    -0.10126189f,    -0.53640062f,    -0.31403077f,    -0.04393808f,    -0.25664708f,    0.00139612f,    0.00240805f,    0.04825766f,    0.18151943f,    0.22137547f,
    0.11029849f,    -0.09149420f,    0.18202379f,    -0.17292573f,    -0.09753449f,    -0.01202733f,    -0.57414788f,    -0.37272200f,    -0.63014734f,    -0.24500290f,
    -0.28591979f,    -0.08539849f,    0.22858132f,    0.31873646f,    0.03011114f,    0.12629834f,    0.11494471f,    0.20377181f,    0.38155350f,    -0.03196807f,
    -0.16923462f,    -0.13241017f,    -0.25059584f,    -0.39821565f,    -0.26958025f,    -0.22035614f,    -0.12622753f,    -0.03710558f,    -0.35270551f,    -0.06011339f,
    -0.05337392f,    0.38860738f,    0.04500870f,    0.39292079f,    -0.12999701f,    0.27269047f,    0.19023837f,    -0.09690442f,    -0.23029153f,    -0.28037295f,
    -0.17157406f,    0.12778063f,    0.07303278f,    0.00598854f,    0.06989015f,    -0.29845649f,    0.07103644f,    -0.00549966f,    -0.02519757f,    0.00186428f,
    -0.18308279f,    -0.18086798f,    -0.23411742f,    0.03428921f,    -0.10209297f,    0.08438671f,    -0.10853554f,    -0.16991334f,    -0.00048737f,    -0.05051218f,
    -0.67057133f,    -0.29831839f,    0.33146596f,    -0.05791162f,    -0.08545307f,    0.13339451f,    -0.09550963f,    0.17822090f,    -0.20259029f,    -0.06773818f,
    -0.54207319f,    -0.32887474f,    0.22231723f,    0.19549458f,    -0.07683021f,    0.25739956f,    -0.37712342f,    0.09935098f,    -0.02591380f,    -0.51743829f,
    0.07179695f,    -0.12793899f,    -0.28821903f,    -0.12198941f,    0.14502694f,    -0.16319948f,    0.20006381f,    0.12739040f,    -0.00197820f,    -0.27553791f,
    0.14538354f,    0.13900863f,    -0.22162195f,    -0.24068435f,    0.29611406f,    0.01469246f,    0.05885240f,    -0.20863876f,    0.13766403f,    -0.30456731f,
    0.01210555f,    0.39171252f,    0.32448927f,    -0.08539625f,    -0.05470217f,    -0.34034398f,    0.31262290f,    0.14504051f,    -0.07473905f,    -0.14953549f,
    -0.24775165f,    0.53264403f,    -0.11353612f,    0.06014353f,    -0.26196983f,    -0.47029755f,    0.05613107f,    -0.13146669f,    -0.56961763f,    -0.10412937f,
    -0.30271396f,    -0.14893350f,    -0.24164128f,    -0.05249560f,    -0.34764272f,    0.31261566f,    0.30397892f,    0.57645887f,    -0.14955853f,    -0.14207280f,
    0.15061553f,    0.13151433f,    -0.10722474f,    -0.36716917f,    -0.06416461f,    -0.17678897f,    0.05278474f,    0.03229666f,    0.15978822f,    -0.18372412f,
    0.09753785f,    0.06210467f,    -0.08666562f,    0.22430147f,    0.19677539f,    -0.11291926f,    0.08737566f,    -0.24228850f,    -0.15197225f,    0.34217033f,
    0.05430804f,    -0.22018759f,    -0.17529272f,    0.01331378f,    0.17648742f,    0.10091157f,    -0.03489863f,    0.25151584f,    -0.22676955f,    -0.02160586f,
    -0.31899226f,    -0.11728727f,    0.25568554f,    0.25147906f,    -0.12005983f,    0.00101801f,    -0.13884307f,    -0.23997259f,    -0.09703852f,    0.03664063f,
    -0.08899064f,    0.13137850f,    0.38384774f,    -0.19095859f,    0.06701331f,    -0.32189819f,    -0.31543121f,    -0.05174093f,    -0.21521486f,    -0.10334989f,
    -0.09681020f,    0.39978975f,    0.30276909f,    -0.31234720f,    0.26235303f,    0.14807913f,    0.14457023f,    -0.17484242f,    -0.09446320f,    0.23317240f,
    0.00409091f,    -0.07920752f,    0.33901197f,    0.44062102f,    0.05738009f,    -0.30076906f,    0.05517977f,    0.21919055f,    0.00853292f,    -0.34464177f,
    0.16840591f,    0.33272576f,    -0.12194208f,    0.01177896f,    -0.17836480f,    0.15088943f,    -0.10328050f,    0.19254889f,    0.09522406f,    0.28136542f,
    0.36811686f,    0.23878925f,    0.51090783f,    0.08257179f,    -0.03870633f,    0.20164347f,    0.16092364f,    -0.06681790f,    0.03254685f,    0.04031787f,
    0.40741706f,    0.09510645f,    -0.03751190f,    0.03595369f,    -0.00843812f,    -0.20820104f,    0.24750693f,    -0.27856126f,    -0.07199518f,    -0.48222503f,
    -0.16902398f,    -0.20615976f,    -0.18424211f,    -0.06599186f,    -0.16080639f,    -0.20844950f,    0.05357092f,    0.12835355f,    0.00571245f,    -0.04994517f,
    -0.20602073f,    -0.29462558f,    0.11812276f,    0.38602185f,    -0.12670282f,    -0.10054035f,    0.15278718f,    0.38214383f,    0.00224408f,    0.12676883f,
    -0.35240668f,    0.19960450f,    0.23725846f,    -0.01074457f,    0.25464907f,    0.20911083f,    -0.07247423f,    0.25028020f,    -0.38652161f,    -0.10348964f,
    0.22141203f,    0.34710652f,    0.39578488f,    0.23190783f,    0.03419655f,    0.08764601f,    0.16062669f,    -0.08756748f,    -0.19650368f,    0.23875348f,
    0.08047741f,    -0.10305130f,    0.20540816f,    -0.00323472f,    0.01972197f,    -0.09800792f,    0.04286526f,    -0.06615300f,    0.24925995f,    -0.55170816f,
    -0.24442673f,    0.16295050f,    0.25658500f,    -0.01939913f,    -0.17742939f,    -0.16043717f,    0.30156308f,    -0.14331244f,    0.17433375f,    0.07477291f,
    -0.10985103f,    0.09088086f,    0.09415022f,    0.09100224f,    0.22773223f,    -0.19218720f,    -0.08730401f,    0.11296580f,    -0.14434586f,    0.17572689f,
    0.02317785f,    0.11283412f,    -0.37713090f,    0.15380146f,    -0.01382968f,    0.13084926f,    0.17092727f,    -0.10503932f,    0.02840527f,    0.18477319f,
    -0.23641264f,    -0.15106374f,    -0.03657854f,    -0.05490118f,    0.37990293f,    0.01579088f,    0.15405461f,    -0.12281054f,    -0.07331244f,    -0.16609274f,
    -0.01520399f,    -0.08427471f,    0.41143686f,    0.32319283f,    0.13035569f,    0.09925602f,    0.00164318f,    0.02847899f,    -0.30110055f,    0.05938693f,
    -0.26178652f,    0.10568029f,    -0.16897166f,    -0.18818115f,    -0.18183444f,    0.23104577f,    0.27324566f,    -0.15562949f,    0.13774197f,    0.23490205f,
    0.37300915f,    -0.06491411f,    0.47519329f,    0.04862197f,    0.09581914f,    -0.20265231f,    0.27914199f,    0.11333147f,    -0.09379160f,    0.21647744f,
    -0.07628803f,    0.17238747f,    0.01862889f,    -0.13994843f,    -0.11878949f,    0.19138269f,    0.31163642f,    0.04833534f,    0.38240859f,    -0.13712330f,
    0.15821102f,    0.25178498f,    -0.31490713f,    -0.15618214f,    -0.19529046f,    -0.01957103f,    0.00392829f,    -0.06531546f,    0.04025186f,    0.12816618f,
    -0.42730850f,    -0.04535818f,    -0.20898840f,    -0.03776956f,    -0.06655341f,    0.20536169f,    -0.08609783f,    0.01768716f,    0.32494247f,    -0.04806066f,
    0.82332230f,    -0.36913010f,    0.03109783f,    -0.00143708f,    -0.22701494f,    0.05504639f,    -0.09078206f,    -0.07625498f,    -0.20445101f,    -0.27381182f,
    0.16933410f,    0.01673802f,    -0.10775917f,    -0.05165617f,    -0.09150292f,    -0.21850500f,    0.06245302f,    0.11226062f,    -0.43603644f,    0.31557623f,
    0.28166878f,    -0.34407786f,    0.18878648f,    -0.02725862f,    -0.20021439f,    0.13865335f,    0.06651285f,    0.19493945f,    -0.12840593f,    0.22966339f,
    0.03111655f,    0.51482308f,    -0.02992333f,    -0.04220347f,    0.25695196f,    -0.17364831f,    -0.49804690f,    0.20467079f,    0.21996227f,    0.07354270f,
    0.10762067f,    -0.06731927f,    -0.20233998f,    0.18776338f,    0.04710793f,    0.22771341f,    0.06166250f,    -0.03044812f,    0.02166377f,    -0.20569085f,
    -0.07591300f,    0.34662712f,    -0.29426718f,    0.11179523f,    0.18072808f,    0.14856450f,    -0.18147855f,    0.04512447f,    0.08522762f,    0.18621090f,
    0.05235194f,    -0.07396351f,    0.01917306f,    -0.33830360f,    -0.07605765f,    0.15592773f,    0.02354208f,    -0.10789434f,    -0.43632734f,    0.24659438f,
    0.11278462f,    0.16865759f,    -0.05899662f,    0.50238425f,    -0.16979663f,    0.54074448f,    -0.23199417f,    -0.06131986f,    -0.11993820f,    0.26574022f,
    0.22570625f,    -0.07250700f,    -0.07164991f,    -0.40560880f,    -0.00246257f,    -0.40248924f,    0.22438821f,    -0.46424091f,    -0.69103706f,    0.14540379f,
    -0.18760104f,    -0.00167374f,    0.05231357f,    -0.08690014f,    -0.03057967f,    -0.04510693f,    0.17405945f,    -0.20768549f,    0.06152886f,    0.19331291f,
    -0.29455203f,    -0.12240274f,    -0.38749915f,    0.52369112f,    0.28273588f,    0.30030710f,    0.21623769f,    0.48342994f,    -0.10138053f,    0.25460809f,
    0.16122375f,    0.16946039f,    0.08861203f,    -0.07158929f,    -0.07641929f,    0.11532856f,    -0.01185352f,    -0.29030770f,    0.24230960f,    0.03290633f,
    0.11080509f,    0.04553975f,    0.06508219f,    -0.11438810f,    0.13558871f,    0.17685929f,    -0.14460075f,    0.24053828f,    -0.61146533f,    -0.03331182f,
    0.07960641f,    -0.30136725f,    -0.24224690f,    -0.08353347f,    0.18184717f,    -0.36544618f,    -0.04724940f,    0.11309335f,    0.29767412f,    0.04572390f,
    0.18186055f,    0.03680124f,    -0.23795295f,    0.07915469f,    0.08946827f,    -0.52301538f,    0.07645646f,    -0.25525212f,    0.34408244f,    -0.40622157f,
    -0.30673212f,    -0.27031916f,    -0.05831077f,    0.22183031f,    0.07331721f,    0.33115363f,    0.21187131f,    -0.01651223f,    -0.20144062f,    -0.05468284f,
    0.53919530f,    0.06724872f,    0.17085940f,    -0.11463406f,    -0.43884370f,    -0.27499530f,    -0.12438179f,    0.18361367f,    0.25259620f,    -0.16733244f,
    -0.28986177f,    0.52456474f,    -0.47456145f,    -0.18505296f,    -0.13134955f,    -0.05607772f,    0.06666838f,    0.14270225f,    0.23849800f,    -0.03510730f,
    0.03068074f,    0.03998677f,    -0.01611846f,    0.21425554f,    -0.00550709f,    0.16389039f,    0.26955765f,    -0.17276107f,    -0.04866478f,    0.23851800f,
    -0.00863881f,    -0.05768080f,    0.45563021f,    0.00379177f,    0.16174598f,    -0.03456501f,    0.36436963f,    0.19439940f,    -0.25567436f,    -0.24121246f,
    0.10354205f,    0.03355242f,    0.05997281f,    -0.36818552f,    -0.21863504f,    -0.20999177f,    -0.19167568f,    0.12478405f,    -0.19289242f,    0.06871483f,
    0.16874915f,    0.13576470f,    -0.17218606f,    0.07293613f,    0.47976631f,    -0.31364107f,    -0.09454245f,    -0.10838672f,    0.00420491f,    -0.15792106f,
    0.11633554f,    0.29032633f,    0.17433241f,    -0.03035534f,    -0.01177357f,    0.05260915f,    -0.24023546f,    0.34421188f,    0.20291604f,    0.26691535f,
    -0.14275357f,    0.25217441f,    -0.19044282f,    -0.50222021f,    -0.00650082f,    0.05961389f,    -0.10034559f,    0.08508551f,    -0.24257401f,    0.09934986f,
    -0.00555452f,    0.10308389f,    0.11051133f,    -0.61076158f,    0.04256588f,    0.20544150f,    -0.01507812f,    0.10246916f,    0.05222599f,    -0.18502395f,
    0.18903337f,    0.34426424f,    -0.10139076f,    -0.36473042f,    0.29206413f,    0.14598149f,    0.73098004f,    -0.12539850f,    -0.15538439f,    -0.12047492f,
    0.02194103f,    0.43751848f,    0.02713717f,    0.21330516f,    -0.08314262f,    0.01455150f,    -0.03571578f,    0.11968996f,    -0.17664012f,    0.07779984f,
    0.02664970f,    -0.10485589f,    0.32283270f,    0.20911060f,    -0.00328533f,    0.16964401f,    0.31330130f,    0.57254946f,    0.54551923f,    0.40679044f,
    0.00010730f,    0.60772288f,    -0.20090489f,    -0.00802280f,    0.29396212f,    -0.24509244f,    0.16771068f,    0.08907755f,    0.08826295f,    -0.43467724f,
    -0.25836104f,    0.14448294f,    -0.84984493f,    -0.46783668f,    0.13090149f,    -0.24209350f,    -0.40172970f,    -0.17866673f,    -0.33894703f,    0.13957500f,
    0.04774907f,    0.32064837f,    0.19000115f,    0.23373351f,    0.63405526f,    -0.12981194f,    0.27373546f,    -0.32281515f,    0.32596549f,    0.31910890f,
    -0.64393973f,    -0.16328089f,    0.06586874f,    -0.75513756f,    0.31500572f,    -0.13218655f,    -0.42089295f,    -0.07735536f,    -0.17301296f,    0.23301008f,
    -0.16022691f,    0.19598143f,    0.45690110f,    -0.44727227f,    -0.47396290f,    0.67162836f,    -0.16658098f,    -0.53086877f,    -0.08520108f,    -0.00821682f,
    -0.27205297f,    0.33186674f,    -0.17309864f,    -0.65680480f,    -0.20940943f,    -0.05924660f,    0.15063742f,    0.17318797f,    -0.21707556f,    -0.85738641f,
    0.30118296f,    -0.40525272f,    0.79159790f,    0.28215909f,    -1.04571974f,    -0.30101851f,    -0.20436619f,    -0.19120000f,    0.21987322f,    -0.11823002f,
    -0.26322129f,    0.82452971f,    1.26733971f,    -0.45790872f,    0.15633553f,    0.62209469f,    0.40729851f,    -0.17031655f,    0.81758994f,    -0.13341877f,
    0.17267525f,    0.22338238f,    -0.55233675f,    -0.26077622f,    -0.07446731f,    0.46945825f,    0.86059064f,    -0.08869386f,    0.03978169f,    -0.48871917f,
    -0.12927218f,    0.09892908f,    0.24611270f,    0.57203811f,    0.51355880f,    0.97235352f,    0.19168381f,    -0.16114900f,    0.20784502f,    -0.20586698f,
    -0.14409240f,    -0.64351344f,    0.29096422f,    -0.40156144f,    -0.05069015f,    -0.92688930f,    -0.90504676f,    -0.19345699f,    0.53014439f,    -0.33250570f,
    0.23349009f,    -0.20062369f,    -0.11413369f,    0.14515385f,    0.38238358f,    0.34302321f,    1.18978822f,    0.15383160f,    0.75461954f,    -0.39353761f,
    0.00584775f,    -0.95059937f,    -0.42327017f,    0.19006114f,    -0.13204922f,    -0.71622002f,    -0.30685467f,    -0.46202335f,    -0.58625084f,    -0.07550213f,
    -0.12064058f,    0.85381889f,    -0.14176439f,    -0.11018262f,    -0.26010880f,    -0.11376880f,    0.01885208f,    0.73438412f,    0.05651178f,    0.14056288f,
    -1.64184904f,    0.11428821f,    -0.09401401f,    -0.75448734f,    -0.57624686f,    0.14607801f,    0.00988927f,    0.10323390f,    -0.83570302f,    0.13697623f,
    -0.08572355f,    0.33969918f,    -0.20187534f,    0.51536578f,    0.99229831f,    0.15043622f,    0.38353530f,    -0.17811282f,    -0.29274920f,    -0.23873931f,
    0.13734193f,    -0.23827177f,    -0.87196833f,    0.13505128f,    -0.11622785f,    -0.95078635f,    -0.03802386f,    0.21049331f,    0.37775278f,    -0.06407983f,
    0.01304868f,    0.21344642f,    0.23881093f,    -0.46802574f,    0.44716495f,    -0.85398459f,    -0.02257049f,    -0.18542226f,    0.50930297f,    0.21164711f,
    -0.13832782f,    -0.08055171f,    -0.11117999f,    -0.15225878f,    0.47379813f,    -0.18453889f,    0.00120797f,    1.05305541f,    -0.19262119f,    0.54100901f,
    0.04601928f,    0.49422267f,    -0.14214599f,    0.32937256f,    1.17971289f,    -0.09366453f,    -0.31921515f,    0.08787958f,    0.19715315f,    -0.24443391f,
    -0.30448949f,    0.34413439f,    -0.47871161f,    0.16280560f,    -0.54997110f,    -0.05010020f,    -0.41164622f,    0.03914310f,    0.07322678f,    -0.83570951f,
    0.45155692f,    0.07773383f,    -0.68383008f,    0.23276645f,    0.11974426f,    0.19999790f,    -0.03742176f,    0.20673403f,    0.00714030f,    0.32182527f,
    -0.35926399f,    -0.16609359f,    0.31481540f,    -0.53220057f,    -0.21603581f,    0.04990301f,    -0.02333924f,    0.26113895f,    -0.18671323f,    -0.27323487f,
    0.23802328f,    -0.30538243f,    1.44815028f,    -0.10714951f,    -0.05094317f,    0.15889667f,    1.11578536f,    0.46414810f,    -0.54026008f,    -0.10989597f,
    0.12066726f,    -0.38759655f,    -0.24384819f,    -0.25595620f,    -0.17425133f,    -0.28586438f,    -0.04912695f,    0.08183818f,    0.65002227f,    0.04418371f,
    -0.00422801f,    0.07023976f,    -0.13560353f,    -0.03789516f,    0.14468549f,    0.38800946f,    0.09291495f,    0.29394892f,    0.04730096f,    0.01357815f,
    0.08541577f,    -0.21405166f,    0.18533149f,    -0.25598779f,    -0.19372965f,    -0.04568235f,    -0.23105013f,    0.05684048f,    -0.00549464f,    0.10868716f,
    0.25003758f,    -0.15039663f,    0.02768698f,    0.15001941f,    -0.30746055f,    0.18559901f,    0.29740772f,    0.85348475f,    0.06043514f,    -0.25911659f,
    -0.10396291f,    0.07406772f,    0.01907458f,    0.35668027f,    0.01074279f,    0.13816951f,    -0.24101765f,    -0.07066219f,    0.15698087f,    -0.29169339f,
    0.10087648f,    0.24102704f,    -0.26078364f,    -0.25895691f,    -0.03091290f,    -0.16230400f,    0.11012658f,    0.38486624f,    -0.11001541f,    -0.09480312f,
    -0.38455924f,    0.02733146f,    0.05613529f,    -0.35761708f,    0.36151168f,    -0.25910461f,    -0.16974519f,    0.12929188f,    -0.19778883f,    -0.14985240f,
    0.14145628f,    0.27033803f,    -0.09922817f,    0.20794760f,    0.28002155f,    -0.07361614f,    0.09283312f,    0.42260087f,    0.01011078f,    0.15866569f,
    0.37182394f,    0.18540929f,    -0.09436446f,    -0.01959614f,    -0.01955895f,    -0.19387513f,    0.05405059f,    0.10686837f,    0.84941417f,    0.10181521f,
    0.16207464f,    0.07630940f,    0.02806640f,    0.02462567f,    0.49111891f,    0.44709516f,    -0.04245003f,    -0.28819478f,    -0.13201039f,    -0.25319520f,
    -0.11151487f,    -0.29655004f,    0.11554862f,    0.12206673f,    0.38350701f,    -0.17560019f,    0.05466818f,    -0.06666099f,    -0.27327493f,    0.40363526f,
    0.19243725f,    0.60966998f,    0.08013500f,    0.28940907f,    0.34892786f,    -0.24221879f,    0.07620589f,    -0.35032299f,    0.20447347f,    0.03693103f,
    0.16780604f,    -0.00781693f,    -0.45284286f,    -0.22893052f,    0.27823362f,    -0.40856609f,    -0.05908934f,    -0.12066923f,    0.29982561f,    -0.04909096f,
    0.11751276f,    0.00451872f,    0.31671271f,    0.08379663f,    0.34973469f,    -0.09425256f,    0.07387458f,    -0.39468879f,    -0.27828854f,    0.10687006f,
    0.13610092f,    0.08118378f,    -0.02633913f,    0.43632674f,    -0.11389064f,    -0.25055957f,    -0.37258372f,    0.02609955f,    -0.29680791f,    -0.12828739f,
    -0.30371070f,    0.06064474f,    -0.21730000f,    -0.00538800f,    0.02675641f,    -0.33981243f,    -0.30148295f,    0.03173122f,    -0.03006430f,    -0.06032931f,
    -0.06978941f,    0.31971312f,    -0.11561887f,    -0.21260132f,    -0.20426580f,    0.08899888f,    -0.02341492f,    0.41543204f,    -0.30293044f,    -0.03155616f,
    0.18230096f,    -0.17446586f,    0.06628118f,    -0.01712331f,    -0.29885754f,    -0.18213405f,    0.06120528f,    0.27627814f,    -0.24313903f,    -0.05493015f,
    -0.03095182f,    -0.54510200f,    0.00381846f,    0.38202047f,    0.38814810f,    0.12047645f,    -0.12609163f,    0.14299482f,    0.15807426f,    0.42794117f,
    0.24344578f,    -0.06920026f,    -0.09665560f,    0.20831844f,    0.42844808f,    -0.26435006f,    0.29384521f,    0.09289256f,    -0.23893040f,    -0.29712784f,
    -0.05207620f,    -0.08098457f,    -0.18090396f,    0.61427468f,    0.01078191f,    0.15822580f,    0.06672127f,    -0.25676051f,    -0.32639632f,    0.11145521f,
    0.14372613f,    -0.39893705f,    -0.15878041f,    0.10540808f,    0.31547740f,    -0.18439566f,    -0.08396561f,    0.00682218f,    0.13287935f,    0.15171924f,
    -0.25905588f,    0.05128441f,    -0.17866662f,    0.00915973f,    0.03177321f,    0.00389600f,    0.13795541f,    0.14916655f,    -0.16957380f,    -0.17394866f,
    -0.13425757f,    -0.02360978f,    0.41180176f,    0.17635745f,    -0.03167446f,    -0.11049200f,    -0.02189480f,    -0.14631376f,    0.17357384f,    -0.36202613f,
    -0.07186574f,    -0.09583205f,    0.11133303f,    -0.36500791f,    0.18478465f,    -0.28487182f,    0.08045145f,    -0.21130627f,    0.30576572f,    0.17085028f,
    0.06218112f,    0.38247043f,    0.45862168f,    0.38665068f,    -0.09088896f,    -0.08158921f,    0.24822430f,    -0.48001698f,    0.18414387f,    0.04147964f,
    -0.11272813f,    -0.08758165f,    -0.17526063f,    -0.19420534f,    0.24404402f,    0.15816443f,    0.12218583f,    0.20815726f,    -0.00496310f,    -0.04196786f,
    0.20072146f,    0.00322274f,    0.25079596f,    0.10206040f,    -0.11717141f,    0.11636498f,    0.19097976f,    -0.03028621f,    0.12478323f,    0.32661080f,
    -0.01353128f,    0.36167312f,    -0.07422642f,    0.12249771f,    -0.04995724f,    -0.17542991f,    -0.10066634f,    0.12178151f,    0.10953392f,    0.02642498f,
    -0.16115497f,    -0.11503177f,    0.06542504f,    0.16122429f,    -0.01195930f,    0.20900887f,    0.04636199f,    0.21622008f,    -0.16264342f,    0.11560764f,
    -0.21843435f,    0.15343462f,    0.20944563f,    0.04181688f,    0.09060434f,    -0.07377960f,    0.17730741f,    0.26452154f,    -0.00932046f,    -0.06307791f,
    -0.11640693f,    0.17923051f,    -0.09347919f,    0.10352287f,    -0.17699701f,    -0.13843676f,    -0.03906746f,    0.43673211f,    -0.10951933f,    0.22992617f,
    -0.05177067f,    0.17363985f,    -0.01908142f,    0.12978934f,    0.03621706f,    0.01486431f,    0.00997483f,    0.18648246f,    0.26701477f,    -0.10091766f,
    0.28687769f,    0.16306271f,    0.12500367f,    0.15830858f,    0.05683406f,    0.26416942f,    -0.01352650f,    0.19180775f,    0.10431751f,    -0.11153761f,
    -0.04863078f,    0.24721031f,    -0.02776395f,    0.07921731f,    -0.37778142f,    0.04573612f,    0.20383932f,    0.07434461f,    -0.22327384f,    -0.16273588f,
    -0.40041095f,    0.20336342f,    0.03530928f,    0.22509062f,    -0.10567407f,    0.42108163f,    0.28371096f,    0.11114666f,    0.03154877f,    -0.14735101f,
    -0.11944319f,    0.24819763f,    0.07692070f,    0.02342285f,    -0.19155870f,    0.06491289f,    -0.29293507f,    0.35947481f,    -0.20553900f,    0.28292435f,
    -0.07022479f,    0.02257002f,    -0.17055039f,    -0.09838719f,    -0.18792748f,    0.24033926f,    -0.16945609f,    0.16818191f,    0.39796954f,    -0.00809327f,
    0.21499185f,    0.26057839f,    0.11903679f,    0.21672051f,    0.17597257f,    -0.13063212f,    0.02462279f,    -0.19936715f,    0.13538641f,    -0.03158543f,
    -0.15062594f,    0.15486892f,    -0.03944812f,    0.26040617f,    0.14035487f,    -0.13634188f,    0.05479125f,    0.28935009f,    -0.09766584f,    -0.08603984f,
    0.09469036f,    -0.07848881f,    0.15490183f,    0.16912080f,    -0.12555221f,    -0.06287523f,    0.17024556f,    0.07703306f,    0.09546036f,    0.10720912f,
    0.11117341f,    0.25489369f,    0.40300599f,    0.14235635f,    0.24496181f,    0.33992437f,    0.02377713f,    -0.18115458f,    -0.05035779f,    0.23173086f,
    -0.21289000f,    -0.16634130f,    0.27679747f,    -0.19378608f,    -0.09241062f,    -0.01728245f,    0.01495722f,    -0.02030887f,    0.24207932f,    0.09304404f,
    -0.07693040f,    0.01684665f,    0.15325029f,    0.01991034f,    -0.19835263f,    0.15825358f,    -0.00181089f,    -0.10285195f,    -0.12925388f,    -0.25243026f,
    0.25024378f,    0.27986476f,    0.11212841f,    0.05032923f,    0.15691820f,    0.16382901f,    0.05060804f,    0.46145397f,    0.03742615f,    0.08044682f,
    0.09636813f,    0.47706869f,    0.35522094f,    0.13948990f,    0.09166706f,    0.08095829f,    0.12120967f,    0.05599964f,    0.09707188f,    0.26557633f,
    0.03983541f,    0.02850174f,    0.06620662f,    0.02948661f,    0.21788898f,    -0.06921570f,    0.35985899f,    0.02174382f,    0.19658661f,    0.16258693f,
    -0.34249339f,    -0.22009341f,    0.12268757f,    -0.18207899f,    0.12831606f,    0.26738784f,    0.04327130f,    -0.24086405f,    -0.07588143f,    0.06825910f,
    -0.06911694f,    0.26923001f,    0.34802991f,    0.14835936f,    0.02469279f,    -0.00193773f,    0.17736338f,    0.16784845f,    -0.29121792f,    -0.15132189f,
    0.23092632f,    0.16288207f,    -0.13176920f,    -0.04453875f,    -0.10825187f,    -0.02954935f,    0.01829658f,    -0.12455492f,    0.22244015f,    -0.22960500f,
    0.13026647f,    -0.02766368f,    0.22549598f,    0.00965273f,    -0.12787294f,    -0.30022314f,    0.24818276f,    -0.10303997f,    -0.25567690f,    0.40761319f,
    0.16339490f,    -0.10533222f,    -0.04010872f,    0.45498523f,    0.11894491f,    0.12131905f,    0.31508216f,    0.11361468f,    0.09626651f,    -0.24008787f,
    0.29317340f,    0.18314724f,    0.26361918f,    -0.06058621f,    -0.04985586f,    0.30212960f,    0.05132665f,    0.04519328f,    -0.30855814f,    0.15122730f,
    -0.11551318f,    0.00052113f,    -0.06083393f,    -0.14066184f,    0.09783467f,    -0.24017711f,    -0.03937230f,    0.25685149f,    0.11919426f,    -0.00556624f,
    0.21163212f,    -0.16537963f,    0.14066415f,    0.31967068f,    0.06521942f,    -0.06094603f,    -0.13181189f,    0.25661170f,    0.18396050f,    0.38000995f,
    -0.04069223f,    0.36491567f,    -0.31618232f,    0.06309029f,    0.01407490f,    0.19107160f,    0.31794888f,    0.25642940f,    0.01147808f,    0.12419201f,
    -0.25183976f,    0.03920478f,    0.16177937f,    -0.06566526f,    0.18592688f,    -0.08735754f,    0.17650159f,    -0.02882542f,    0.11500924f,    0.18311343f,
    0.22850664f,    0.24612127f,    0.23800789f,    -0.37347224f,    -0.12737963f,    0.05351742f,    -0.29617533f,    0.20524785f,    -0.09319789f,    0.56865507f,
    -0.12788372f,    0.24900071f,    0.08402622f,    0.20725358f,    -0.18202104f,    -0.03334292f,    0.16481723f,    -0.13319354f,    0.01929890f,    0.18258332f,
    0.14827965f,    0.11617722f,    0.33236179f,    0.21437909f,    -0.30588838f,    0.04319939f,    -0.02817572f,    -0.00206936f,    0.21847175f,    0.11520369f,
    -0.07438563f,    0.04170452f,    0.03354457f,    -0.03294296f,    -0.22440799f,    -0.05200833f,    0.32307982f,    0.22959104f,    0.20520250f,    -0.22230920f,
    0.00509004f,    0.20507981f,    -0.01758857f,    -0.12539250f,    -0.21469025f,    0.14634366f,    0.17352217f,    -0.20838928f,    -0.08606867f,    -0.12029193f,
    0.22966407f,    0.10195614f,    0.23569486f,    -0.01797117f,    0.05803436f,    -0.15534236f,    0.17377242f,    -0.02197511f,    -0.13052791f,    0.25629032f,
    0.05226597f,    0.26272526f,    0.13652915f,    0.19282481f,    -0.24382226f,    0.20700258f,    -0.00806574f,    0.05592315f,    -0.26754552f,    -0.41535643f,
    0.18804194f,    -0.24356078f,    -0.14284438f,    0.07770838f,    -0.13288189f,    -0.18572927f,    0.34045410f,    -0.13447697f,    0.00820978f,    0.17158851f,
    0.17634526f,    -0.04438444f,    -0.28521907f,    0.09023106f,    -0.25675437f,    0.00272795f,    -0.28314558f,    0.20788465f,    0.08576813f,    -0.25535381f,
    0.04279582f,    0.03563930f,    -0.08166276f,    -0.14661959f,    0.16310550f,    -0.24778627f,    -0.25172836f,    0.33428776f,    -0.08793480f,    0.11125420f,
    0.20434746f,    0.15436140f,    -0.19653603f,    0.15911429f,    -0.00932898f,    -0.20276542f,    -0.02631097f,    0.13980085f,    0.07050573f,    -0.07308962f,
    0.20687985f,    -0.10104076f,    0.09404834f,    -0.07034250f,    0.07150546f,    0.23121071f,    -0.00702552f,    -0.06357699f,    0.10190182f,    -0.06381190f,
    -0.01133104f,    0.21456009f,    -0.11554024f,    -0.19555227f,    -0.08884338f,    -0.15172498f,    0.21446870f,    -0.22598612f,    0.10983016f,    0.10326619f,
    0.09950486f,    0.26572540f,    0.14325184f,    0.33890143f,    -0.08836213f,    0.16082363f,    -0.32580513f,    -0.03107797f,    0.17020518f,    -0.12053010f,
    -0.05633998f,    -0.10884126f,    0.16708863f,    0.19649583f,    0.09714932f,    -0.21972196f,    0.09415885f,    -0.31011328f,    -0.06591951f,    -0.01290243f,
    -0.21878852f,    -0.18480535f,    0.40714797f,    -0.15902686f,    -0.14341721f,    -0.07197789f,    0.20080303f,    -0.14810947f,    -0.12025159f,    -0.17254688f,
    -0.29352915f,    -0.25985426f,    -0.16715904f,    -0.32452241f,    -0.06515186f,    -0.10864032f,    0.07870946f,    -0.19831914f,    -0.30821478f,    0.13227335f,
    0.09032083f,    0.16172782f,    -0.06130386f,    -0.16074924f,    -0.23119013f,    -0.01261665f,    0.06449439f,    -0.02869705f,    -0.06331035f,    0.20130818f,
    0.23483868f,    0.09026915f,    0.13974282f,    0.15942620f,    0.18665740f,    -0.36233976f,    0.03243876f,    -0.23938292f,    -0.18141651f,    0.05887144f,
    -0.25672096f,    0.14113972f,    0.09516963f,    -0.03474285f,    -0.26573819f,    0.23600845f,    0.08085932f,    -0.14977045f,    -0.03650858f,    0.28428558f,
    -0.11826170f,    -0.20027937f,    -0.51828176f,    0.00410783f,    -0.16266789f,    -0.05894257f,    0.21325706f,    0.19874556f,    0.15585239f,    0.13134375f,
    -0.09109978f,    0.52270198f,    -0.29997471f,    -0.04930388f,    0.28036889f,    0.00152783f,    0.14176407f,    0.02355795f,    -0.28276151f,    -0.38601363f,
    0.25841168f,    -0.31209955f,    -0.13069473f,    0.24877113f,    -0.38957900f,    0.12296691f,    0.39524618f,    0.20355363f,    -0.02464218f,    0.41724968f,
    -0.01714641f,    -0.14730385f,    -0.22829042f,    -0.00830498f,    -0.03615268f,    0.49054232f,    0.31382212f,    -0.09879164f,    -0.02629133f,    -0.05798209f,
    -0.11639876f,    0.04535411f,    0.18298528f,    -0.21985303f,    -0.20452541f,    -0.05310158f,    -0.38464013f,    -0.23149055f,    0.16136692f,    0.24385685f,
    0.08578506f,    -0.45129398f,    -0.13404265f,    0.15443081f,    0.13028018f,    0.23315455f,    -0.03496336f,    -0.47929633f,    -0.10998985f,    0.79005921f,
    -0.14814101f,    -0.14054509f,    0.19136609f,    -0.19335134f,    0.04724384f,    0.56940192f,    0.29335916f,    -0.16026364f,    -0.08877613f,    0.44210172f,
    -0.24229920f,    -0.04434817f,    0.06799154f,    -0.16640741f,    0.15110445f,    0.16023873f,    0.14983895f,    0.02694768f,    -0.14821015f,    -0.06706326f,
    -0.36869642f,    -0.00501106f,    0.27424371f,    -0.14991963f,    0.16649333f,    -0.21869181f,    -0.36465162f,    0.08891887f,    0.23919210f,    0.70315421f,
    -0.06349444f,    -0.23543350f,    0.54885250f,    0.49098897f,    0.01650789f,    0.31691360f,    -0.13865469f,    -0.17986031f,    -0.13432309f,    0.32423574f,
    0.27281994f,    0.13182884f,    -0.02320290f,    -0.00066791f,    -0.07894336f,    0.14031263f,    0.03275193f,    0.27299324f,    -0.21185823f,    -0.37602374f,
    -0.08907793f,    -0.19066493f,    0.38002503f,    0.12177436f,    0.15155873f,    -0.39330319f,    -0.38016775f,    -0.11300015f,    0.13481985f,    -0.37909871f,
    -0.25486442f,    -0.02809895f,    0.49537000f,    -0.15726180f,    -0.09236959f,    -0.26840791f,    0.09109435f,    0.17609976f,    0.00738033f,    -0.03229994f,
    1.14374948f,    -0.09461904f,    -0.18577762f,    -0.00497928f,    -0.21071398f,    0.08030741f,    -0.03941879f,    0.35327864f,    0.48778763f,    -0.04819109f,
    0.09367999f,    -0.21517679f,    -0.35223722f,    -0.32864308f,    0.13625471f,    -0.24309097f,    -0.15983380f,    0.11425970f,    0.00799340f,    -0.24837798f,
    -0.51132441f,    0.22227818f,    0.39643076f,    -0.31190160f,    0.46124598f,    0.20269722f,    0.00403002f,    -0.03710259f,    0.09697539f,    0.04708299f,
    0.12758778f,    -0.24218248f,    -0.28590342f,    -0.06812842f,    0.15227179f,    0.21575147f,    0.04559519f,    0.14112628f,    0.50014919f,    -0.13253169f,
    0.51666141f,    -0.06756507f,    0.08492641f,    -0.33904976f,    -0.05177861f,    -0.17928949f,    -0.56821507f,    0.36449328f,    -0.10117922f,    -0.19735087f,
    -0.00235445f,    0.27670556f,    0.28601211f,    -0.26057535f,    -0.17948215f,    0.06049453f,    -0.14796525f,    0.41101444f,    0.26461938f,    -0.26222607f,
    0.18226317f,    0.16720170f,    0.33825335f,    -0.06852660f,    -0.10616519f,    -0.20676695f,    0.11436567f,    -0.11299501f,    1.00244629f,    -0.00704647f,
    0.21903616f,    -0.03790421f,    0.16231202f,    0.42599562f,    0.00580107f,    0.31478503f,    -0.28336474f,    0.43351638f,    -0.24802800f,    -0.05405209f,
    0.22100019f,    -0.09196385f,    0.44845462f,    0.10881374f,    -0.37660027f,    0.04382422f,    0.24096118f,    0.26342037f,    -0.32615736f,    -0.43105960f,
    -0.27034977f,    -0.02068575f,    0.17605825f,    -0.11079103f,    0.15925655f,    0.15662922f,    -0.58419800f,    -0.12993141f,    0.13172559f,    -0.01325608f,
    0.04147556f,    -0.10015950f,    -0.27745122f,    0.03314013f,    -0.22024624f,    0.05717706f,    -0.07305489f,    -0.08099811f,    0.09783470f,    0.22580422f,
    -0.36284402f,    -0.29940626f,    0.06883429f,    -0.12458831f,    0.02889100f,    0.05178903f,    0.20529743f,    0.18411751f,    -0.23014869f,    0.22954892f,
    -0.15660298f,    0.33686998f,    -0.29872176f,    0.05252608f,    0.29007357f,    -0.62473762f,    0.05708309f,    -0.51998293f,    0.32976335f,    0.29723608f,
    0.19326346f,    0.07526179f,    -0.20740598f,    -0.06458134f,    -0.08923548f,    0.01948345f,    -0.08535807f,    -0.21271488f,    -0.12974091f,    -0.01716887f,
    0.21037690f,    0.10385167f,    -0.13823867f,    0.16345127f,    -0.02680672f,    -0.22984298f,    0.03088246f,    0.18079542f,    -0.15524749f,    0.03852389f,
    0.02725370f,    -0.19138624f,    0.21326610f,    0.19184810f,    0.00242407f,    -0.01801688f,    -0.06534279f,    0.13655107f,    0.25385797f,    0.07616173f,
    0.06222185f,    -0.09820207f,    0.07863110f,    -0.27108312f,    -0.02340582f,    -0.04948352f,    0.23122731f,    0.07564686f,    -0.27520216f,    -0.24426858f,
    -0.17512013f,    0.02334939f,    0.18161848f,    -0.08259859f,    0.10262906f,    -0.09441748f,    -0.07440045f,    -0.02449475f,    0.02832478f,    0.09858958f,
    0.07788164f,    0.09923858f,    0.11452996f,    0.35970053f,    0.09498926f,    0.27251816f,    -0.15927809f,    -0.17095906f,    -0.25599110f,    -0.13995120f,
    -0.12032917f,    0.29658949f,    -0.08318978f,    -0.07938702f,    0.16956203f,    -0.12782960f,    0.08239542f,    -0.05735667f,    -0.07450057f,    0.22981824f,
    -0.01191993f,    -0.00150359f,    0.09693561f,    0.36008450f,    0.01077090f,    -0.04808315f,    0.29321235f,    -0.15923221f,    0.22375159f,    -0.08363394f,
    0.18288291f,    -0.02247085f,    -0.26351240f,    -0.22705939f,    -0.13146040f,    0.13693146f,    0.24475850f,    0.07256199f,    0.17053318f,    0.35231209f,
    0.19936781f,    -0.21862753f,    0.10091528f,    0.24956955f,    -0.05363104f,    -0.01766262f,    0.25603622f,    -0.02403516f,    -0.06356902f,    -0.16549103f,
    0.12017385f,    -0.09088784f,    -0.08151785f,    0.05287583f,    0.29705483f,    0.09133168f,    0.08558162f,    0.10182269f,    -0.14191715f,    -0.34256580f,
    -0.00538385f,    0.30540112f,    -0.13559023f,    0.10388847f,    0.02265770f,    0.22176923f,    0.12625100f,    0.22920562f,    0.12165353f,    0.04639754f,
    -0.10153096f,    0.47114947f,    -0.05961730f,    0.12992108f,    -0.08860837f,    -0.10675500f,    -0.40657151f,    0.02295949f,    0.09761667f,    -0.00725326f,
    -0.10286886f,    -0.09671424f,    0.33549538f,    0.08523228f,    -0.13164572f,    0.37319809f,    -0.15490393f,    0.24141781f,    -0.13125533f,    0.17790943f,
    -0.08458538f,    0.21655580f,    -0.09761952f,    0.12066855f,    -0.09181475f,    0.12121141f,    -0.15630943f,    0.30606994f,    0.00096575f,    -0.28953698f,
    0.64768046f,    0.04831610f,    -0.02317720f,    0.19527330f,    0.26801562f,    -0.24225919f,    0.00980029f,    0.18995899f,    0.27080134f,    -0.11116159f,
    -0.25145838f,    0.11626259f,    0.25055316f,    0.04077454f,    0.01230618f,    0.21991129f,    -0.00382604f,    0.00897922f,    -0.13918163f,    -0.04689300f,
    0.25620964f,    -0.01614609f,    0.01867308f,    0.39688355f,    0.06541920f,    0.21635889f,    0.13886428f,    0.29147434f,    0.15971479f,    0.11985376f,
    -0.13772644f,    -0.16232972f,    -0.16095732f,    -0.13616385f,    0.20911898f,    0.44054228f,    -0.08844239f,    -0.08867839f,    -0.04131111f,    -0.07274928f,
    -0.18368942f,    0.29232407f,    -0.09439773f,    -0.23789701f,    0.12189481f,    -0.09962665f,    0.08722308f,    0.21032716f,    -0.13998179f,    0.36760068f,
    -0.05839451f,    0.27240577f,    0.02345068f,    -0.09633087f,    0.30095372f,    0.13617888f,    -0.11495258f,    0.18037307f,    0.16498366f,    0.04582500f,
    -0.07943682f,    -0.02415237f,    -0.18157746f,    0.24091284f,    0.30585128f,    -0.11923584f,    0.18835257f,    0.00818350f,    0.06846453f,    0.27022725f,
    -0.19541378f,    0.04655991f,    0.18048251f,    0.23041920f,    -0.13117629f,    0.14086160f,    0.42571872f,    0.18981865f,    -0.24790624f,    0.30531299f,
    0.19955994f,    -0.15716286f,    0.42334554f,    0.21704587f,    -0.13969691f,    0.23690112f,    0.22628044f,    0.01732179f,    -0.00104480f,    -0.00956844f,
    0.27322009f,    -0.13212195f,    -0.29708874f,    -0.14164853f,    -0.21480970f,    0.16908543f,    -0.16279730f,    0.11928540f,    -0.15170477f,    -0.17457728f,
    -0.23548084f,    0.08662775f,    0.09966066f,    0.36079630f,    0.00731774f,    0.14965704f,    -0.11544336f,    -0.15544824f,    -0.04242787f,    -0.14135334f,
    0.27133808f,    -0.05950660f,    -0.22777097f,    0.09166494f,    0.17498699f,    0.04716985f,    -0.01321857f,    -0.28857815f,    -0.04698737f,    -0.10518767f,
    -0.17544691f,    -0.08716611f,    -0.12403966f,    -0.02317280f,    -0.08974064f,    -0.04787257f,    0.13799095f,    0.11098404f,    -0.18791847f,    -0.20011275f,
    -0.24443069f,    0.10607632f,    0.10633279f,    -0.16015431f,    0.09038582f,    0.03214805f,    0.05347561f,    -0.00297040f,    0.08682598f,    0.29818895f,
    -0.03867276f,    0.20962811f,    -0.01466927f,    0.08007385f,    -0.08175037f,    -0.30572179f,    -0.09040134f,    0.03644862f,    0.04715722f,    0.05617557f,
    0.00292069f,    0.19863801f,    0.07849800f,    0.03429187f,    -0.10829213f,    -0.13441870f,    -0.13834611f,    0.09653286f,    0.04122151f,    -0.07478495f,
    -0.08712839f,    0.13307725f,    0.10869065f,    0.33153200f,    -0.02012634f,    0.27452338f,    0.08203586f,    0.15492800f,    0.12628287f,    -0.19984923f,
    -0.00190759f,    -0.01041419f,    -0.02095629f,    0.14461835f,    0.13364138f,    -0.16299839f,    0.10296703f,    -0.37993887f,    0.13982627f,    -0.27301392f,
    0.08783104f,    0.03545143f,    0.28698912f,    0.15834774f,    0.06881242f,    -0.21143895f,    0.10212195f,    0.10741764f,    -0.09130885f,    0.10468423f,
    0.30394337f,    0.17633827f,    -0.14596644f,    0.04716654f,    0.16594154f,    0.24558207f,    -0.14622208f,    -0.11752850f,    -0.04274973f,    -0.13710585f,
    -0.19969574f,    0.04384702f,    0.28818062f,    -0.20941021f,    -0.00990781f,    -0.16418864f,    -0.09049723f,    0.06131260f,    0.01835706f,    -0.11358439f,
    -0.18515666f,    -0.16182606f,    0.14438325f,    0.18535870f,    0.06316870f,    0.27089581f,    0.10221895f,    0.16326211f,    0.00142065f,    0.27737379f,
    -0.11473057f,    -0.13835974f,    0.34151328f,    -0.15839903f,    -0.07440449f,    -0.05352056f,    -0.19081107f,    0.00246240f,    0.26294258f,    -0.04307728f,
    -0.06109436f,    -0.03390099f,    -0.40822729f,    0.03065728f,    -0.00617381f,    -0.01178588f,    0.05028608f,    0.03944905f,    0.21877423f,    0.16592723f,
    0.00167453f,    0.01887559f,    -0.12878306f,    -0.02245675f,    -0.16924047f,    0.01686783f,    0.36516973f,    0.21792060f,    0.18989640f,    0.14123976f,
    0.23283541f,    0.11412016f,    -0.02021896f,    0.07781453f,    -0.12840807f,    -0.03905136f,    -0.01207321f,    0.02257563f,    0.00705682f,    0.06294921f,
    0.10903171f,    -0.26861313f,    0.03813118f,    0.04040507f,    -0.12302404f,    0.16060160f,    0.15922278f,    -0.02413129f,    -0.00332373f,    0.09865320f,
    -0.27028680f,    -0.04115171f,    0.30101216f,    0.24174829f,    0.15597060f,    -0.07742975f,    0.30864406f,    -0.26421973f,    -0.00685473f,    0.47204280f,
    -0.08417848f,    0.08102597f,    -0.13720220f,    0.26625609f,    0.27875647f,    -0.32037753f,    0.10151417f,    -0.28358877f,    0.06475384f,    0.17461942f,
    0.03779533f,    0.38368747f,    0.14657246f,    -0.28068489f,    0.05597818f,    0.17600268f,    0.38874853f,    -0.19736812f,    0.14439298f,    0.08341008f,
    -0.11863973f,    0.07645842f,    -0.00227047f,    -0.24612744f,    0.14509830f,    0.12850483f,    0.26875004f,    0.16914780f,    0.08023285f,    0.17285721f,
    -0.00782427f,    0.15747495f,    0.11599926f,    0.14866598f,    0.18756041f,    -0.11128788f,    -0.12634937f,    -0.12591931f,    0.14386454f,    0.12974800f,
    -0.10665828f,    0.41415766f,    -0.01008716f,    0.05775155f,    0.21213712f,    -0.00790404f,    -0.29793912f,    0.14995822f,    0.11881356f,    0.31418422f,
    -0.23410387f,    -0.00590060f,    -0.04997044f,    0.11792433f,    -0.15904556f,    0.12307937f,    -0.10313629f,    0.17018984f,    0.26219049f,    -0.07409543f,
    -0.08238996f,    -0.12939970f,    -0.24387051f,    -0.10466161f,    0.21968976f,    0.00798284f,    0.20363422f,    -0.08045156f,    0.55866128f,    0.03444352f,
    0.09253940f,    0.07408760f,    0.19242379f,    0.08461818f,    0.21856105f,    -0.09825832f,    0.10853647f,    0.70046961f,    -0.15026693f,    0.31578657f,
    0.14788139f,    0.07951919f,    0.30784094f,    -0.10883665f,    -0.17913379f,    0.00692508f,    0.24766222f,    -0.12394633f,    -0.18765751f,    0.08010903f,
    0.04187566f,    -0.15978535f,    0.30674911f,    -0.02969790f,    0.21646737f,    -0.18212047f,    0.28041998f,    0.24410543f,    0.11539823f,    0.14582226f,
    0.04532084f,    0.24386638f,    -0.10042413f,    0.08251978f,    -0.12313984f,    0.29248545f,    0.20143875f,    0.05632519f,    -0.11424457f,    -0.12530571f,
    -0.25872415f,    0.10229737f,    -0.07577292f,    -0.08231624f,    0.02330784f,    -0.06605453f,    -0.14899988f,    -0.19049682f,    -0.15652825f,    0.00468113f,
    -0.09217705f,    0.06100339f,    0.06499441f,    0.04756631f,    -0.11590742f,    0.00713273f,    0.15868892f,    0.02944744f,    -0.00692757f,    -0.16398507f,
    0.05845986f,    0.12425831f,    -0.16766529f,    -0.02167460f,    0.22708964f,    -0.18551794f,    0.21191747f,    -0.16946670f,    -0.05052963f,    0.02529718f,
    0.09276707f,    0.10731829f,    0.10797451f,    0.06873654f,    -0.11182085f,    0.23616312f,    0.24824673f,    0.11992370f,    -0.14045189f,    -0.14808285f,
    0.41567716f,    0.12446240f,    -0.11712091f,    0.02801763f,    0.27102205f,    -0.16503930f,    0.40178671f,    0.02437137f,    0.17910373f,    0.13657916f,
    0.05225009f,    0.02809950f,    0.17083898f,    0.05562826f,    -0.26575211f,    0.30387729f,    0.09293444f,    -0.21562594f,    0.24957021f,    0.19168313f,
    -0.31927949f,    0.40841573f,    0.10782184f,    -0.19030394f,    0.21947537f,    0.35645440f,    0.22170164f,    -0.09482028f,    0.06967764f,    -0.19963557f,
    -0.23012705f,    -0.06271842f,    0.06135942f,    0.09278858f,    -0.17219026f,    -0.13446857f,    -0.24618018f,    0.38421327f,    -0.16042450f,    -0.01053511f,
    0.14731346f,    -0.20688325f,    -0.16582026f,    0.08579530f,    -0.12447751f,    0.35442600f,    -0.01953709f,    0.24079058f,    -0.13337339f,    -0.07350750f,
    0.05648068f,    0.08870297f,    -0.15115169f,    0.31791669f,    -0.15887460f,    -0.24392417f,    -0.05480658f,    -0.17587778f,    0.24005823f,    0.09756604f,
    0.08650591f,    0.27217546f,    0.12617891f,    0.14692676f,    -0.00369380f,    0.29821774f,    -0.04811012f,    -0.10244251f,    0.08931177f,    0.07683360f,
    0.34129557f,    -0.05911895f,    0.09842432f,    0.09785961f,    -0.16171338f,    0.26849097f,    0.02478140f,    0.13887095f,    0.04026719f,    0.13866410f,
    0.04965813f,    -0.30337796f,    0.50064021f,    -0.09741523f,    -0.02574201f,    0.12077105f,    0.34183398f,    0.13310328f,    0.00006922f,    0.09794055f,
    -0.21883684f,    -0.13654386f,    0.02170648f,    0.16420564f,    -0.10419145f,    0.06215844f,    -0.05693633f,    0.01913189f,    0.07011404f,    -0.12757356f,
    -0.12544391f,    -0.07560851f,    -0.12727079f,    -0.03260006f,    0.24768804f,    0.33819669f,    -0.11982270f,    0.29956663f,    0.30890480f,    0.02529747f,
    -0.06057785f,    -0.17675026f,    -0.03420232f,    0.21443026f,    -0.28409255f,    -0.07172397f,    0.14134827f,    0.39475611f,    0.13405396f,    -0.10151171f,
    0.14431195f,    0.35553521f,    0.27522972f,    -0.21943273f,    0.12688436f,    -0.22212876f,    -0.16636270f,    -0.00123265f,    0.06944513f,    -0.14632633f,
    0.12234232f,    0.31769732f,    0.05383733f,    -0.12092398f,    0.20805277f,    0.23791388f,    -0.32808763f,    -0.16981436f,    0.19663112f,    0.07687484f,
    -0.20639032f,    -0.13637160f,    -0.06963780f,    0.17945829f,    -0.23683688f,    -0.43286920f,    0.15423222f,    0.25787398f,    0.22995515f,    -0.14257209f,
    -0.05146302f,    -0.09279944f,    0.28199303f,    0.06948780f,    0.03255659f,    -0.00221685f,    0.27588060f,    0.01813410f,    0.34111539f,    -0.07301005f,
    -0.06728754f,    0.22075093f,    0.00290411f,    0.11240467f,    0.14877178f,    0.05258891f,    -0.13189575f,    -0.06207784f,    -0.16800520f,    -0.18598598f,
    0.02974968f,    -0.11842684f,    0.29473090f,    -0.09743359f,    0.07358617f,    0.03015105f,    0.19005245f,    -0.27991191f,    -0.07955135f,    0.29790819f,
    0.13925119f,    0.07670585f,    0.00204690f,    0.45943877f,    0.10740337f,    0.24216387f,    0.28083619f,    -0.10449106f,    -0.21879999f,    -0.02097335f,
    -0.25109056f,    0.01262133f,    -0.21887085f,    0.24589616f,    0.16766718f,    -0.13158159f,    0.03022707f,    0.13226332f,    -0.01052798f,    0.16947013f,
    -0.10354608f,    0.05928943f,    -0.17786272f,    0.10870426f,    -0.04617361f,    0.12157309f,    0.03535783f,    -0.15623088f,    0.18001661f,    -0.03752417f,
    0.19956903f,    -0.14820251f,    -0.12766862f,    -0.02533220f,    0.01099921f,    -0.13189508f,    -0.21728405f,    0.21019351f,    0.06142103f,    0.12698255f,
    0.10535583f,    0.10554603f,    0.00574951f,    0.18584910f,    -0.09853768f,    0.13060391f,    0.23546556f,    -0.19036098f,    0.30327299f,    0.14652614f,
    0.17186074f,    0.18609841f,    0.12317073f,    -0.31051478f,    0.27276498f,    -0.27228725f,    -0.11652676f,    -0.19227670f,    -0.18045345f,    0.25233221f,
    0.05507427f,    -0.41113085f,    0.07774761f,    0.11584833f,    0.11209980f,    0.17625020f,    0.08453121f,    0.05627320f,    -0.13734980f,    0.14167835f,
    -0.08492650f,    0.12704210f,    0.06604612f,    -0.15933783f,    -0.06794306f,    0.09911835f,    0.38458019f,    0.15928419f,    -0.03418705f,    -0.61337829f,
    -0.03822199f,    0.20489256f,    0.37486190f,    -0.10387234f,    0.07708133f,    0.01883000f,    -0.07979425f,    0.06081516f,    0.18036051f,    0.02163945f,
    0.21047841f,    0.06606995f,    -0.09250149f,    0.07956869f,    -0.13546997f,    0.23070440f,    -0.37447986f,    0.13108301f,    0.13004307f,    -0.20774707f,
    -0.04005814f,    0.32997116f,    -0.04195743f,    0.01760155f,    -0.01242912f,    -0.20801224f,    0.08379553f,    0.12658127f,    -0.20623447f,    0.27841640f,
    0.14881012f,    -0.18467656f,    -0.18432809f,    0.11205208f,    0.11026878f,    0.12223698f,    0.23696455f,    -0.02018397f,    0.00377059f,    -0.16924955f,
    0.26407859f,    0.27916929f,    0.02025999f,    -0.11629357f,    0.28258240f,    -0.34092015f,    0.14952573f,    0.01976863f,    -0.05635358f,    0.20761688f,
    0.19933942f,    -0.12305861f,    -0.25169736f,    -0.15652545f,    0.22813736f,    0.09264785f,    0.25482994f,    -0.13332154f,    0.17213638f,    0.42748350f,
    0.03920930f,    0.28551486f,    0.19846569f,    0.30158144f,    0.12609701f,    0.24528290f,    0.09431239f,    0.09718820f,    0.29788706f,    0.00976357f,
    0.20753275f,    -0.00897979f,    -0.08905002f,    -0.13183655f,    -0.11894013f,    0.09416377f,    -0.14543392f,    0.01841505f,    -0.00319041f,    0.02512237f,
    0.07223479f,    -0.06115402f,    -0.03007467f,    -0.11604884f,    -0.06826933f,    0.02493675f,    0.03121529f,    -0.25285757f,    -0.20902602f,    -0.01121974f,
    0.16920757f,    -0.22398880f,    0.18055105f,    -0.00872712f,    0.26362470f,    0.20072076f,    0.13532977f,    0.12898871f,    -0.14132679f,    0.15240328f,
    -0.17071944f,    0.29770577f,    0.02623145f,    0.13158220f,    0.27237725f,    -0.09229232f,    -0.26007026f,    0.07679673f,    0.11892550f,    -0.42398384f,
    0.00744716f,    0.18804766f,    -0.03249565f,    0.00181963f,    -0.08989583f,    0.06918198f,    0.14836055f,    -0.11255665f,    -0.05888484f,    0.02165674f,
    -0.00261132f,    0.04979048f,    0.15109946f,    0.07934794f,    -0.09454634f,    0.38499954f,    -0.04369847f,    0.46797824f,    -0.10236058f,    -0.11033853f,
    0.08942873f,    -0.05804200f,    -0.02492034f,    0.00260800f,    -0.01157967f,    -0.14570901f,    0.01378038f,    -0.22307317f,    0.04379704f,    0.21462946f,
    -0.27714303f,    0.00573765f,    0.26016247f,    0.18764021f,    0.10843017f,    -0.08997086f,    0.19012222f,    0.36941117f,    -0.31235093f,    -0.03477331f,
    -0.07538588f,    0.10306720f,    0.04641234f,    -0.21231401f,    0.28775036f,    -0.06585556f,    0.13387467f,    0.05015878f,    0.09425416f,    -0.07204810f,
    0.27280587f,    0.37736931f,    -0.06999294f,    -0.05574978f,    0.05435434f,    0.08526647f,    0.06588377f,    0.02466596f,    -0.08954335f,    0.14537548f,
    -0.24146448f,    -0.07989134f,    0.23457326f,    0.04633785f,    0.28880605f,    0.29151547f,    0.21643434f,    -0.12143891f,    -0.05383648f,    -0.21071866f,
    0.13173573f,    0.52041525f,    0.35470304f,    -0.08675068f,    0.13852148f,    -0.12687154f,    -0.10348503f,    -0.07312604f,    -0.05641988f,    -0.27347913f,
    -0.07359268f,    0.05604699f,    -0.08378264f,    -0.13695480f,    0.07544004f,    -0.18446323f,    0.06101784f,    0.17774019f,    -0.19546859f,    0.08283114f,
    0.16253805f,    0.07234386f,    -0.11062905f,    0.18105212f,    0.26705989f,    -0.23644783f,    0.26167658f,    0.00265263f,    -0.22795607f,    -0.16450629f,
    -0.09810431f,    0.12611742f,    -0.07668362f,    -0.00740490f,    -0.22214107f,    0.05495076f,    -0.05783927f,    0.51637220f,    -0.08375743f,    0.04602417f,
    -0.10984807f,    0.03421782f,    0.14017341f,    0.03068738f,    0.21089509f,    0.09498336f,    -0.20822012f,    -0.05161062f,    -0.09118788f,    0.28403783f,
    0.07072173f,    0.31094605f,    0.14832866f,    -0.04688470f,    -0.00735054f,    -0.05960397f,    0.15626973f,    -0.09478457f,    0.17759605f,    -0.45461455f,
    -0.16476394f,    -0.16516379f,    0.08036319f,    0.16696316f,    0.05711108f,    0.28315338f,    -0.13844980f,    -0.14691369f,    0.08650367f,    -0.11198733f,
    -0.06380803f,    0.14084716f,    0.32910571f,    -0.19518812f,    0.14509800f,    -0.23028044f,    -0.05537326f,    0.23265652f,    0.02285488f,    0.13694404f,
    0.34912190f,    0.04132938f,    0.13387454f,    -0.01614077f,    0.17915793f,    -0.14692456f,    -0.05503378f,    0.10800602f,    0.18161871f,    0.08737642f,
    -0.04673644f,    0.20689209f,    -0.02485902f,    0.33177686f,    0.06676865f,    -0.22018752f,    0.00844182f,    -0.21014190f,    -0.04256835f,    0.02382365f,
    -0.14768754f,    -0.24190779f,    0.06804113f,    -0.20639382f,    0.11380407f,    0.35890117f,    0.13515246f,    -0.23114446f,    -0.26862511f,    0.17449810f,
    -0.04534785f,    -0.14341852f,    0.25408790f,    -0.28758481f,    0.15008700f,    0.01020334f,    -0.23616751f,    0.28054941f,    -0.20210637f,    -0.01681841f,
    0.37587276f,    -0.19743139f,    -0.04885215f,    0.29134843f,    0.32502946f,    -0.34613580f,    0.05661772f,    0.11229797f,    -0.34629837f,    0.04895297f,
    -0.43210608f,    -0.06897396f,    0.04120797f,    -0.08614119f,    -0.00393196f,    0.11915150f,    0.00926395f,    0.08121662f,    0.40177023f,    0.00058324f,
    0.08102489f,    -0.21334852f,    0.28475982f,    -0.11248836f,    -0.13603528f,    -0.13635391f,    -0.04592844f,    0.06847928f,    -0.15840030f,    -0.01865600f,
    0.10892607f,    -0.14025578f,    0.07217409f,    -0.00582690f,    0.20884295f,    -0.19411810f,    -0.23183657f,    0.22116062f,    0.29590589f,    -0.10719865f,
    0.11316529f,    -0.07472505f,    -0.06673088f,    -0.19788904f,    0.07699641f,    0.14930370f,    -0.05487316f,    -0.26107466f,    -0.12440611f,    0.03123420f,
    0.12834021f,    0.05371515f,    -0.11677195f,    0.19590805f,    -0.08829023f,    0.13089129f,    0.43824634f,    -0.27579823f,    -0.14126752f,    0.40852234f,
    -0.15336160f,    0.17878433f,    -0.02110940f,    -0.10537355f,    0.15031624f,    -0.17364125f,    0.21548197f,    -0.11528676f,    0.08955807f,    -0.19014262f,
    -0.14154987f,    0.21955635f,    0.10387634f,    0.00465847f,    0.32194725f,    0.08155525f,    0.04977831f,    0.17075691f,    -0.39534560f,    0.08096340f,
    -0.23664872f,    -0.06549788f,    0.13693944f,    0.03331958f,    0.14026660f,    -0.01752739f,    -0.02860934f,    -0.13144696f,    -0.00953595f,    -0.15165691f,
    0.08434259f,    0.22437046f,    -0.23018615f,    0.23883723f,    -0.07304745f,    0.04081191f,    0.05481629f,    0.09181546f,    -0.02244249f,    -0.22984159f,
    0.07459253f,    0.07958680f,    0.00709501f,    -0.17895442f,    0.03773207f,    0.11015745f,    0.15414090f,    -0.10757810f,    -0.06449651f,    0.20845033f,
    -0.15017183f,    0.00583270f,    -0.24096510f,    -0.25948918f,    0.08520774f,    -0.10724625f,    0.04634083f,    0.02645576f,    0.10018089f,    -0.14447635f,
    0.01612281f,    -0.19991533f,    0.12816261f,    0.14386730f,    -0.24611504f,    0.04174475f,    0.18477142f,    -0.13610227f,    -0.21156183f,    0.30156717f,
    -0.29093739f,    -0.05044214f,    0.21629779f,    0.00217450f,    0.16646209f,    0.46371564f,    0.20573682f,    -0.13803791f,    0.30925247f,    0.19506767f,
    0.22679098f,    0.16256465f,    -0.07189520f,    0.16023880f,    0.22407717f,    0.03980894f,    -0.09341560f,    0.19773342f,    -0.23995647f,    -0.04980614f,
    0.29484510f,    -0.25859287f,    -0.08206578f,    0.14091834f,    0.17558034f,    0.07212655f,    -0.00217741f,    0.06352976f,    -0.20270042f,    0.32013509f,
    0.21388268f,    -0.11203592f,    0.17706764f,    0.14337498f,    0.18115850f,    0.20189708f,    0.20839843f,    0.26385236f,    -0.11817067f,    0.08717757f,
    0.07948267f,    -0.14489864f,    0.01909714f,    -0.33993953f,    0.31338871f,    0.08841446f,    0.14292106f,    -0.28424183f,    -0.10967288f,    0.18409224f,
    0.20498814f,    0.09505141f,    0.02516981f,    -0.06106216f,    0.03466315f,    -0.13970353f,    0.11811078f,    -0.23841102f,    0.17062105f,    -0.33786112f,
    0.10096459f,    0.16110732f,    -0.24207520f,    -0.19725834f,    -0.19905145f,    -0.18727091f,    0.16947818f,    0.29636097f,    0.18803293f,    0.12288425f,
    0.02075031f,    -0.06814718f,    0.05188795f,    0.23179547f,    0.16457747f,    -0.12069473f,    -0.04605442f,    0.02427739f,    0.54348356f,    0.13820690f,
    0.16186103f,    -0.54816329f,    -0.19667889f,    -0.08776420f,    0.18155174f,    -0.13296051f,    0.31005737f,    -0.02819450f,    0.10199691f,    -0.15619490f,
    0.24164428f,    -0.05209287f,    0.17770284f,    -0.07284094f,    0.10366298f,    -0.15850703f,    -0.08134057f,    0.10881497f,    -0.32817310f,    0.20637242f,
    -0.11506711f,    0.18390425f,    0.16580522f,    -0.23434725f,    0.07064668f,    0.09299357f,    -0.12843953f,    0.19546650f,    0.07654402f,    -0.15313706f,
    -0.16659075f,    0.17343947f,    -0.15105575f,    -0.20882416f,    -0.04721418f,    -0.22940718f,    -0.10833455f,    -0.04272909f,    -0.00003232f,    -0.00535394f,
    -0.01570721f,    -0.04335617f,    -0.15973277f,    -0.06830508f,    -0.07382409f,    -0.09359509f,    0.40047646f,    0.09627312f,    0.34646243f,    0.15567945f,
    0.12533970f,    -0.34174448f,    0.03598156f,    -0.02536539f,    0.31591853f,    0.09383900f,    -0.08847414f,    -0.05946146f,    0.17418672f,    0.22664805f,
    0.02719383f,    0.45165089f,    0.18712378f,    -0.08716702f,    -0.22883596f,    0.23896910f,    0.16862155f,    0.06192458f,    0.07592097f,    0.09128214f,
    0.17653026f,    0.23843238f,    -0.24629053f,    0.22196712f,    0.13970566f,    -0.03707288f,    0.21947862f,    0.02817527f,    0.24177423f,    -0.17221196f,
    -0.00447094f,    -0.05327602f,    -0.10113588f,    0.11042348f,    -0.04000080f,    0.04769573f,    0.19515362f,    -0.07987829f,    0.26604718f,    -0.06160186f,
    -0.29046720f,    -0.17925720f,    0.00791072f,    0.00605770f,    0.18337938f,    0.05961434f,    0.22336671f,    0.02903484f,    0.04093530f,    0.06650904f,
    -0.08012503f,    0.22489578f,    -0.10840580f,    0.01287149f,    0.11592124f,    0.33224609f,    0.03401801f,    0.23725078f,    -0.03565075f,    0.06640927f,
    -0.01928939f,    -0.31729946f,    0.14924994f,    0.37843627f,    -0.13118401f,    -0.15906407f,    -0.07106483f,    -0.01061513f,    -0.00118429f,    0.29072306f,
    0.37868759f,    -0.19833371f,    -0.07799453f,    0.06165236f,    0.32034749f,    0.10938210f,    -0.02706420f,    -0.22681707f,    -0.04235273f,    -0.12558918f,
    0.24634966f,    -0.15691866f,    0.22502659f,    -0.22624525f,    0.13867962f,    -0.11103498f,    0.05684085f,    -0.13599017f,    -0.19870298f,    0.21365917f,
    0.06943830f,    -0.07517829f,    0.27432966f,    0.22079019f,    0.20850170f,    0.35541549f,    0.19715692f,    0.29914656f,    0.07910935f,    0.02150609f,
    0.25537768f,    -0.02145310f,    0.16944791f,    0.11729091f,    -0.23508407f,    -0.05265581f,    0.36937511f,    -0.22140662f,    -0.22537841f,    0.22320421f,
    -0.13385712f,    0.10905886f,    -0.24971484f,    -0.13445805f,    0.09575615f,    0.12262912f,    0.28941190f,    0.00389088f,    -0.10724025f,    -0.14087765f,
    0.09376979f,    0.06194354f,    -0.52897877f,    0.00726069f,    0.17709045f,    -0.28641784f,    -0.30633137f,    -0.08623017f,    0.21846431f,    -0.14721420f,
    0.26932114f,    -0.04047216f,    -0.02819623f,    -0.01959621f,    0.16590238f,    -0.22943912f,    -0.01502495f,    -0.17692186f,    0.31799793f,    -0.19362120f,
    0.22827652f,    0.20463890f,    -0.21314391f,    -0.22324675f,    -0.15546767f,    0.21985246f,    -0.24009843f,    -0.00126285f,    0.00859081f,    -0.14948487f,
    0.03687146f,    -0.31735185f,    0.03410434f,    0.14617053f,    -0.04864923f,    0.19396104f,    -0.20097901f,    0.16081019f,    0.41558281f,    0.03560228f,
    -0.07197888f,    0.28356159f,    0.12265771f,    0.01313567f,    -0.05367195f,    0.11753382f,    -0.07098379f,    -0.15117072f,    -0.23420799f,    0.13216668f,
    -0.07039795f,    0.04480666f,    -0.19941153f,    0.09897306f,    -0.28981656f,    0.12994139f,    -0.14129305f,    0.04224383f,    -0.14103559f,    -0.09362263f,
    -0.09995610f,    -0.01177354f,    0.01625265f,    0.31942481f,    0.11708113f,    0.20000865f,    0.01522648f,    0.08833493f,    0.12576938f,    -0.26974863f,
    -0.30382681f,    -0.14332868f,    -0.01529315f,    -0.00325539f,    -0.06665292f,    -0.04859744f,    -0.17840333f,    0.08801474f,    -0.13086066f,    0.19985600f,
    -0.09112837f,    0.49757832f,    0.07924748f,    0.14912759f,    0.61015815f,    0.10281019f,    -0.16888288f,    -0.24380541f,    -0.24763468f,    -0.04952710f,
    0.46157739f,    0.06804714f,    -0.05210275f,    -0.13458842f,    0.15487416f,    -0.09040876f,    -0.05198190f,    0.25440431f,    0.32749161f,    -0.01007365f,
    0.10697027f,    0.25641614f,    0.14103259f,    0.08477028f,    0.13930768f,    0.52128106f,    -0.18840396f,    -0.26290521f,    0.17411548f,    0.08879010f,
    0.08919438f,    0.38568917f,    -0.09627774f,    -0.01438305f,    0.07205878f,    -0.32664910f,    -0.20617898f,    0.21777865f,    -0.25566810f,    0.19250716f,
    0.18705539f,    -0.22341201f,    -0.16058891f,    -0.25742409f,    0.29146433f,    0.36364210f,    0.05125125f,    -0.05983824f,    0.12899791f,    -0.04060808f,
    0.07815543f,    -0.22261022f,    -0.13819456f,    -0.17313221f,    0.27868390f,    -0.16562684f,    0.31234318f,    -0.27536884f,    -0.04140214f,    -0.23730595f,
    0.13390501f,    0.27654073f,    -0.11299059f,    -0.02501331f,    0.14968887f,    -0.00709027f,    0.10848361f,    0.29826984f,    -0.22903743f,    0.24909024f,
    0.33833376f,    -0.20402715f,    -0.15016875f,    0.04831443f,    -0.28164130f,    0.01415921f,    -0.23294671f,    -0.08756474f,    -0.25503996f,    -0.32357374f,
    -0.04733676f,    -0.13972670f,    0.07190862f,    -0.06791025f,    0.24409866f,    -0.24111244f,    0.03426569f,    0.06559988f,    0.12100250f,    0.16146412f,
    0.19991343f,    -0.29519975f,    0.21191846f,    -0.13717090f,    0.03102751f,    -0.15424097f,    -0.06274177f,    0.29450330f,    0.24825843f,    -0.25210500f,
    0.46106997f,    -0.05646649f,    -0.10540421f,    -0.01300784f,    -0.05499133f,    -0.28542084f,    -0.08683991f,    -0.05844345f,    0.02626012f,    0.35624161f,
    -0.00683111f,    -0.39953998f,    0.22743373f,    0.32055688f,    0.20308575f,    0.06479199f,    -0.07527241f,    -0.23307513f,    -0.22769311f,    0.29240182f,
    0.04332618f,    0.12062971f,    -0.14498821f,    0.21715802f,    -0.08841309f,    0.13631549f,    0.02233525f,    -0.08926273f,    0.28461280f,    -0.14157331f,
    0.00570814f,    -0.06332549f,    0.05039918f,    0.05580483f,    -0.01728247f,    0.06707892f,    0.06984992f,    0.15900521f,    -0.35221636f,    -0.23562647f,
    -0.03742513f,    -0.25561199f,    0.08421378f,    0.18226056f,    0.13861597f,    0.41361281f,    0.05631308f,    -0.09559011f,    -0.06955528f,    0.04949841f,
    0.14609388f,    -0.00264532f,    -0.06628105f,    0.43934453f,    0.22119009f,    0.05492213f,    0.17070101f,    0.12475988f,    -0.30050021f,    -0.03790784f,
    -0.19085957f,    -0.11665458f,    -0.21129560f,    -0.11154837f,    0.17562087f,    0.16712710f,    0.21508744f,    -0.02734859f,    0.05106784f,    -0.17385089f,
    0.11812022f,    0.11686941f,    0.15414803f,    -0.14188187f,    -0.16195355f,    -0.24321549f,    -0.22190559f,    -0.07484263f,    0.50333536f,    0.05270328f,
    0.22697291f,    -0.28303209f,    0.38328707f,    -0.00751932f,    -0.19593553f,    -0.17671062f,    0.12621886f,    -0.66771615f,    -0.10039064f,    -0.08484983f,
    -0.07934663f,    -0.26684198f,    0.45480692f,    -0.12673807f,    -0.13486920f,    -0.00753612f,    0.13329940f,    0.37946501f,    0.16053839f,    0.33912867f,
    0.31260216f,    -0.09435904f,    0.15370834f,    0.35621816f,    0.15152681f,    0.15170245f,    0.54495037f,    0.21735999f,    0.06220634f,    0.37412968f,
    0.22465600f,    0.20745862f,    -0.32928100f,    0.14168547f,    -0.38617510f,    -0.38116097f,    0.30603087f,    0.22505647f,    -0.22268094f,    0.30443305f,
    0.08580486f,    0.12046053f,    0.09539416f,    0.27158150f,    -0.03378335f,    -0.14333871f,    -0.24048229f,    0.06743427f,    -0.12826900f,    0.08411434f,
    0.13950501f,    0.29480624f,    -0.50062948f,    0.15751126f,    -0.01854936f,    -0.02697118f,    0.43365940f,    -0.26026928f,    0.03232159f,    0.34528098f,
    0.09275242f,    0.46266904f,    0.04322233f,    0.32209674f,    0.21843740f,    -0.48053217f,    0.23706490f,    0.40460926f,    0.03753689f,    -0.49110183f,
    0.64522761f,    0.28441396f,    0.05443441f,    0.34151062f,    -0.03927400f,    0.09800122f,    -0.21984653f,    0.09909573f,    -0.16080080f,    0.13588080f,
    0.37671134f,    -0.01865983f,    0.02051900f,    -0.20704418f,    0.52041435f,    -0.01486105f,    0.47010240f,    0.07375424f,    -0.07365837f,    0.05823322f,
    -0.10301964f,    0.21103165f,    0.12523796f,    -0.23759340f,    0.54268277f,    -0.10501877f,    0.02796286f,    0.16273539f,    -0.03628069f,    -0.11994463f,
    -0.07903973f,    -0.58629924f,    0.18562241f,    0.15519665f,    0.09389383f,    0.04250877f,    -0.38633975f,    0.49073687f,    0.13568254f,    -0.27477574f,
    0.27840102f,    0.29230335f,    -0.09163122f,    -0.15058090f,    0.35503078f,    0.60514569f,    0.13574210f,    0.83729267f,    0.20008901f,    0.58582044f,
    0.29757550f,    0.15410738f,    0.24992287f,    0.20620501f,    0.06520941f,    0.00381433f,    0.30227861f,    0.04358790f,    -0.27830428f,    -0.10831963f,
    -0.01194709f,    -0.23315459f,    -0.17302668f,    -0.04639569f,    0.40980360f,    0.23297442f,    0.59218466f,    0.30834901f,    0.11638967f,    -0.04036188f,
    0.42967397f,    -0.02112907f,    -0.18834291f,    0.09125473f,    -0.01960283f,    0.00848767f,    -0.14486584f,    -0.07594524f,    0.11319187f,    -0.41036314f,
    0.34111544f,    0.19000331f,    0.56381744f,    0.37226209f,    -0.16286284f,    0.08638725f,    0.11928819f,    -0.11298793f,    0.16452123f,    0.34418643f,
    0.47262332f,    -0.01025147f,    0.86586958f,    0.02449726f,    0.10045039f,    -0.12987940f,    0.05285015f,    0.09045732f,    0.29816628f,    0.18867488f,
    0.12638435f,    0.25590301f,    -0.17552458f,    0.04589849f,    -0.26485908f,    0.24286699f,    -0.00768746f,    -0.15185744f,    0.03763704f,    0.10402407f,
    -0.02867860f,    0.15696077f,    -0.18025063f,    0.11974304f,    0.30265534f,    -0.24762769f,    -0.00004917f,    -0.17995590f,    0.62140787f,    0.22580600f,
    -0.01617519f,    0.11302113f,    -0.26176700f,    0.08021455f,    -0.06756705f,    0.22939746f,    0.02817698f,    -0.21127789f,    -0.11813943f,    -0.07882205f,
    0.36703679f,    0.35192320f,    0.05992539f,    -0.02888804f,    -0.21867242f,    -0.57207412f,    0.07183791f,    -0.17598400f,    0.03668625f,    -0.10622006f,
    0.03842290f,    0.02450913f,    0.58625239f,    -0.14317903f,    -0.17844073f,    0.30465743f,    0.27769098f,    0.06716621f,    0.11601032f,    -0.14641584f,
    0.27681106f,    0.22513576f,    0.20998736f,    -0.03694578f,    -0.10832293f,    -0.44720921f,    -0.20786215f,    -0.30133280f,    -0.15843187f,    0.04496320f,
    0.10986426f,    -0.09578591f,    0.05049669f,    0.46254119f,    0.44302166f,    0.09588747f,    0.00823772f,    0.27250931f,    -0.12984271f,    0.24353924f,
    0.29685965f,    -0.17610618f,    -0.14261940f,    0.27152711f,    -0.12174046f,    -0.15399785f,    -0.03869336f,    -0.11565090f,    0.35337850f,    -0.02438262f,
    0.08392987f,    0.07782663f,    0.17688172f,    -0.15171610f,    0.39551783f,    -0.25633693f,    -0.20799977f,    -0.43671802f,    0.31897303f,    -0.16554794f,
    -0.10787840f,    -0.04010971f,    -0.30166107f,    -0.58586138f,    -0.23637547f,    0.17049459f,    0.02317120f,    -0.01090109f,    0.02736168f,    0.15217541f,
    -0.05596914f,    0.10541449f,    -0.23989673f,    0.11375595f,    -0.05855521f,    -0.09592494f,    0.04761632f,    -0.21204314f,    -0.14193276f,    0.07635313f,
    0.06063006f,    -0.09999304f,    0.17050551f,    -0.12118939f,    0.13674524f,    0.21801260f,    -0.17283806f,    0.23047382f,    0.27654317f,    -0.09532163f,
    0.29917783f,    0.12607604f,    -0.14907755f,    -0.03609336f,    0.14261097f,    0.25655696f,    -0.14504130f,    -0.19164714f,    0.13844095f,    -0.18482630f,
    0.07502355f,    0.45257235f,    -0.28049347f,    0.01956936f,    -0.07371302f,    0.23074596f,    -0.23351404f,    0.14398724f,    0.12170098f,    0.16028599f,
    -0.32733566f,    0.06359651f,    -0.24965934f,    -0.23622900f,    0.23004362f,    -0.25937620f,    0.05807244f,    0.17606033f,    -0.13654944f,    0.09947147f,
    0.11902112f,    -0.06438339f,    0.18001397f,    -0.46350384f,    -0.18019809f,    0.08966571f,    -0.07552318f,    -0.18458763f,    -0.04973029f,    0.16351572f,
    0.03739464f,    0.01563342f,    -0.03893555f,    0.28410962f,    0.23999459f,    -0.14117041f,    0.07497157f,    -0.03005265f,    -0.06303546f,    -0.10934894f,
    -0.25896502f,    0.28025800f,    0.32227966f,    -0.05104124f,    0.28453976f,    -0.01034841f,    -0.12777218f,    0.02800478f,    -0.05062786f,    0.00312603f,
    -0.07937405f,    0.21188478f,    0.00402918f,    0.02241345f,    -0.06782018f,    -0.04101534f,    0.07661833f,    -0.21638404f,    0.16748464f,    -0.06746418f,
    0.17469880f,    -0.26554289f,    0.01019193f,    0.04189624f,    -0.24655740f,    0.21389712f,    -0.17815456f,    -0.17958961f,    0.10266412f,    -0.08553171f,
    -0.20856391f,    0.12516664f,    -0.03891980f,    0.22449628f,    -0.18295737f,    0.31913045f,    0.24579673f,    -0.15788604f,    0.08606289f,    0.44731089f,
    0.05446776f,    0.13759054f,    0.17238559f,    -0.13461986f,    0.27863389f,    0.24128778f,    0.15717137f,    -0.03455003f,    -0.25580704f,    -0.21049699f,
    0.02196279f,    0.19575077f,    -0.11514222f,    -0.02915989f,    0.20792098f,    0.09683719f,    -0.29381245f,    -0.00970664f,    0.13822426f,    -0.20808783f,
    -0.21948478f,    0.15194412f,    0.07238317f,    0.12288728f,    0.16297406f,    0.30177131f,    0.31973416f,    0.15282512f,    -0.08154821f,    0.07743686f,
    0.13516380f,    -0.08095076f,    -0.03379709f,    0.13590673f,    0.19484679f,    -0.09640337f,    -0.07681316f,    0.23044835f,    0.04228959f,    -0.08813362f,
    0.15375136f,    0.08696628f,    -0.15549296f,    0.07433844f,    -0.01332001f,    -0.09657796f,    0.08453450f,    -0.16392930f,    -0.19303697f,    -0.20149614f,
    0.21356544f,    -0.14788653f,    -0.02281400f,    -0.09741667f,    0.29338717f,    -0.13798846f,    0.00515261f,    0.04274635f,    -0.18257742f,    0.18630534f,
    -0.06119645f,    -0.02773720f,    -0.05198267f,    -0.11411956f,    -0.08123255f,    0.03250609f,    -0.00077769f,    0.02971692f,    -0.18169412f,    0.12306125f,
    -0.17740105f,    -0.04890798f,    -0.02461426f,    0.01191407f,    0.16344929f,    -0.04396740f,    0.17223987f,    -0.18759809f,    -0.00591839f,    0.08904159f,
    0.13163279f,    -0.10813507f,    -0.29795858f,    0.02504758f,    -0.15613014f,    -0.29383579f,    -0.03396159f,    0.01752191f,    -0.36524880f,    -0.13085902f,
    -0.08483934f,    0.06295149f,    0.11038937f,    -0.07654306f,    0.20165867f,    0.11227903f,    -0.29711401f,    0.16354933f,    0.23535967f,    -0.22181241f,
    -0.24590255f,    0.19364320f,    -0.03505277f,    0.28074202f,    0.16145994f,    -0.04249934f,    -0.12447248f,    0.36924323f,    -0.23847915f,    -0.19249716f,
    0.36642134f,    -0.27383387f,    -0.00809185f,    0.01758031f,    -0.29561454f,    -0.04586538f,    0.19446097f,    -0.37121987f,    0.23538750f,    -0.04188558f,
    -0.13539447f,    -0.05759186f,    0.21791686f,    0.20626976f,    -0.11737773f,    -0.16109289f,    -0.14003760f,    0.18700950f,    -0.20717540f,    0.07427917f,
    -0.01920358f,    0.07022105f,    -0.31344143f,    0.08815320f,    0.07344542f,    0.20836189f,    0.24096745f,    0.00906045f,    -0.12600569f,    0.00502552f,
    0.12999661f,    0.13795808f,    -0.36661753f,    -0.18277588f,    -0.16601217f,    0.04550501f,    -0.39751291f,    -0.16134767f,    0.25098553f,    0.14112252f,
    0.05281844f,    -0.20364520f,    -0.26909044f,    0.17276929f,    0.07905218f,    0.44940147f,    0.03072279f,    -0.10265373f,    -0.21529204f,    -0.09745044f,
    -0.23246767f,    -0.18252537f,    -0.15116923f,    0.07415774f,    -0.14503184f,    -0.22780789f,    0.87258327f,    0.20202154f,    -0.02566555f,    0.18337280f,
    0.10097406f,    -0.34979683f,    -0.22391489f,    0.41575524f,    0.17349191f,    0.33875817f,    -0.19270352f,    0.58413446f,    0.42541602f,    -0.07559361f,
    0.32020897f,    0.43215591f,    -0.15467326f,    -0.38771629f,    0.01220554f,    -0.28486881f,    -0.86895889f,    -0.17886026f,    -0.44317392f,    0.28248799f,
    -0.16096948f,    -0.16151625f,    -0.12990025f,    0.19780760f,    -0.31667703f,    0.17104633f,    -0.48597950f,    0.23414056f,    0.09398648f,    -0.72559440f,
    -0.24576831f,    0.04655407f,    -0.28521746f,    0.00234013f,    -0.14990367f,    -0.03333158f,    -0.02008209f,    -0.19346480f,    0.26021048f,    0.26787844f,
    -0.27735147f,    0.26716670f,    0.42719376f,    0.37118223f,    -0.07975571f,    0.32955661f,    -0.21472597f,    -0.17354605f,    0.36263695f,    -0.05001953f,
    0.21410671f,    0.32918757f,    -0.24252960f,    -0.12989023f,    0.32670054f,    -0.08977906f,    0.39718884f,    0.39344707f,    -0.03591797f,    0.18374923f,
    0.12607029f,    0.04409905f,    0.49303851f,    0.11310206f,    0.23814774f,    0.44186082f,    -0.00033817f,    -0.14284940f,    0.29155174f,    0.05050245f,
    -0.15748037f,    0.25696680f,    -0.35944435f,    -0.08370007f,    -0.12628840f,    0.29248372f,    -0.09557629f,    -0.49535400f,    -0.42241025f,    -0.07033315f,
    0.01923163f,    -0.07826217f,    -0.20723677f,    0.13310528f,    0.05413230f,    -0.16443913f,    -0.14923355f,    -0.06397504f,    0.24210082f,    -0.33861566f,
    -0.05022890f,    -0.06224097f,    0.61981690f,    -0.15002030f,    0.23215613f,    -0.00851476f,    0.20842518f,    -0.46255663f,    -0.66051990f,    0.11434449f,
    -0.52816457f,    -0.27179134f,    0.16309614f,    -0.08509815f,    0.10642810f,    0.16263989f,    0.13172588f,    0.03440826f,    0.26657674f,    0.01561598f,
    0.25857165f,    0.47129288f,    -0.31822211f,    -0.00286818f,    0.04091978f,    -0.71513993f,    -0.28137124f,    0.26461393f,    0.11449891f,    -0.07692868f,
    0.02490191f,    0.18782637f,    -0.16888092f,    0.29063955f,    0.24814771f,    0.21238358f,    0.04051873f,    -0.07252216f,    0.32904506f,    0.26040176f,
    0.21416174f,    -0.00805558f,    -0.40226325f,    0.12414857f,    -0.05384191f,    0.19197647f,    0.38853529f,    -0.42546439f,    -0.12201164f,    -0.22043233f,
    -0.06771282f,    -0.28511998f,    -0.22932276f,    -0.12720752f,    0.12053878f,    -0.14814404f,    -0.00645750f,    0.23709984f,    0.03182080f,    -0.25420111f,
    0.51881284f,    0.45001921f,    -0.70927703f,    -0.02519574f,    0.09500664f,    -0.71642184f,    0.05380142f,    0.45323861f,    -0.24832515f,    0.02220397f,
    -0.18330517f,    -0.26089215f,    -0.96758896f,    -0.70513082f,    0.37646973f,    0.09379172f,    0.37525004f,    -0.01662191f,    -0.94271570f,    0.51705134f,
    -0.09556282f,    0.46005562f,    0.03278349f,    -0.16551939f,    -0.51187515f,    -0.30390316f,    0.10840356f,    0.15588130f,    0.34571594f,    0.02667976f,
    -0.07823925f,    -0.07256243f,    -0.33892348f,    0.16240229f,    0.10920513f,    -0.02761016f,    -0.11818696f,    -0.75279593f,    0.00374930f,    -0.67728978f,
    0.36257741f,    0.10713298f,    -0.36681068f,    -0.03832656f,    0.01303578f,    0.15219305f,    -0.24397209f,    -0.47390875f,    -0.05955537f,    0.06562346f,
    0.06381544f,    -0.30635229f,    0.19665439f,    0.00795428f,    -0.05737517f,    0.34841552f,    -0.17782347f,    -0.22233824f,    0.08654704f,    -0.05540338f,
    -0.45812199f,    -0.09855395f,    -0.11075258f,    0.05649157f,    -0.25426972f,    0.02916397f,    -0.68722194f,    -0.35338208f,    0.10161754f,    0.09861421f,
    -0.20705652f,    0.04627751f,    -0.20387316f,    -0.13798276f,    0.22693205f,    -0.27516282f,    0.11280834f,    0.25285101f,    0.29018044f,    0.18971509f,
    -0.06252499f,    0.10075058f,    -0.00322550f,    0.04477337f,    -0.07117154f,    0.35076404f,    -0.11490622f,    0.46413189f,    -0.21275130f,    -0.03282215f,
    0.18892001f,    -0.27420542f,    -0.09556737f,    0.19687656f,    -0.11454510f,    -0.20070642f,    -0.02334698f,    0.00247036f,    -0.13820572f,    -0.03072728f,
    -0.49437547f,    0.04267257f,    -0.34725839f,    0.10092843f,    0.18677974f,    0.35398850f,    0.16711375f,    -0.07675505f,    0.01518102f,    0.12110873f,
    0.16829097f,    -0.68079418f,    0.16491647f,    -0.89832079f,    -0.10436113f,    0.03125935f,    0.41412967f,    -0.51577187f,    0.34335813f,    0.11404867f,
    -0.10617775f,    0.01586269f,    0.45721805f,    -0.28135833f,    0.06505982f,    0.26550880f,    -0.00613979f,    0.06584047f,    0.04392279f,    -0.15768775f,
    -0.21343210f,    -0.57442206f,    -0.18749152f,    0.49880841f,    0.43206042f,    0.04664366f,    0.07452786f,    0.20804025f,    0.21428424f,    0.15379067f,
    0.20751227f,    0.75811923f,    0.05174044f,    -0.36216459f,    -0.00050099f,    0.21521148f,    0.13443531f,    -0.44558555f,    0.26518181f,    -0.23414838f,
    -0.08075915f,    0.62463343f,    0.13373879f,    0.03209293f,    -0.20975548f,    -0.30306736f,    -0.41494533f,    -0.02187194f,    0.13230616f,    -0.15682273f,
    0.04744603f,    -0.03322449f,    -0.06052689f,    -0.38166589f,    -0.11675278f,    -0.17805897f,    -0.30811703f,    0.03885517f,    -0.32607520f,    -0.56607366f,
    -0.22189075f,    0.31790343f,    -0.40773463f,    -0.24566804f,    -0.09290317f,    -0.26936296f,    0.19054829f,    -0.08831012f,    0.08424617f,    0.19035162f,
    0.07661969f,    -0.21015832f,    -0.06948716f,    -0.02136883f,    -0.01601132f,    -0.24281469f,    -0.10359471f,    0.13137375f,    -0.14630674f,    -0.06873812f,
    -0.34857377f,    0.10146623f,    0.07610543f,    -0.13615726f,    -0.33507726f,    0.42841750f,    -0.22654113f,    -0.03929009f,    0.03795694f,    -0.08877443f,
    0.41859171f,    0.41280180f,    -0.29092839f,    -0.09357141f,    -0.72418445f,    0.42122874f,    0.36056876f,    0.01769649f,    -0.54578739f,    -0.01732920f,
    0.06385875f,    -0.25537476f,    0.21560046f,    -0.23185793f,    -0.49167347f,    0.12608068f,    -0.16541724f,    -0.02166995f,    0.11575951f,    -0.16573891f,
    -0.22334468f,    0.15297958f,    0.04336858f,    0.09775240f,    -0.06486719f,    -0.23247911f,    -0.51324695f,    -0.40638116f,    -0.22249922f,    0.32394028f,
    0.56412303f,    0.32438838f,    -0.26504281f,    -0.19818400f,    -0.00424429f,    0.16755636f,    0.02660553f,    0.01292208f,    -0.03761502f,    0.16357265f,
    0.27161261f,    -0.46788758f,    -0.17571571f,    -0.11252684f,    -0.00223799f,    -0.00546811f,    -0.01470753f,    0.03752707f,    -0.04318747f,    -0.08329526f,
    -0.04433674f,    -0.00495850f,    0.00101208f,    -0.25379390f,    -0.13479976f,    0.23019814f,    -0.52038574f,    -0.44686368f,    0.06232110f,    0.03758342f,
    0.27588978f,    0.49231482f,    -0.19588612f,    -0.29696795f,    -0.01789085f,    -0.38393560f,    0.00364388f,    0.21051493f,    -0.52263343f,    0.29462588f,
    0.17354335f,    -0.14678586f,    0.12886558f,    0.36168855f,    0.84268111f,    -0.19757794f,    -0.30199426f,    -0.38800332f,    -0.10246404f,    0.11720951f,
    0.10590363f,    -0.01322517f,    -0.08576343f,    -0.20895059f,    0.17033990f,    -0.19478646f,    0.09025124f,    -0.23032270f,    0.43522465f,    -0.26516715f,
    -0.10181241f,    0.01746428f,    0.37250611f,    0.56622589f,    0.20769508f,    0.13858074f,    -0.13259365f,    -0.52523386f,    -0.17776787f,    -0.09524500f,
    -0.22644223f,    -0.54765201f,    0.31587949f,    -0.44492561f,    0.32439443f,    0.13990162f,    0.48256603f,    0.00953683f,    -0.50481278f,    0.24875322f,
    0.09885262f,    -0.06442031f,    -0.36199093f,    -0.14846119f,    0.27289188f,    0.16694321f,    0.02394161f,    -0.53427076f,    0.14782421f,    0.15249999f,
    -0.00389603f,    0.09220128f,    -0.43103543f,    0.43813515f,    -0.22044809f,    0.36388609f,    -0.17254190f,    -0.13548335f,    0.00406632f,    -0.01526354f,
    0.05608268f,    -0.04363282f,    -0.16503423f,    0.02576487f,    0.26218677f,    0.19449040f,    0.02132807f,    -0.11750583f,    -0.19490343f,    0.16315958f,
    0.18196328f,    0.12063272f,    -0.15167253f,    -0.22887596f,    0.03109104f,    -0.08953787f,    -0.23437215f,    0.18254587f,    0.00002357f,    0.09360325f,
    -0.02356978f,    -0.20132701f,    -0.13509132f,    0.16467655f,    -0.13649875f,    -0.20586391f,    -0.00792540f,    0.19243735f,    0.33885476f,    0.07404512f,
    -0.00804274f,    0.22074413f,    0.04846247f,    0.19895339f,    0.22961201f,    -0.15014242f,    0.24686189f,    -0.14721714f,    -0.09535126f,    -0.38266689f,
    0.17400859f,    0.02970456f,    0.02531314f,    -0.01901822f,    0.24489479f,    -0.21751219f,    0.03361112f,    0.04314928f,    -0.38048029f,    0.09787626f,
    -0.20665096f,    -0.28950647f,    0.10654440f,    0.28272334f,    -0.01307411f,    -0.21130161f,    0.19150542f,    0.20633340f,    -0.10343403f,    0.21680288f,
    0.09822318f,    -0.27051219f,    -0.01714206f,    0.17105108f,    0.00844978f,    0.24710469f,    -0.15450476f,    -0.25630221f,    0.18077914f,    0.27639869f,
    0.02025026f,    0.26013479f,    0.12742680f,    -0.10105971f,    0.05267761f,    -0.16313477f,    0.09659137f,    0.09944365f,    -0.08749482f,    -0.04948515f,
    -0.13638903f,    -0.06652881f,    -0.09503485f,    -0.08885180f,    0.12040292f,    -0.16851504f,    0.08929875f,    -0.01873050f,    -0.10512668f,    0.03071088f,
    -0.02567251f,    0.30265504f,    0.24959336f,    -0.02254568f,    -0.24435090f,    -0.42208070f,    -0.13616413f,    0.05669686f,    -0.27332366f,    -0.18600935f,
    -0.17354339f,    -0.02801221f,    0.04280373f,    0.04946571f,    -0.19466332f,    -0.12851623f,    0.15161179f,    -0.08331000f,    0.12222651f,    -0.08347774f,
    0.15989348f,    0.34115556f,    -0.23928328f,    0.04545980f,    -0.17212330f,    0.00846578f,    -0.00859487f,    0.02146483f,    0.04191311f,    -0.03984335f,
    -0.25413993f,    0.06478669f,    -0.08057486f,    -0.08660077f,    -0.30332243f,    0.36018932f,    -0.00764569f,    -0.18369037f,    0.28132015f,    0.11319212f,
    0.00239756f,    -0.00711105f,    0.04748022f,    -0.11824603f,    -0.21766773f,    0.23516078f,    0.12728171f,    0.14994916f,    0.26425713f,    -0.17152652f,
    0.17958120f,    0.22437178f,    -0.23644225f,    -0.09039906f,    0.30447629f,    0.11365347f,    0.21211456f,    0.28242376f,    0.04014774f,    -0.04121062f,
    0.00599522f,    -0.15057293f,    0.07661678f,    0.14149033f,    -0.09329551f,    0.13913132f,    0.32429513f,    0.11216708f,    -0.16362490f,    -0.01194914f,
    -0.15616135f,    -0.26398250f,    -0.26421967f,    0.23885396f,    0.25844797f,    0.00012879f,    -0.13173890f,    -0.18610024f,    0.11423707f,    0.00259839f,
    0.35921887f,    -0.03443563f,    0.17706984f,    0.17994292f,    -0.04497975f,    -0.14538048f,    0.14666039f,    -0.14482382f,    0.04691485f,    -0.16253975f,
    -0.07384750f,    0.05048489f,    0.02892810f,    -0.01810027f,    0.28215477f,    0.19373578f,    0.08162518f,    -0.18378893f,    0.15466692f,    0.29558793f,
    -0.08578291f,    -0.15277328f,    0.17701395f,    -0.26140335f,    0.07965631f,    0.47223616f,    -0.14079551f,    -0.20956542f,    -0.03864548f,    -0.19038352f,
    -0.26581806f,    -0.12262842f,    -0.08747291f,    0.16399457f,    -0.08136954f,    -0.14150138f,    0.09114537f,    0.25893211f,    -0.15186359f,    0.23049718f,
    0.07722069f,    0.05036546f,    0.05206062f,    0.10261048f,    -0.12570195f,    0.27853295f,    -0.23960805f,    -0.06541212f,    -0.09847580f,    0.20515621f,
    -0.07086705f,    -0.02918413f,    0.16513616f,    0.26302570f,    -0.22431509f,    0.20884451f,    -0.11104533f,    0.04275297f,    0.00894166f,    0.30838779f,
    -0.04135416f,    0.12534624f,    -0.23870166f,    -0.04265025f,    -0.17360148f,    -0.13038710f,    -0.01252618f,    -0.11597633f,    0.31648225f,    -0.11959491f,
    0.06073325f,    0.21905856f,    -0.06784118f,    -0.04405320f,    0.24440831f,    -0.03628767f,    -0.10069373f,    0.18302560f,    -0.00667850f,    0.02104029f,
    -0.24579237f,    0.23585774f,    0.33012182f,    0.11293001f,    0.14534411f,    0.07721856f,    -0.12447914f,    0.47164866f,    0.04022458f,    0.09581804f,
    -0.06658089f,    -0.10583631f,    0.18642822f,    0.06155973f,    0.08519477f,    0.00542003f,    -0.25105864f,    0.03616941f,    -0.00011778f,    -0.01743688f,
    0.10764323f,    -0.11724663f,    -0.03012094f,    0.13815114f,    -0.13797346f,    0.17528073f,    -0.05399575f,    0.13608551f,    -0.12661394f,    0.06309885f,
    0.12150778f,    0.42492604f,    -0.04414994f,    -0.00348558f,    0.16183327f,    0.13647434f,    -0.07588054f,    -0.19334972f,    -0.05537890f,    -0.21271631f,
    -0.03955121f,    -0.08093361f,    -0.05862799f,    0.28408116f,    -0.04142122f,    -0.23289850f,    0.01243893f,    0.17261752f,    -0.27268344f,    -0.15783156f,
    -0.12963551f,    0.27252957f,    0.26990315f,    -0.02491703f,    -0.12669340f,    -0.22475660f,    -0.21757005f,    -0.03505772f,    0.22722602f,    0.22744584f,
    -0.10458951f,    -0.01819145f,    0.28336716f,    0.04840871f,    0.04083852f,    -0.23946559f,    0.17956035f,    0.03482517f,    -0.18106064f,    -0.09564532f,
    -0.21048816f,    -0.24845783f,    -0.16945109f,    0.00010256f,    -0.05992949f,    -0.15638743f,    0.05730719f,    0.23433170f,    -0.10528805f,    0.03291345f,
    -0.18715532f,    0.23815052f,    -0.15925351f,    -0.26329938f,    -0.12455367f,    -0.05345092f,    -0.16290300f,    -0.13539019f,    0.02919082f,    0.04365547f,
    0.13478184f,    0.13316020f,    0.11964936f,    -0.29296806f,    -0.38849726f,    0.05398774f,    0.29498520f,    0.06351247f,    -0.00545586f,    0.19138779f,
    -0.10118334f,    0.25107148f,    -0.06602208f,    0.23402505f,    0.12156478f,    -0.10906380f,    0.04774921f,    0.03987317f,    -0.17693414f,    0.09446844f,
    0.21893619f,    0.08550118f,    -0.03102743f,    -0.11298081f,    -0.08138877f,    -0.04527798f,    0.05739068f,    0.05730796f,    -0.19017623f,    -0.05381716f,
    -0.16699928f,    -0.26425999f,    0.01380181f,    0.30767080f,    -0.21740925f,    0.24280035f,    0.00258388f,    0.21494250f,    -0.11814533f,    0.18080181f,
    0.05057086f,    0.22539872f,    -0.08957321f,    -0.21242309f,    0.06936753f,    -0.22770238f,    0.14313889f,    0.20046254f,    -0.29421824f,    -0.16583592f,
    -0.18084213f,    0.17450520f,    0.09915155f,    0.25297856f,    -0.09575453f,    -0.13854766f,    -0.20130780f,    0.03580910f,    0.19205968f,    -0.11999436f,
    0.29684767f,    0.01977143f,    0.04117829f,    -0.07826658f,    -0.07823683f,    0.09493656f,    -0.07116679f,    0.01629425f,    0.11342861f,    -0.18641530f,
    0.17974192f,    0.31751642f,    0.40514302f,    -0.10932081f,    0.29534689f,    0.21498300f,    0.24406295f,    -0.21318670f,    0.16646186f,    -0.09743776f,
    -0.16016164f,    0.16900110f,    -0.13562182f,    0.12754712f,    0.11369275f,    -0.11242351f,    -0.27047175f,    -0.20667031f,    0.29131362f,    0.17072430f,
    0.17164628f,    0.17648643f,    -0.09392815f,    -0.17336380f,    0.03843149f,    -0.25864592f,    -0.13090554f,    0.39764392f,    -0.00293699f,    -0.19181415f,
    -0.09994798f,    -0.06248445f,    0.17879617f,    0.23585436f,    0.05182705f,    -0.11901312f,    0.14872494f,    -0.11339682f,    -0.06952088f,    -0.15178578f,
    0.13802332f,    0.37012860f,    -0.00382372f,    -0.17864293f,    0.20748568f,    0.38203964f,    -0.03723225f,    -0.03656441f,    0.14127934f,    0.18011041f,
    0.17858307f,    -0.08080077f,    0.27153230f,    -0.01893461f,    0.08561736f,    -0.16921592f,    -0.05311961f,    0.21174470f,    -0.04541983f,    -0.08497125f,
    -0.07371095f,    0.13853911f,    -0.10821360f,    0.06002676f,    0.30538440f,    -0.23578236f,    0.24366219f,    0.15193529f,    0.09447762f,    -0.05413502f,
    0.19538856f,    0.23719533f,    0.24399972f,    0.26722196f,    0.06780878f,    -0.14772606f,    -0.10469687f,    0.01899537f,    0.32117248f,    0.01652395f,
    0.18530133f,    -0.11152670f,    0.04700886f,    -0.13811658f,    0.20918325f,    0.06376182f,    -0.07093066f,    0.09675819f,    -0.19891123f,    0.01951065f,
    0.02314936f,    -0.23962532f,    0.03937237f,    0.12430780f,    -0.20549464f,    -0.17640796f,    -0.02008719f,    -0.16099004f,    0.30065450f,    0.23481947f,
    -0.14050919f,    -0.13898253f,    0.09380186f,    0.34190792f,    -0.03963193f,    0.23732986f,    -0.43662795f,    -0.29533342f,    -0.11940279f,    0.04943316f,
    -0.42701015f,    0.10492932f,    0.42806911f,    0.08596306f,    0.09069385f,    -0.42621899f,    -0.00450984f,    0.09884953f,    0.28191465f,    0.16111161f,
    -0.19420326f,    0.08752915f,    -0.06883565f,    0.05515381f,    -0.01580824f,    0.00813192f,    -0.07718847f,    0.08661196f,    0.13452603f,    -0.25578666f,
    0.16351485f,    -0.06294711f,    0.05245904f,    0.25172949f,    -0.13113686f,    0.34792539f,    -0.24648735f,    -0.00193779f,    -0.01149156f,    0.64045042f,
    -0.05687045f,    0.59629160f,    0.13199073f,    0.38012305f,    -0.19246882f,    0.30462563f,    0.25047073f,    -0.04345496f,    0.17303316f,    0.10318903f,
    -0.15089779f,    -0.01752628f,    -0.03301416f,    0.61424667f,    -0.04632411f,    -0.06975067f,    -0.03182926f,    -0.21455325f,    -0.25774971f,    -0.00605392f,
    -0.05848200f,    -0.27705804f,    -0.17515580f,    -0.00340514f,    -0.24124594f,    -0.08334884f,    0.30844182f,    0.00437265f,    0.01872499f,    0.82965291f,
    0.01177387f,    -0.10311095f,    0.00477392f,    0.25310650f,    0.31193417f,    -0.47740886f,    -0.02295143f,    0.12842844f,    -0.14248280f,    -0.20892574f,
    -0.00581729f,    -0.28344423f,    -0.63533252f,    0.01132096f,    -0.01038440f,    -0.08757165f,    0.04436848f,    0.28004989f,    0.15112647f,    -0.10911484f,
    -0.20463808f,    -0.40914872f,    -0.18992995f,    0.07592923f,    -0.09210900f,    0.09729151f,    0.26302862f,    0.03233263f,    0.31135005f,    0.56015456f,
    0.03182716f,    -0.33583307f,    0.04319577f,    0.40723544f,    -0.28190732f,    -0.00873762f,    -0.19290969f,    0.05963440f,    0.04967468f,    0.26913905f,
    0.09890376f,    0.28264868f,    0.18339525f,    0.14984387f,    0.15221517f,    0.00017293f,    0.24278887f,    -0.35815397f,    -0.00184673f,    -0.41095439f,
    -0.10896790f,    -0.04638018f,    0.19115609f,    0.28958252f,    -0.35637578f,    -0.07230721f,    0.20361854f,    -0.20175114f,    0.04089832f,    -0.20348406f,
    0.04842608f,    0.11535031f,    0.16374481f,    0.00540883f,    0.59720796f,    0.21328063f,    -0.04670131f,    -0.00690254f,    0.18332060f,    -0.26503494f,
    0.00986980f,    0.18506157f,    -0.31105250f,    -0.19664519f,    -0.12251478f,    0.29227257f,    -0.38564926f,    -0.24531642f,    -0.20654282f,    -0.07862467f,
    -0.30815455f,    -0.25077134f,    -0.19639640f,    0.04929053f,    0.10197641f,    -0.05565712f,    0.10541174f,    0.12390403f,    0.09946720f,    0.00722096f,
    -0.10529936f,    -0.40658179f,    0.16235128f,    -0.28014314f,    0.13589959f,    -0.33880660f,    0.42232451f,    0.04442305f,    0.11409955f,    -0.25080818f,
    0.01414979f,    0.07007151f,    -0.17720476f,    0.06190974f,    -0.20071903f,    -0.15718865f,    0.10917821f,    0.18230926f,    0.08251063f,    0.13467774f,
    -0.36895487f,    0.32748529f,    -0.10876717f,    -0.08405436f,    0.39672360f,    -0.00604892f,    0.19552456f,    -0.08340571f,    -0.16246529f,    -0.14181630f,
    -0.28683132f,    0.05629390f,    -0.20921315f,    -0.19277258f,    0.13137321f,    0.01245866f,    -0.01527258f,    -0.18515435f,    0.11079454f,    0.20435317f,
    0.21726941f,    0.25651497f,    -0.08852322f,    0.09026917f,    0.02885534f,    0.24755427f,    -0.09613710f,    -0.08978606f,    -0.09737464f,    0.12128265f,
    -0.24609333f,    0.25083512f,    -0.33128422f,    -0.05445297f,    0.03120706f,    0.05393985f,    0.36947525f,    0.03425815f,    -0.29990759f,    0.01471166f,
    0.15045884f,    0.35433319f,    0.13144006f,    -0.08638050f,    0.10901842f,    -0.12345732f,    -0.14375818f,    -0.30781895f,    -0.16192608f,    -0.01143028f,
    -0.16238567f,    0.21422073f,    -0.35279134f,    -0.25470823f,    -0.27794421f,    0.05008131f,    -0.28232628f,    0.35334265f,    0.01323113f,    0.10381188f,
    -0.27299356f,    -0.12135474f,    -0.04731496f,    -0.09679491f,    -0.04825420f,    0.17051929f,    -0.00666292f,    -0.17280024f,    0.06285662f,    0.09363460f,
    0.80412900f,    0.08937193f,    -0.22571845f,    0.46185449f,    0.10770817f,    0.62321424f,    0.06426702f,    -0.00456392f,    0.06460434f,    -0.19018115f,
    -0.12615007f,    -0.13464035f,    0.23131850f,    -0.04534502f,    0.01070020f,    0.00818378f,    -0.12273142f,    -0.07925354f,    -0.20994925f,    -0.34078664f,
    0.10792485f,    -0.36921513f,    0.11416516f,    -0.05538739f,    0.33478400f,    -0.38793972f,    0.10121021f,    -0.15431054f,    -0.15693469f,    0.31616047f,
    -0.00502738f,    0.08421629f,    -0.15136386f,    0.33041683f,    0.00184666f,    -0.12349349f,    -0.12834987f,    -0.13922396f,    -0.07646509f,    -0.33789957f,
    0.00757892f,    0.02860299f,    0.27062577f,    -0.14421351f,    0.03981981f,    0.34204906f,    -0.08333258f,    -0.11061099f,    0.05505830f,    0.09794158f,
    -0.00807001f,    0.09878524f,    0.30097038f,    -0.14711182f,    -0.05992511f,    -0.10805502f,    -0.36563927f,    -0.05319732f,    0.13502771f,    -0.10915290f,
    -0.11589811f,    -0.09948122f,    -0.17465250f,    0.17944273f,    -0.02928218f,    0.16107900f,    0.06751390f,    -0.28148976f,    0.10107084f,    -0.24086486f,
    -0.28733271f,    -0.27153227f,    -0.19858274f,    0.11213242f,    0.09931932f,    -0.53030825f,    -0.04142077f,    -0.33334765f,    0.22706068f,    -0.03223787f,
    0.08221579f,    -0.24170189f,    0.27748829f,    -0.03625494f,    -0.08629625f,    0.05763334f,    -0.01149432f,    -0.11783648f,    -0.12997833f,    0.22640760f,
    -0.02200001f,    0.01093628f,    0.29128063f,    -0.13503659f,    0.09270646f,    -0.26586401f,    0.25926566f,    -0.29675314f,    0.35891113f,    -0.08058126f,
    -0.14866419f,    0.15744993f,    0.11976100f,    0.24863508f,    0.20574130f,    0.08712912f,    0.29210702f,    -0.00491423f,    -0.05808338f,    -0.30542293f,
    0.36519513f,    0.18237697f,    0.06411697f,    0.06535372f,    0.01752504f,    0.36192244f,    -0.24621838f,    -0.26783556f,    -0.05504161f,    -0.31723061f,
    -0.16342656f,    -0.32033339f,    -0.01675695f,    0.02723436f,    0.03500517f,    -0.36556849f,    -0.26436728f,    -0.37419733f,    -0.47724119f,    -0.16861577f,
    -0.13605794f,    0.14998150f,    -0.26357830f,    -0.29482526f,    -0.27269170f,    -0.27183601f,    0.01068589f,    -0.17834450f,    -0.26793236f,    -0.17115587f,
    -0.29261816f,    -0.16249347f,    -0.16403680f,    0.05826117f,    0.00598958f,    0.26358837f,    0.19718257f,    0.13798632f,    -0.03855407f,    -0.03177034f,
    -0.15030797f,    0.07180262f,    -0.07435925f,    0.02641412f,    -0.17140713f,    0.20794378f,    -0.30256668f,    0.10106919f,    0.08006676f,    -0.27780086f,
    0.33806694f,    -0.12765181f,    0.09322946f,    -0.41633937f,    -0.14484975f,    -0.33985516f,    0.07221616f,    0.13269006f,    0.10263798f,    -0.03287724f,
    -0.01362943f,    -0.02406697f,    -0.13706799f,    0.17071024f,    -0.07146950f,    -0.14243424f,    0.17140114f,    -0.07614088f,    -0.16660175f,    0.08252086f,
    0.17103700f,    0.11663719f,    0.12441075f,    0.00389012f,    -0.19598728f,    0.03169152f,    0.06155489f,    0.18136030f,    -0.08570766f,    -0.11189169f,
    -0.03345241f,    0.09559470f,    -0.26952600f,    -0.31003189f,    0.22139452f,    -0.03932576f,    0.07562751f,    -0.19756390f,    0.00064909f,    0.18433446f,
    -0.09805079f,    0.11575118f,    -0.26457208f,    0.07161453f,    0.27449688f,    -0.25591522f,    -0.03521793f,    -0.25055447f,    -0.63080949f,    -0.08743174f,
    -0.22662009f,    0.07836796f,    -0.08330482f,    0.51946646f,    -0.12564644f,    -0.06566006f,    -0.18866007f,    0.01019983f,    -0.10307468f,    0.20798004f,
    -0.03554467f,    -0.04646109f,    -0.16601591f,    -0.04840488f,    0.07852993f,    0.00775089f,    0.49151245f,    -0.09742320f,    0.16816977f,    0.03956130f,
    0.32298663f,    0.05038598f,    -0.19114909f,    -0.24275798f,    -0.59642595f,    -0.39244813f,    -0.07890021f,    0.00267895f,    -0.33996046f,    -0.03281808f,
    0.33947673f,    -0.12309679f,    -0.01946724f,    -0.00729504f,    -0.01697670f,    -0.30038506f,    -0.06054590f,    0.18418051f,    -0.02070845f,    -0.07414983f,
    -0.16299604f,    -0.13681045f,    -0.05908278f,    -0.26666436f,    0.03102798f,    0.12442447f,    0.13227469f,    -0.43031123f,    -0.34005728f,    -0.03042122f,
    -0.16831642f,    0.33713049f,    -0.17574485f,    0.12114350f,    0.02268984f,    0.17683838f,    -0.17418759f,    -0.17059149f,    0.29500845f,    -0.03212985f,
    0.21696390f,    0.17675664f,    -0.17975149f,    -0.02333151f,    0.08820671f,    -0.26577330f,    -0.09465977f,    0.28447616f,    -0.11170416f,    0.20431189f,
    0.02882309f,    0.06967723f,    -0.14921752f,    0.06745280f,    -0.03696143f,    -0.06271333f,    -0.09722921f,    0.08358658f,    0.15690228f,    0.03875272f,
    0.14676917f,    0.05110743f,    0.21234447f,    -0.27040017f,    0.28812113f,    -0.50847334f,    -0.04674371f,    0.00081034f,    0.36613339f,    -0.23079818f,
    -0.26418871f,    0.30051625f,    0.10105645f,    -0.01759013f,    0.68420523f,    -0.26033953f,    0.05875475f,    -0.17415847f,    0.41088566f,    0.11665080f,
    0.12699616f,    -0.08083694f,    0.22558875f,    0.07708118f,    -0.27166131f,    -0.58872622f,    0.05255056f,    0.34372017f,    0.00616448f,    0.15969299f,
    0.21829557f,    -0.05277819f,    0.15255837f,    0.11642668f,    -0.02228612f,    -0.20224206f,    0.01920767f,    -0.12642778f,    -0.21265310f,    0.29560629f,
    -0.29986188f,    -0.97877604f,    -0.13895726f,    -0.11955220f,    -0.21875761f,    -0.17925274f,    -0.16765372f,    0.19350627f,    -0.54456854f,    -0.22897410f,
    0.21285850f,    0.13072740f,    -0.27891290f,    -0.26433325f,    -0.49132371f,    -0.09637662f,    -0.05701663f,    -0.12464748f,    -0.16979469f,    0.26539782f,
    0.00923599f,    0.21702060f,    0.24636051f,    0.06019018f,    -0.12212281f,    -0.15580355f,    0.29188028f,    -0.11137842f,    0.26645893f,    0.44528857f,
    0.16765304f,    -0.43141595f,    -0.13881221f,    -0.06770080f,    -0.17760079f,    -0.39516231f,    0.14205253f,    -0.22015969f,    0.01778988f,    -0.33419734f,
    -0.19022685f,    -0.24643013f,    -0.32875067f,    -0.39776683f,    0.37189898f,    0.54418772f,    0.04082106f,    0.01138161f,    -0.09179578f,    -0.15276803f,
    0.08451200f,    0.35344008f,    0.29636684f,    0.33709997f,    0.32072246f,    -0.13643342f,    -0.17108414f,    0.15726820f,    -0.05456828f,    -0.00290362f,
