// MLP Lightweight Model Parameters (C Header Format) - Generated by Python


// Layer 0: dense_5 (Dense, 122x256)
const float layer0_weights[31232] = {
0.00765598f, 0.09256925f, 0.13787912f, -0.02031574f, -0.08477719f, -0.14421903f, 0.03922591f, 0.09084988f, 0.09309421f, -0.15360998f, 
0.12611569f, 0.02018842f, 0.01322525f, 0.00872756f, 0.01083893f, -0.15549615f, -0.08789665f, 0.05000080f, -0.07025897f, 0.02891515f, 
-0.32782602f, -0.09400508f, 0.03045297f, -0.06185548f, -0.17405279f, -0.10863100f, 0.16444053f, -0.05802318f, 0.06254384f, -0.17872837f, 
0.04880412f, -0.05347513f, -0.04159560f, 0.07939633f, -0.01507740f, -0.18898782f, -0.05695426f, -0.04816537f, 0.09147093f, -0.06937427f, 
0.05321814f, 0.07550829f, -0.01119687f, -0.12297771f, -0.02818616f, -0.15236506f, 0.03569473f, -0.02965675f, 0.04478486f, 0.12702861f, 
0.09313552f, 0.01319395f, 0.04363577f, -0.13191390f, -0.11238611f, 0.00459910f, 0.11319114f, -0.06787635f, -0.30461350f, -0.20522808f, 
-0.00351472f, 0.00418331f, 0.00072262f, -0.00659625f, -0.13353434f, 0.04538183f, 0.01022701f, 0.20386298f, -0.25384411f, -0.16243619f, 
-0.07455882f, 0.03062312f, -0.00002525f, 0.01000377f, 0.04399994f, -0.10454437f, -0.23021187f, 0.12051843f, -0.14040673f, -0.09202525f, 
-0.22920847f, -0.13628681f, -0.05872190f, -0.10849100f, 0.04608250f, -0.00443588f, -0.05088232f, -0.01131445f, -0.02051938f, -0.06192221f, 
-0.00865056f, 0.02775674f, -0.15143576f, 0.08846746f, -0.10259693f, -0.15845080f, 0.12161578f, -0.10345945f, -0.02422619f, -0.03609948f, 
0.14004198f, -0.03193478f, 0.05887010f, -0.03421696f, 0.12783124f, -0.08204498f, -0.03581038f, -0.12904862f, 0.10484417f, -0.03843459f, 
0.06577303f, 0.20316346f, -0.07833391f, -0.07243157f, 0.02197144f, -0.00368260f, -0.06316929f, 0.09974829f, -0.02553368f, 0.01434930f, 
-0.08110655f, 0.11179422f, 0.00497408f, 0.08020340f, 0.14459383f, 0.09042948f, -0.10140694f, -0.03125974f, 0.04761225f, 0.03317329f, 
0.10991899f, -0.05102083f, 0.00597232f, -0.12877767f, -0.05121439f, 0.01785376f, 0.06372938f, 0.01713526f, 0.03260946f, 0.06303990f, 
0.01517282f, -0.16054599f, 0.11746445f, -0.00851366f, -0.03047155f, -0.21496427f, 0.10626533f, 0.12261171f, 0.01145113f, -0.12888427f, 
-0.06034502f, -0.16986263f, -0.02748705f, -0.03942947f, -0.03146574f, 0.03908489f, 0.01660361f, -0.11260410f, 0.10427686f, -0.11507097f, 
-0.01324080f, 0.10647917f, 0.04484698f, 0.00600025f, -0.06959981f, 0.05535522f, -0.06794759f, -0.17280017f, 0.00642101f, -0.09621487f, 
0.17074664f, -0.10016801f, -0.01384758f, -0.04228262f, -0.20432967f, -0.05278437f, -0.14088170f, -0.01407017f, -0.14521499f, 0.04157437f, 
0.03279696f, 0.17466269f, -0.04874576f, 0.13891235f, -0.01529619f, 0.03264665f, -0.05810811f, -0.10323115f, -0.15808441f, 0.00343872f, 
-0.12967229f, -0.08677990f, -0.04676326f, -0.00834960f, 0.02827135f, 0.10446928f, 0.06534480f, 0.18926062f, 0.00528602f, -0.14187419f, 
0.04485057f, -0.09005100f, -0.08259939f, -0.06336244f, -0.16328469f, -0.04575840f, -0.20096321f, 0.12485586f, -0.07379357f, -0.06611527f, 
0.13129629f, 0.05861124f, 0.17190647f, -0.05742395f, 0.06157060f, -0.03912083f, 0.02380962f, 0.09399943f, 0.04421289f, 0.11542208f, 
0.07508687f, -0.00995423f, 0.00072820f, -0.00842256f, -0.15419553f, -0.07396881f, 0.11769905f, 0.07022304f, 0.03126166f, 0.07069293f, 
0.00527715f, 0.00512253f, 0.07621230f, 0.00825995f, 0.10552799f, 0.05943564f, -0.00882617f, 0.05330170f, -0.02754219f, -0.03475843f, 
0.03838401f, 0.03858449f, 0.08076377f, -0.14711228f, -0.07578287f, 0.11947224f, 0.01261200f, 0.08632060f, 0.03555643f, 0.10981639f, 
-0.28468585f, -0.10990013f, -0.02876709f, -0.16434467f, -0.02874143f, -0.18052377f, -0.03662328f, -0.05591095f, -0.06306054f, 0.07043517f, 
-0.12646757f, 0.16063176f, -0.06553405f, 0.14735925f, 0.10218461f, -0.11420618f, -0.01057379f, 0.01257375f, -0.15531304f, -0.04298235f, 
0.03264177f, 0.07125415f, 0.07843604f, -0.07342903f, 0.11397626f, -0.06913964f, -0.08532485f, 0.13450465f, -0.02833322f, -0.00800223f, 
-0.04709885f, 0.10161334f, 0.02750043f, -0.01425753f, -0.07786638f, -0.02066303f, 0.08348303f, -0.07199247f, -0.15650128f, -0.15318567f, 
0.08957329f, 0.09186480f, 0.00221201f, -0.09734413f, -0.28110585f, 0.00103987f, -0.09628087f, 0.06841204f, -0.05157648f, 0.11516397f, 
0.02865944f, -0.06311803f, 0.10415334f, 0.09423076f, -0.14891683f, -0.08646630f, -0.17323726f, 0.06975173f, -0.22280695f, 0.04392345f, 
-0.12930954f, 0.03439026f, -0.07138062f, 0.00555352f, 0.06236417f, 0.08646303f, -0.02113238f, -0.08059097f, 0.07695159f, 0.07618165f, 
-0.10610177f, -0.08744517f, 0.08369145f, -0.18454611f, -0.04230399f, 0.10695300f, 0.03312339f, -0.08310053f, 0.02339941f, 0.04176695f, 
0.05961433f, 0.00460992f, 0.00587288f, -0.00512046f, -0.08379021f, -0.06224657f, 0.11837626f, 0.02604704f, 0.00980978f, 0.04544957f, 
-0.08536122f, -0.14565384f, 0.02491089f, -0.09662534f, 0.09180616f, -0.09285828f, -0.04053741f, 0.11535596f, 0.08055738f, -0.10185622f, 
-0.04302678f, -0.13638702f, 0.08708368f, 0.08313731f, 0.01268936f, 0.00075556f, -0.04600266f, 0.02243351f, 0.13210745f, 0.06246148f, 
-0.13798822f, -0.07715424f, 0.00667462f, -0.10107960f, 0.05595049f, -0.07675355f, -0.06760288f, 0.04182541f, 0.06928425f, 0.04392055f, 
-0.01252425f, -0.05023751f, 0.03566942f, -0.06730478f, -0.09053544f, 0.00450876f, 0.00478960f, 0.02720279f, 0.15210003f, -0.17923324f, 
-0.11857042f, 0.02010541f, -0.15064465f, -0.02385160f, 0.07041427f, -0.03945626f, 0.04662060f, 0.02829153f, 0.05606150f, -0.04592118f, 
-0.01638727f, -0.02165550f, -0.09011048f, -0.05644935f, 0.13203582f, -0.04285334f, -0.11551821f, -0.06992750f, -0.02348501f, -0.12433938f, 
0.05521533f, 0.07259760f, 0.00018390f, 0.08856309f, 0.06241946f, 0.13045694f, -0.05676187f, 0.07552920f, -0.08815262f, 0.02288773f, 
-0.02605333f, -0.09300731f, -0.12976748f, 0.04582177f, -0.03860959f, 0.08374895f, 0.14295310f, 0.03225566f, -0.02443754f, -0.09247521f, 
-0.12680562f, -0.02330627f, -0.06431642f, 0.06815854f, 0.02979673f, 0.05305835f, -0.11164833f, -0.10397662f, 0.09487903f, -0.00278150f, 
0.00034144f, -0.15398960f, 0.00567677f, 0.13481592f, -0.08685882f, -0.09683722f, -0.08400968f, 0.06511732f, -0.00177903f, -0.05543379f, 
0.03770301f, -0.05151803f, 0.01686075f, -0.15256529f, 0.03080892f, -0.13170573f, -0.14857569f, 0.05457968f, -0.10752199f, -0.20189975f, 
-0.02280913f, -0.05493693f, -0.19724539f, -0.14357539f, -0.14905730f, 0.14212082f, -0.05450953f, 0.06233847f, 0.12873258f, -0.07939100f, 
0.01090690f, 0.06642754f, -0.06574843f, -0.01016064f, 0.04112818f, -0.09215795f, -0.01678917f, 0.19860175f, -0.05906608f, -0.15587328f, 
-0.01523064f, -0.02096967f, 0.03099208f, 0.08979746f, 0.02179408f, -0.06660585f, -0.04670871f, 0.13050638f, -0.08968832f, 0.06670530f, 
0.09508036f, -0.00463574f, -0.08902404f, -0.03497200f, 0.05837386f, -0.08156837f, -0.14896424f, 0.06979254f, -0.01900224f, 0.06643156f, 
-0.01619465f, -0.01477630f, -0.08053097f, -0.03826797f, 0.10831817f, 0.00512696f, 0.07240048f, -0.18743661f, 0.00173799f, -0.12785579f, 
-0.05257150f, -0.11850531f, -0.16542290f, -0.09516624f, 0.03838873f, -0.19063181f, 0.05836176f, -0.10233238f, -0.16218922f, -0.04782709f, 
0.06144548f, 0.06677739f, -0.08787069f, -0.07891748f, 0.06734195f, -0.07811972f, -0.00051437f, 0.11789501f, -0.06157180f, -0.12904090f, 
-0.00403178f, 0.15040581f, -0.03197462f, -0.18887772f, 0.17021579f, 0.04981923f, 0.01882189f, 0.08451393f, 0.12921773f, -0.04162173f, 
0.02508860f, 0.00901021f, 0.04156323f, -0.09823900f, -0.00200194f, -0.10686494f, 0.01588759f, -0.06080651f, -0.12197731f, 0.01969626f, 
0.11066476f, 0.12746383f, -0.26245895f, 0.24138848f, -0.10883842f, 0.06421960f, -0.06963287f, -0.01393934f, -0.13671219f, -0.06865004f, 
0.01922593f, -0.02513232f, -0.07138197f, 0.01788230f, 0.05757397f, 0.13086730f, 0.14419252f, 0.04112732f, -0.12701431f, -0.05082194f, 
0.05223393f, -0.13333912f, 0.09373224f, 0.05315959f, -0.16469556f, 0.08822586f, -0.09853894f, 0.02800743f, 0.06022810f, 0.03176932f, 
-0.02290895f, 0.07422106f, -0.05953179f, -0.02440480f, 0.02211570f, -0.16106409f, -0.04387510f, -0.08222858f, 0.13391680f, -0.07146394f, 
-0.03691082f, 0.03865558f, -0.10733967f, -0.15017423f, 0.01528808f, 0.11930717f, -0.07738630f, 0.14043558f, 0.16580790f, -0.04408704f, 
-0.07031518f, -0.01843568f, -0.09789424f, -0.01241530f, 0.15306754f, -0.19398503f, -0.09678150f, 0.08582284f, 0.02938365f, -0.10089901f, 
0.14292252f, -0.09053741f, -0.16239317f, -0.04803058f, -0.06307895f, -0.02973592f, 0.11872894f, -0.18153529f, 0.00424759f, -0.10970692f, 
-0.22202702f, -0.25456679f, 0.05377278f, 0.11039672f, -0.04153571f, -0.01672949f, -0.19089159f, -0.00383254f, -0.01624312f, 0.05217726f, 
0.11998780f, 0.02726598f, -0.02881932f, 0.04142917f, 0.03839383f, 0.08699892f, 0.06692955f, -0.18961863f, -0.03042709f, -0.00509179f, 
-0.00481783f, 0.01011407f, 0.12099468f, -0.10488485f, -0.13537140f, -0.02337178f, -0.07284524f, -0.09254403f, 0.06178235f, -0.15413220f, 
-0.17302527f, -0.14542177f, -0.06319420f, 0.05770893f, -0.00097567f, 0.10801289f, 0.03880271f, -0.11179538f, 0.02433349f, -0.02863483f, 
0.02343727f, -0.05681398f, 0.14400545f, 0.00326623f, 0.00355852f, 0.05735484f, 0.04621741f, 0.06887584f, 0.12113871f, 0.02041269f, 
-0.12026455f, 0.04573803f, 0.06152413f, 0.16290548f, -0.06388160f, 0.01252479f, 0.15161005f, 0.03549861f, -0.02332818f, -0.01174195f, 
-0.09266113f, 0.06314280f, -0.01417715f, -0.03651528f, -0.03639403f, 0.04390659f, 0.00803441f, -0.12418157f, 0.01159502f, -0.00762616f, 
-0.10144713f, -0.13647290f, -0.13210870f, 0.06530602f, -0.01816726f, -0.07289788f, -0.06304095f, -0.02283503f, -0.00800904f, -0.02821974f, 
-0.09883839f, 0.10092450f, -0.01618139f, -0.11297650f, -0.08508983f, 0.12583023f, -0.13869433f, 0.08319810f, 0.12803118f, -0.09817849f, 
0.15947099f, 0.05996668f, -0.08457959f, 0.06531327f, 0.08677882f, 0.12250971f, -0.24277882f, 0.06637479f, 0.09606028f, -0.07850035f, 
-0.15993659f, -0.06820644f, 0.12347045f, -0.13817309f, -0.05743185f, 0.03853696f, -0.09144028f, -0.08864061f, 0.15948284f, 0.00313489f, 
0.07304774f, 0.03278116f, -0.01200835f, -0.01276720f, -0.12098229f, -0.00125527f, 0.07925557f, 0.08236218f, -0.06400029f, -0.04973280f, 
0.06163237f, -0.01193705f, 0.03765979f, 0.09848395f, 0.04913988f, -0.09220351f, 0.02394929f, -0.14808527f, 0.07535664f, -0.15036161f, 
-0.16843429f, 0.02683698f, 0.13869335f, -0.04290577f, 0.04963468f, -0.01811921f, 0.03285176f, -0.07858463f, -0.00050918f, 0.05382783f, 
0.07255132f, 0.08504083f, -0.10007251f, -0.00812243f, 0.00330866f, 0.08398011f, 0.12359653f, 0.05937233f, 0.08410288f, -0.01443623f, 
0.03687235f, 0.03650868f, 0.05223848f, -0.00070688f, -0.14904302f, -0.01914031f, -0.02246883f, 0.01896637f, -0.15893854f, -0.05197254f, 
-0.05012523f, 0.12358641f, -0.04782912f, -0.01739121f, -0.02266935f, -0.09924450f, -0.01436947f, 0.10154252f, -0.08964120f, -0.16775104f, 
-0.04846834f, -0.17346211f, -0.06763242f, -0.17445810f, 0.30151439f, -0.20046866f, 0.36555502f, -0.08133769f, -0.25922048f, 0.00790979f, 
-0.03230160f, -0.07880451f, 0.08551222f, 0.00867911f, 0.01851283f, 0.00138981f, -0.07734016f, -0.08130378f, -0.13014165f, 0.04455643f, 
-0.15063424f, 0.02145657f, 0.12324040f, -0.02728006f, -0.05493710f, -0.05674761f, -0.13133204f, 0.05859075f, 0.03913075f, 0.00076787f, 
-0.10109187f, 0.01051007f, -0.19768460f, 0.00063179f, -0.14740290f, -0.06508327f, 0.10414712f, -0.05177762f, 0.11488385f, 0.21406282f, 
-0.12473709f, -0.19729531f, -0.00432651f, -0.13075329f, -0.04049970f, -0.00304837f, 0.21810929f, 0.10490948f, -0.03159260f, -0.13336605f, 
-0.00106784f, -0.05468272f, 0.04590550f, -0.09253301f, 0.04211599f, -0.24672176f, -0.20155735f, -0.19400398f, -0.13551383f, 0.05833409f, 
-0.02266201f, 0.18564707f, -0.34263206f, 0.11951107f, -0.02176286f, -0.23695861f, 0.05390484f, -0.21135560f, -0.00163036f, -0.07151856f, 
0.30686730f, 0.02989935f, 0.28252476f, -0.22318436f, 0.15324394f, 0.00239351f, -0.02350072f, 0.02766627f, -0.05865147f, -0.12417012f, 
-0.18920620f, 0.01072714f, -0.05712444f, -0.15214989f, -0.01377200f, 0.01253521f, -0.12196638f, -0.31526169f, 0.02592281f, -0.26766503f, 
-0.08265454f, 0.23999856f, -0.23207688f, -0.04001419f, 0.18977608f, 0.02161312f, 0.19584794f, -0.01477169f, -0.13739359f, -0.01234342f, 
-0.12353820f, 0.29884163f, -0.15849882f, -0.04559990f, 0.23621397f, -0.27280232f, 0.12372559f, 0.02038014f, -0.05736000f, -0.03280007f, 
0.14419793f, 0.01017266f, -0.09294139f, 0.14290607f, -0.08461512f, -0.11823763f, -0.37111706f, -0.07125272f, -0.25744775f, 0.14874372f, 
-0.02388688f, 0.24059120f, 0.05448223f, 0.10014655f, 0.04679837f, 0.09845431f, -0.02822597f, -0.08806878f, 0.06977373f, 0.07073867f, 
-0.32602701f, 0.01369171f, -0.03048640f, -0.00912997f, 0.03041839f, -0.11236280f, -0.09030220f, 0.03958666f, 0.25981709f, -0.23054650f, 
-0.02832686f, 0.08409174f, 0.11440372f, -0.03905120f, -0.20993902f, -0.19454996f, 0.09354064f, 0.30516449f, 0.02043184f, 0.12527129f, 
-0.06628892f, 0.20247021f, 0.02552913f, 0.17297645f, 0.10365081f, -0.01038752f, 0.03742196f, 0.02181000f, -0.14805900f, -0.00341074f, 
-0.13601814f, 0.03186343f, -0.02395693f, -0.07348364f, -0.03264616f, -0.04874442f, 0.09358387f, 0.14001802f, -0.01142197f, -0.09912641f, 
-0.13497505f, -0.04210793f, 0.04152752f, 0.27429619f, -0.13974853f, -0.04822806f, -0.11066692f, -0.00862527f, -0.07284676f, -0.22226164f, 
0.00310222f, -0.19913141f, -0.16480055f, 0.07423368f, 0.31683013f, -0.09047825f, -0.09949238f, -0.05773734f, -0.07879931f, 0.12198777f, 
0.14577346f, -0.09072234f, -0.20644780f, 0.24949688f, 0.06888212f, -0.00425247f, -0.21976224f, -0.04182810f, -0.04795505f, -0.14065161f, 
-0.04749825f, -0.07467961f, 0.03254849f, 0.00576285f, 0.22281669f, 0.03594052f, 0.12597445f, -0.05257064f, 0.10828653f, 0.29606751f, 
-0.06230472f, 0.18593739f, -0.06482124f, -0.24234430f, -0.08377160f, 0.07848745f, -0.06904133f, 0.07823268f, -0.11245126f, 0.03168176f, 
0.30605757f, -0.27152771f, 0.02136422f, 0.06279585f, -0.07489201f, 0.00334521f, 0.09546673f, -0.20946680f, -0.08180188f, 0.25964993f, 
0.06077559f, -0.07535790f, -0.02834930f, 0.12833640f, -0.14814115f, 0.01738005f, 0.03998236f, 0.06218305f, 0.36544853f, -0.08376624f, 
-0.17065848f, 0.00618050f, -0.06769683f, 0.23663390f, -0.14808151f, -0.07859483f, -0.02027990f, -0.06696653f, 0.03368809f, -0.07642046f, 
-0.02867225f, -0.11276784f, 0.15932797f, -0.00429286f, 0.12750125f, -0.08332551f, 0.03538538f, 0.05192153f, 0.00600615f, -0.11766181f, 
0.05732783f, -0.00581975f, 0.02673853f, -0.07099780f, -0.19080767f, -0.04786263f, 0.07618377f, -0.05123773f, 0.21697545f, -0.08334625f, 
0.02491676f, -0.03201442f, 0.10619806f, -0.14028150f, -0.04585289f, 0.16186732f, -0.08554903f, 0.03691977f, 0.15650950f, -0.00120865f, 
-0.06192749f, 0.03206055f, -0.08376922f, 0.09827621f, 0.08048548f, 0.00914797f, -0.14530098f, 0.02031045f, 0.05328643f, -0.02556311f, 
0.06023706f, 0.07315052f, -0.08337699f, -0.12483384f, -0.00703325f, 0.06916800f, -0.12966983f, -0.05268212f, -0.04008683f, -0.01161553f, 
0.06233179f, -0.08717147f, -0.10566355f, -0.04100856f, 0.09432640f, -0.11935752f, -0.06126452f, -0.16590199f, 0.05181674f, -0.03670194f, 
-0.12798487f, 0.01909036f, -0.03457864f, 0.04285898f, 0.01731732f, 0.14871272f, -0.05480452f, 0.02967604f, -0.11193489f, 0.15004380f, 
0.01140700f, 0.01208265f, -0.16565964f, -0.03973743f, -0.14887981f, -0.07942810f, 0.05457843f, 0.04304932f, 0.00712267f, 0.06226518f, 
0.02913842f, 0.05180174f, -0.03801163f, 0.13200401f, -0.04722498f, -0.03837947f, -0.04816948f, -0.13512206f, 0.11494604f, -0.02070853f, 
0.08678096f, 0.00813663f, -0.15816791f, -0.12561463f, -0.03585961f, -0.11677583f, 0.07476064f, 0.15838639f, -0.11642815f, -0.00159090f, 
-0.06202238f, 0.04925884f, 0.15668011f, 0.10436726f, 0.08253826f, -0.04292549f, -0.04649413f, 0.19941792f, -0.13466774f, 0.02217388f, 
0.08980159f, 0.06439712f, -0.04173394f, 0.09837047f, -0.04419036f, 0.03659167f, 0.12934144f, -0.06805576f, 0.10320390f, -0.15600008f, 
-0.03956062f, -0.12983027f, -0.18332958f, -0.12636141f, -0.14321032f, -0.07004666f, 0.01031923f, -0.02277949f, -0.03253228f, -0.04842334f, 
0.07228769f, 0.02116015f, -0.04413126f, -0.05944202f, 0.06383443f, -0.01391779f, -0.03952956f, 0.13007385f, 0.05223921f, 0.11302479f, 
0.07367638f, 0.05567993f, -0.01095289f, -0.10771592f, 0.16861273f, 0.03597542f, 0.09934753f, 0.04828602f, -0.11468951f, -0.01566328f, 
-0.20584711f, 0.01805786f, -0.03245459f, 0.16258791f, 0.08483006f, 0.07991707f, 0.07367607f, 0.12624706f, 0.12473065f, 0.14117509f, 
-0.12161233f, -0.01413385f, 0.16594961f, -0.06646822f, 0.05289038f, 0.02354374f, -0.09306540f, -0.07225087f, -0.08612013f, -0.04995848f, 
0.04933447f, 0.02456989f, 0.05988744f, 0.22195901f, 0.08983302f, 0.02619930f, -0.05838313f, 0.13894869f, 0.05260041f, 0.11683334f, 
-0.08717652f, 0.01357970f, 0.02578177f, 0.05617210f, -0.03581412f, -0.03445533f, 0.00553176f, 0.00291904f, -0.06644872f, -0.10930664f, 
0.14146437f, -0.06727302f, -0.12512335f, 0.00155930f, 0.00838645f, 0.02529909f, 0.03325976f, 0.05633705f, 0.04563628f, 0.14982677f, 
0.05325282f, -0.06344643f, 0.03808519f, 0.15362296f, 0.17782573f, -0.00620335f, -0.02692811f, -0.01488809f, 0.13757879f, 0.07580616f, 
-0.16096763f, 0.09210845f, -0.07737271f, 0.08322825f, -0.05237813f, 0.01676708f, -0.08886495f, 0.14813063f, -0.06742205f, -0.03865574f, 
0.10198158f, 0.07964460f, -0.05008166f, 0.01430183f, -0.04985907f, 0.10119445f, 0.18067719f, 0.03880190f, 0.07969941f, 0.13341825f, 
-0.05967472f, 0.06135312f, 0.04366517f, -0.01622207f, -0.04600568f, 0.13402832f, -0.01272735f, -0.08262560f, 0.04112909f, 0.09844195f, 
-0.07135034f, 0.07588997f, 0.21800116f, -0.10948450f, 0.07033848f, -0.06883310f, -0.03174958f, -0.04474828f, 0.02527717f, 0.07410636f, 
-0.06930640f, 0.02767510f, 0.00049332f, 0.02892898f, -0.08352933f, -0.02801972f, -0.03340808f, 0.04244845f, 0.09498549f, 0.11818990f, 
-0.09521516f, -0.11243489f, -0.06534678f, 0.05925098f, 0.06989370f, 0.11602179f, -0.04019942f, -0.14167239f, -0.11143513f, 0.07786662f, 
0.07531273f, 0.13989013f, 0.01016531f, 0.04662088f, 0.02194846f, 0.03415554f, -0.00670977f, -0.01682258f, 0.11594791f, -0.11813287f, 
-0.02484343f, 0.13133821f, 0.02919720f, 0.00335206f, 0.13264544f, -0.12278941f, 0.12878971f, -0.05879147f, 0.06517772f, 0.02993723f, 
-0.15247890f, -0.05226501f, 0.09957844f, 0.08385237f, -0.13529778f, 0.02018126f, 0.07343734f, -0.06219813f, 0.08452592f, -0.13698177f, 
0.03292035f, -0.07605853f, -0.03707278f, -0.07846414f, -0.01897716f, -0.03738619f, 0.01792305f, -0.10077409f, 0.06236320f, -0.01642795f, 
0.06042610f, 0.06706016f, -0.05346233f, 0.04582296f, 0.13047288f, -0.02217053f, 0.00729927f, -0.06311734f, -0.00164522f, -0.07527553f, 
0.03843421f, -0.02310743f, 0.08097184f, -0.10281979f, 0.02480508f, 0.07875741f, -0.06978992f, -0.02134879f, 0.04865194f, 0.05656364f, 
-0.01593440f, -0.02832547f, -0.00115144f, -0.07778482f, -0.04824231f, -0.01747885f, -0.06039900f, -0.10788649f, -0.00579200f, -0.13040802f, 
0.09367444f, -0.05176453f, -0.05363147f, -0.08952788f, -0.00920332f, 0.04581087f, 0.05996586f, -0.11880305f, 0.01975459f, 0.01804841f, 
0.09413546f, -0.14377101f, 0.08611294f, 0.03709154f, -0.00841697f, 0.04033662f, -0.06552383f, 0.02055512f, 0.05747580f, 0.09824576f, 
0.00069798f, 0.07821076f, -0.06349210f, 0.07196409f, -0.01433186f, -0.08311092f, -0.03736270f, 0.03612230f, -0.08066238f, 0.09930488f, 
-0.09110392f, -0.06726176f, 0.04541206f, -0.06860067f, -0.02328021f, -0.11155134f, -0.04087961f, -0.00917754f, 0.01663660f, 0.06520918f, 
0.05686398f, -0.07987370f, -0.08639660f, 0.02833578f, -0.06674287f, -0.08350401f, 0.00524904f, 0.08449136f, 0.09881016f, 0.00091610f, 
-0.11920562f, -0.00745294f, 0.01517397f, 0.04685683f, -0.01969562f, -0.08304749f, -0.10556406f, 0.09398329f, 0.10577176f, 0.01648847f, 
-0.06088064f, -0.06081294f, 0.10184883f, -0.13999851f, -0.02806572f, -0.07725326f, -0.07995536f, 0.02933459f, -0.08536314f, 0.03028902f, 
0.07525292f, 0.06632268f, 0.10807209f, 0.02125597f, 0.11832033f, 0.03806306f, 0.08116441f, -0.01472535f, 0.09015807f, 0.00397827f, 
0.07898640f, -0.14149755f, -0.07331685f, -0.00158877f, -0.09035213f, 0.07450598f, 0.05978775f, -0.00844376f, 0.02765235f, 0.00604454f, 
-0.06555326f, 0.00302783f, -0.10401800f, 0.09756709f, -0.00852224f, 0.06387908f, -0.02215143f, 0.03497664f, 0.04292374f, -0.01615773f, 
0.10630886f, 0.10235127f, 0.06993738f, -0.12422964f, -0.08534794f, -0.00903057f, -0.04915174f, -0.10797088f, -0.09310763f, 0.05725729f, 
-0.10594059f, -0.01026171f, -0.00405635f, -0.09460763f, -0.10379194f, -0.12097397f, -0.09062421f, 0.01424583f, 0.01468090f, 0.07015222f, 
-0.13282795f, -0.02177985f, -0.07083829f, 0.00239123f, 0.02994286f, 0.08702158f, -0.10760705f, 0.04737033f, 0.06659202f, 0.05029083f, 
-0.02216128f, -0.05161749f, -0.05720144f, 0.03735942f, -0.03591240f, -0.05840753f, 0.10114305f, 0.00535616f, 0.07910164f, -0.02159762f, 
0.04255014f, -0.08319841f, 0.01239595f, 0.05514251f, 0.03493089f, 0.07232620f, -0.01649477f, 0.06859514f, 0.02384944f, -0.14399764f, 
-0.08357025f, 0.08835473f, -0.03121047f, 0.00103634f, -0.11493713f, 0.00316676f, -0.00053443f, -0.04526364f, 0.06484868f, 0.02159037f, 
-0.09607847f, -0.02918397f, 0.04829492f, -0.07626653f, 0.09566107f, 0.08377702f, 0.05697159f, 0.05899355f, 0.08955956f, -0.07875672f, 
0.07614060f, 0.09005557f, -0.11119514f, -0.03438657f, -0.02123942f, -0.10086258f, 0.05295781f, -0.04672233f, -0.06796559f, 0.07501527f, 
-0.07680105f, 0.01364340f, 0.03953105f, -0.05265904f, 0.11507540f, -0.04662238f, -0.00929922f, 0.02271786f, 0.00243340f, -0.09350085f, 
-0.09133860f, -0.10285992f, -0.01602748f, 0.09080246f, 0.10035266f, 0.03053744f, -0.10667323f, 0.07418206f, 0.11612452f, -0.02356493f, 
-0.10303825f, 0.09666653f, -0.10562270f, -0.02744787f, 0.00031828f, -0.05400688f, 0.11388960f, 0.09309123f, 0.04855347f, -0.03483542f, 
-0.05021174f, 0.03296809f, 0.00725767f, 0.07273703f, 0.10321899f, -0.05896245f, -0.09057567f, 0.07044118f, 0.09821779f, 0.05656839f, 
0.04843062f, 0.00198719f, -0.12154116f, 0.02039574f, -0.04713346f, 0.10247520f, 0.05340816f, 0.12179936f, -0.02477440f, -0.03244402f, 
0.04961878f, -0.12281222f, -0.09735620f, -0.09009291f, 0.02921729f, 0.05879563f, -0.08929127f, 0.07646245f, 0.08424860f, -0.03292159f, 
-0.04187010f, -0.02659457f, -0.06053595f, -0.08950438f, 0.07320724f, 0.04862048f, -0.07913925f, -0.12820227f, -0.11616504f, -0.10998351f, 
-0.04054702f, -0.07991083f, -0.06237862f, -0.01540449f, 0.03716060f, -0.10737333f, -0.07222687f, -0.09141733f, 0.01454834f, -0.08454397f, 
0.08165303f, -0.03173030f, -0.09746484f, 0.10634410f, 0.11276350f, 0.04355549f, 0.11032014f, 0.01874774f, -0.07932723f, -0.13176411f, 
0.03277099f, 0.06906730f, 0.04199315f, -0.10746881f, -0.06483756f, -0.10463780f, 0.12177829f, -0.11906339f, 0.12205100f, -0.10094911f, 
0.05160759f, -0.02728561f, 0.08148803f, -0.01027433f, 0.06053320f, -0.03958571f, 0.08784551f, 0.05158210f, -0.01566004f, -0.04412033f, 
-0.02723091f, 0.01322560f, -0.05030937f, 0.01288237f, 0.03332814f, -0.00051241f, -0.13513944f, 0.02714514f, -0.07258530f, -0.07676406f, 
-0.06761097f, -0.10920997f, 0.11632808f, -0.00421876f, -0.04775157f, 0.12394881f, -0.06070354f, -0.00012186f, 0.04570610f, -0.02886492f, 
0.03652295f, -0.07790358f, -0.04903714f, -0.01720846f, -0.01045747f, 0.02864134f, -0.09827259f, 0.08489000f, -0.11495776f, 0.13168482f, 
0.06901874f, -0.06124969f, -0.08202115f, 0.02178463f, -0.05116436f, -0.09621668f, -0.09893709f, 0.06165023f, 0.08762725f, -0.02865173f, 
-0.03005390f, -0.01269562f, -0.04052734f, -0.06974170f, 0.05032919f, -0.08063690f, -0.03520222f, -0.11188077f, -0.05937463f, 0.07617176f, 
-0.03244024f, -0.06946787f, 0.09139811f, -0.02929784f, -0.00208443f, 0.11307302f, 0.04979518f, 0.11465140f, 0.00325302f, -0.11516964f, 
-0.08832587f, -0.11551689f, -0.11311136f, 0.02460163f, 0.00450878f, -0.00288926f, -0.10773563f, -0.12005382f, -0.04272094f, -0.00996839f, 
0.08356605f, 0.07819967f, -0.11179905f, -0.06620063f, 0.09238138f, -0.03991000f, 0.03497069f, 0.00606982f, 0.05274787f, 0.07071826f, 
0.00542771f, -0.11510226f, -0.01155582f, 0.01693656f, -0.06188066f, -0.01536089f, 0.04650861f, -0.08932931f, -0.02199905f, -0.06362706f, 
-0.03512328f, -0.05223285f, -0.11211163f, 0.00485386f, 0.09885836f, -0.11864644f, -0.10968298f, 0.11743104f, -0.03191688f, -0.08509131f, 
-0.04624220f, 0.07692222f, -0.09425189f, 0.06701636f, 0.01478326f, 0.05695328f, -0.07509720f, 0.03770784f, -0.06088662f, -0.06110254f, 
-0.03463612f, 0.03026668f, -0.11400240f, 0.12696822f, -0.09617917f, -0.09754357f, -0.05907720f, -0.10843057f, -0.08610144f, -0.09499829f, 
-0.11987878f, 0.13403800f, -0.07418002f, 0.09115651f, -0.03818475f, -0.03054280f, -0.08991415f, 0.02928753f, 0.06314965f, -0.03532723f, 
0.00333088f, -0.00282000f, 0.00461253f, -0.06039379f, -0.02354405f, -0.09087196f, 0.00860389f, -0.06417663f, -0.09771617f, 0.02718025f, 
0.10094207f, -0.10689569f, 0.14336848f, 0.00667994f, -0.04428544f, 0.02662355f, -0.12810440f, 0.00796793f, 0.15596308f, -0.07267022f, 
0.16110310f, 0.07189427f, -0.19678530f, -0.13764246f, 0.16368158f, -0.11927129f, -0.08749799f, -0.10139785f, 0.12039018f, 0.12614144f, 
-0.06991810f, -0.00285619f, -0.09550613f, 0.09539811f, -0.03091125f, 0.09570792f, -0.16122720f, -0.06758840f, 0.02407170f, 0.05056148f, 
-0.10375262f, 0.03344380f, -0.13954397f, 0.01633496f, -0.10581852f, 0.12817691f, -0.11934594f, 0.02719228f, -0.01142481f, -0.08679862f, 
0.01327998f, 0.01587318f, 0.03964488f, 0.00028501f, 0.17674744f, -0.03685231f, -0.12819842f, -0.11834951f, 0.04923967f, -0.07444661f, 
0.15539756f, 0.08000842f, 0.02111275f, -0.05763101f, 0.07289631f, -0.17326784f, -0.08841937f, -0.16622223f, 0.09619652f, -0.18920799f, 
0.01061531f, -0.08225619f, 0.03557603f, 0.08020319f, -0.02383397f, -0.07607918f, 0.03873815f, -0.04330790f, -0.09241379f, 0.13468651f, 
-0.13731293f, -0.07744167f, -0.13360080f, -0.07451317f, -0.03235607f, -0.07474227f, 0.22892486f, -0.17019184f, 0.13029480f, 0.03469376f, 
-0.09834270f, 0.02126318f, 0.02058962f, 0.00782724f, -0.01651728f, -0.16423033f, 0.02405666f, -0.11094356f, -0.07441257f, 0.12087245f, 
-0.15830864f, 0.00426244f, 0.12538774f, -0.21179630f, -0.06341654f, 0.10686993f, 0.08632230f, 0.12640215f, 0.06815936f, 0.00026335f, 
0.01241384f, -0.09118393f, -0.00303611f, 0.06997176f, 0.08615898f, 0.10632668f, -0.08033932f, -0.00875191f, -0.10836380f, -0.05109638f, 
-0.14295533f, -0.00575774f, 0.02914993f, 0.12624019f, 0.04937131f, -0.10763942f, -0.02288656f, -0.00471405f, -0.13899423f, -0.10387821f, 
-0.00414765f, -0.09381478f, -0.10665039f, -0.09478364f, -0.03202269f, -0.02046393f, -0.18205594f, 0.19904646f, 0.00443791f, 0.10783770f, 
-0.05083216f, 0.10744119f, 0.00409384f, 0.14117309f, -0.09026893f, 0.03515090f, 0.11269084f, 0.18147281f, 0.04007378f, 0.17330916f, 
-0.01656542f, -0.02305997f, 0.23158084f, -0.12064523f, 0.05855336f, 0.01166852f, -0.08295253f, -0.07193071f, -0.16198933f, -0.09633090f, 
-0.14278641f, 0.08414609f, -0.04882639f, 0.01828532f, 0.04229097f, 0.23697302f, 0.11108249f, 0.10127090f, 0.04676409f, -0.13466425f, 
0.01163844f, -0.11714444f, -0.07215690f, 0.17152534f, -0.12037403f, 0.00172896f, 0.02645832f, -0.02277162f, 0.08327412f, 0.03435982f, 
0.00260002f, 0.17920312f, 0.04685868f, -0.12777609f, 0.01584717f, 0.17333132f, 0.16552895f, -0.00866437f, -0.16728842f, -0.09793907f, 
0.02621577f, -0.04022628f, 0.09381066f, -0.13070349f, -0.09173623f, -0.14546773f, -0.06489245f, -0.10846382f, 0.03482316f, -0.11466477f, 
0.08954316f, 0.10275681f, 0.04166347f, 0.12344450f, -0.11118025f, -0.13954365f, 0.11686235f, 0.07656325f, 0.14282602f, 0.09863134f, 
-0.17058140f, 0.07867299f, 0.11620368f, 0.09122229f, 0.08511720f, -0.04798723f, 0.04413158f, -0.09848110f, 0.00335112f, -0.00340313f, 
0.01661771f, 0.06496455f, 0.09948371f, 0.02265410f, -0.05886692f, 0.06201470f, 0.19733946f, -0.19035277f, 0.08724648f, -0.06324141f, 
-0.14093095f, -0.01553365f, -0.14694434f, 0.04925255f, 0.05977193f, -0.00372865f, 0.09192909f, 0.00167623f, 0.03686116f, 0.18357363f, 
-0.05770301f, -0.16875076f, -0.05358932f, -0.11476633f, -0.03168058f, -0.05316092f, -0.12288611f, 0.13518097f, -0.01715176f, -0.12867151f, 
0.00704238f, -0.02473519f, 0.03789741f, 0.06115929f, -0.21200785f, -0.21146780f, 0.09309081f, -0.05521081f, -0.01629432f, -0.05159688f, 
-0.01996940f, 0.03518913f, 0.10901567f, -0.12846260f, 0.01314139f, -0.03466539f, -0.11378818f, 0.10728706f, 0.11003097f, 0.03515444f, 
-0.05880852f, 0.06563246f, 0.12942109f, 0.01440908f, 0.00928744f, -0.00989056f, -0.02772675f, -0.04117959f, 0.04679227f, 0.04617915f, 
-0.02424473f, 0.03334158f, 0.07656041f, -0.03706004f, -0.10131085f, -0.11868843f, 0.05752314f, 0.01470856f, 0.10182563f, 0.11099412f, 
0.09080581f, 0.03729291f, 0.09546170f, -0.05389292f, -0.09126955f, -0.03234298f, -0.04477663f, 0.09783422f, 0.00163936f, -0.00062850f, 
0.03197023f, 0.02384669f, -0.10814655f, -0.11429246f, 0.07534572f, 0.02173451f, -0.03776427f, 0.01996171f, -0.04076486f, 0.11175837f, 
0.05874276f, 0.08630856f, 0.02828084f, 0.09769779f, 0.05397349f, 0.04994050f, -0.00894904f, 0.07946824f, -0.11889894f, 0.04600884f, 
-0.06117088f, 0.06161780f, -0.05645137f, 0.01887378f, -0.07825410f, -0.09453229f, -0.10125486f, 0.12563272f, -0.07426497f, -0.00437627f, 
-0.10912107f, -0.02726512f, 0.00150847f, -0.02281289f, 0.01400135f, -0.05418796f, 0.07754578f, 0.04749236f, -0.08640411f, -0.06432586f, 
0.01261354f, 0.01977488f, 0.06066772f, 0.06828512f, 0.06894345f, -0.04458689f, 0.11126331f, 0.03076595f, -0.00065210f, 0.05988306f, 
-0.05980364f, 0.11923292f, 0.08689368f, 0.07382906f, -0.01983121f, -0.03737333f, -0.06252033f, -0.11647976f, -0.11230032f, -0.06778160f, 
0.08011011f, 0.00264103f, 0.09215076f, 0.11184774f, 0.02472425f, -0.07399865f, 0.08802119f, 0.04046841f, -0.02487321f, 0.08002014f, 
0.09834595f, 0.02305076f, 0.08635300f, -0.05869998f, 0.07164129f, -0.03674535f, -0.08614334f, 0.09241980f, 0.11122414f, -0.10681246f, 
-0.12534946f, -0.06497537f, -0.03712268f, 0.13992839f, -0.03036043f, -0.04795730f, 0.04529015f, 0.13153002f, 0.04740607f, -0.08513132f, 
0.04159767f, -0.03806299f, -0.11257939f, -0.08872993f, -0.09537824f, 0.08476453f, -0.02420892f, 0.05759378f, 0.07416549f, 0.07269508f, 
0.05213767f, -0.02787970f, -0.05006607f, 0.10170434f, 0.06809375f, -0.09525096f, 0.02367248f, 0.13181902f, 0.09961530f, 0.03650819f, 
-0.04840535f, -0.12035009f, -0.06973293f, 0.06299431f, -0.03204583f, -0.05285742f, 0.10404271f, -0.05271238f, -0.10286780f, 0.10390032f, 
0.04334651f, 0.02158151f, -0.11660518f, -0.04709734f, -0.01868278f, -0.13695993f, -0.06409930f, 0.10062960f, 0.06620085f, -0.05689071f, 
0.03069128f, 0.10141946f, -0.07128682f, -0.07198399f, 0.04492562f, -0.00558614f, 0.06884935f, -0.08839975f, 0.06732321f, 0.00722244f, 
0.03300899f, -0.07187011f, -0.00224790f, -0.09609148f, -0.03963936f, 0.03609309f, -0.13362464f, 0.05524943f, 0.12146796f, 0.08129421f, 
-0.07094296f, -0.05246545f, 0.10654568f, -0.05828358f, 0.07225205f, -0.11702955f, -0.07264202f, -0.02457015f, -0.05907799f, -0.11506776f, 
-0.01989280f, -0.07425983f, -0.05728072f, 0.09929205f, -0.02065946f, -0.04285131f, 0.11927572f, 0.01558679f, -0.14299132f, -0.02357703f, 
0.05878871f, 0.01906897f, -0.09403397f, 0.11274824f, 0.02829462f, -0.03803992f, 0.09840538f, 0.05797662f, 0.07571802f, 0.04054496f, 
0.12463688f, 0.03908091f, -0.05766143f, -0.05368800f, -0.07597951f, 0.08226191f, 0.15048087f, 0.09454183f, 0.02730362f, -0.14043635f, 
-0.12208134f, 0.09643517f, 0.03462399f, 0.01448083f, -0.06692863f, -0.05941881f, 0.09046281f, 0.07787599f, -0.04741272f, 0.01173929f, 
0.06515810f, 0.11680653f, 0.04820998f, 0.03567656f, 0.02344853f, 0.04305963f, -0.11582335f, -0.02945758f, 0.09502896f, 0.05911481f, 
-0.10715393f, 0.10821553f, 0.06404202f, 0.07354333f, -0.09127993f, -0.03385386f, -0.00477516f, 0.00255995f, -0.05809570f, 0.05846529f, 
0.01027768f, 0.04491681f, 0.02327580f, 0.09635700f, 0.10613074f, -0.10170153f, -0.00581703f, -0.11514052f, 0.10271461f, -0.11930388f, 
-0.06561945f, -0.11033362f, 0.11734699f, 0.05397831f, -0.11036660f, 0.00292362f, -0.04797589f, -0.08037360f, 0.00467263f, -0.00642618f, 
-0.05666874f, -0.04437104f, -0.04016865f, -0.07061861f, -0.04205940f, -0.02797130f, -0.03973185f, -0.02379807f, -0.01295281f, -0.12278441f, 
0.09690836f, -0.07601847f, 0.00943496f, -0.06707261f, 0.03434819f, 0.05121069f, 0.02126669f, -0.01461873f, -0.12001994f, 0.06807698f, 
-0.03967692f, 0.02895644f, 0.00659948f, -0.02538306f, 0.08459281f, 0.09355335f, -0.01949389f, 0.05643398f, -0.09028860f, -0.10788382f, 
-0.00347143f, -0.08150522f, 0.09525295f, 0.04933916f, -0.08750099f, 0.08066414f, 0.06067504f, -0.01002318f, 0.02361594f, 0.13096797f, 
-0.12153868f, 0.08041997f, -0.03013229f, 0.03607957f, -0.08246511f, -0.03880315f, -0.13762327f, -0.11091552f, -0.00042287f, 0.09694242f, 
0.08649410f, 0.05656936f, 0.00007035f, 0.07381281f, -0.00211617f, 0.07074435f, -0.04753771f, 0.07929409f, 0.09198814f, -0.06122907f, 
0.11154788f, 0.00479225f, 0.09318472f, 0.00278175f, -0.13201742f, 0.13151066f, 0.12511094f, 0.02036733f, -0.02115224f, 0.10033554f, 
-0.04492199f, -0.00102921f, -0.08782060f, -0.02128033f, 0.10969698f, 0.06627350f, 0.10564818f, 0.05358199f, -0.08913052f, 0.04386094f, 
-0.01198961f, 0.11605976f, -0.13470338f, 0.01532971f, 0.08646385f, 0.03093487f, 0.04654147f, -0.00201953f, -0.03929920f, -0.06307102f, 
0.05600497f, -0.07519741f, 0.03179955f, -0.00300637f, -0.12222016f, 0.04189059f, -0.02487412f, -0.11045998f, -0.03817666f, -0.07620189f, 
-0.05269827f, -0.00688080f, -0.08367599f, 0.04938622f, 0.02873527f, 0.03176298f, 0.00121218f, 0.07927335f, -0.03276666f, 0.09384729f, 
-0.05613013f, 0.05882065f, 0.02138699f, -0.05456455f, 0.11295161f, -0.01552625f, 0.13265371f, -0.05593495f, -0.09567193f, -0.10556808f, 
-0.08147944f, 0.00057191f, 0.09623565f, -0.01145750f, -0.11855542f, -0.12322351f, 0.00963637f, 0.07365906f, -0.00152146f, -0.04023314f, 
0.02024172f, -0.10449316f, 0.11456621f, -0.01104675f, 0.09242678f, -0.04166507f, 0.05526169f, -0.00601981f, 0.04691551f, -0.02905231f, 
0.01303215f, 0.04768988f, -0.11299937f, -0.01353025f, 0.04423612f, 0.06698861f, 0.09004940f, 0.02319228f, 0.04223301f, -0.07968746f, 
-0.11533107f, -0.12261529f, -0.01280185f, 0.09649430f, -0.06366798f, 0.04020884f, -0.04223234f, 0.04898378f, -0.08158063f, 0.09957486f, 
0.03698630f, -0.09629113f, 0.02833362f, 0.01527276f, -0.00227999f, -0.10950612f, -0.05624871f, 0.00104421f, 0.05602531f, -0.12384459f, 
0.10148590f, -0.09295739f, 0.10853197f, -0.07873464f, 0.00922335f, 0.03036903f, 0.06742762f, -0.06948045f, -0.05665550f, 0.04787940f, 
-0.09288437f, -0.05688626f, 0.11157352f, -0.11369576f, 0.08642583f, 0.03429104f, 0.09465057f, -0.00881566f, 0.01412801f, -0.11830936f, 
0.03242701f, 0.14142215f, 0.00575155f, 0.03682117f, -0.02261335f, 0.03800813f, -0.08649147f, -0.08191224f, 0.05952526f, 0.09361067f, 
0.04009588f, 0.11089319f, 0.08514601f, -0.02312575f, -0.11859836f, -0.05925572f, -0.10604256f, 0.10514379f, -0.02581456f, -0.09738103f, 
-0.00258338f, -0.08539710f, -0.06538454f, 0.00761482f, -0.02755786f, -0.00368134f, 0.05140469f, -0.05131105f, -0.04831598f, 0.04143786f, 
0.06049706f, -0.03754335f, 0.05285514f, 0.02880731f, -0.03627981f, -0.08990215f, 0.08779318f, -0.06980360f, 0.03573468f, 0.03481381f, 
-0.03416236f, 0.05277784f, -0.06381881f, -0.06555722f, 0.03193520f, -0.04996838f, -0.03402411f, 0.10708734f, 0.08581790f, -0.01552845f, 
0.03959078f, 0.00119800f, -0.05169394f, -0.03522032f, -0.04560077f, 0.10467540f, 0.01144955f, -0.10893085f, -0.08939324f, -0.05102010f, 
0.00136061f, 0.04334572f, -0.13726240f, 0.11373228f, 0.09659272f, -0.10646342f, -0.13106358f, -0.00061662f, -0.06604372f, -0.06123599f, 
0.04382696f, 0.03251549f, 0.00038700f, -0.03208655f, -0.13575663f, -0.12379866f, 0.03410108f, -0.11764146f, 0.03876230f, -0.07909011f, 
-0.15243654f, 0.01061881f, 0.10995189f, 0.08379573f, 0.01708058f, 0.08584265f, -0.05679355f, -0.07514534f, -0.04907218f, 0.00531230f, 
0.02791285f, 0.07837971f, -0.01806204f, -0.09351862f, -0.14208074f, 0.08448343f, -0.03840598f, -0.10866399f, 0.00890783f, 0.03940958f, 
0.05698453f, -0.08600662f, -0.03944504f, -0.09282110f, 0.07521585f, 0.01275424f, -0.07354810f, 0.01825170f, 0.07927169f, 0.02465064f, 
-0.04910829f, -0.09929448f, 0.03397155f, 0.07650204f, -0.06436214f, 0.09696294f, 0.04235756f, 0.05619901f, 0.06887300f, -0.06814284f, 
0.05440390f, -0.00970571f, 0.02784268f, -0.06307293f, 0.05199802f, -0.02319470f, -0.09471959f, 0.00923379f, 0.08866479f, -0.05683159f, 
0.03822317f, 0.03213207f, -0.03366853f, 0.06676141f, 0.08362846f, 0.08821621f, 0.10225619f, 0.03304074f, -0.08172517f, 0.09297746f, 
-0.02979404f, 0.06138052f, -0.12260169f, 0.03967224f, -0.10748262f, -0.07998653f, -0.07531202f, 0.05258448f, 0.09554534f, -0.03527993f, 
-0.03882812f, 0.09793092f, -0.03328791f, 0.01892434f, 0.06725182f, -0.08030225f, -0.07124085f, -0.03714092f, -0.01909907f, -0.00312861f, 
0.12292007f, -0.05774784f, 0.01464704f, 0.07427062f, 0.07308188f, 0.07079566f, -0.10378326f, 0.06097206f, 0.08701012f, -0.00731902f, 
-0.11901938f, 0.08130402f, 0.12494062f, -0.06198195f, -0.01861836f, 0.10429718f, -0.04928394f, -0.08932471f, 0.03385594f, -0.00651449f, 
0.07896443f, -0.04533480f, -0.07701409f, 0.07492031f, 0.02784908f, -0.09828994f, 0.09889720f, -0.07454483f, -0.02275425f, 0.07827547f, 
-0.02571458f, -0.08958624f, -0.16110615f, -0.04194690f, -0.08563209f, -0.00334298f, 0.09546872f, -0.00878500f, -0.05273508f, 0.01832023f, 
0.02066862f, -0.04015229f, -0.00075859f, -0.06108732f, 0.04206306f, -0.12943451f, 0.01270607f, -0.08843771f, -0.07052240f, -0.11255600f, 
-0.00960902f, 0.00031110f, 0.01703397f, 0.03311559f, -0.03781316f, 0.00687557f, -0.05583386f, -0.09973212f, 0.00885088f, -0.09281300f, 
0.04991572f, 0.06228352f, 0.06881658f, 0.09015372f, 0.06617209f, 0.04115732f, 0.00345906f, 0.00635017f, -0.05111411f, -0.00754184f, 
-0.07411359f, 0.05028685f, 0.07124969f, -0.10390144f, -0.07253369f, -0.07944553f, 0.03383790f, -0.08729237f, -0.07953534f, 0.10516538f, 
-0.03518593f, -0.02387126f, -0.01503962f, 0.00935904f, 0.01545390f, 0.08112215f, -0.01059685f, 0.00649778f, 0.09289876f, -0.07439638f, 
-0.03453015f, 0.05898227f, -0.06736400f, -0.06705680f, -0.11307835f, -0.11216526f, 0.04457733f, 0.03675351f, 0.10308447f, 0.03664160f, 
0.07333617f, 0.03018325f, -0.01884027f, -0.14925820f, -0.03205547f, 0.04816198f, -0.03044257f, 0.07428728f, 0.13636135f, 0.05505802f, 
-0.12935182f, -0.11750592f, -0.00544069f, 0.01407290f, 0.07656059f, -0.03754418f, 0.04418615f, -0.06551303f, 0.06424408f, 0.05663653f, 
-0.07072566f, -0.14590438f, 0.06895080f, 0.04504666f, 0.02432890f, 0.09572773f, 0.00395057f, 0.09675656f, -0.08147945f, 0.01652658f, 
0.06211741f, -0.00912084f, 0.06730858f, 0.00694443f, -0.06935339f, -0.09458512f, 0.09152534f, 0.06273267f, -0.07173220f, -0.00572508f, 
-0.05851118f, 0.06980643f, 0.00156910f, -0.06427129f, -0.05475795f, -0.08475684f, 0.03640341f, 0.13969070f, 0.07786391f, 0.00924217f, 
0.10697816f, 0.06005482f, -0.05209449f, 0.03395266f, 0.08778179f, 0.13944536f, -0.01282421f, 0.09385017f, -0.01794400f, -0.01347399f, 
0.07183596f, 0.00825470f, -0.08004121f, -0.05134215f, -0.00017446f, 0.11993743f, 0.01058690f, -0.09573728f, -0.02124110f, -0.07615629f, 
0.05940288f, -0.13108590f, -0.11752932f, -0.08608038f, 0.02739239f, -0.08149745f, 0.00282494f, -0.06938916f, -0.04088770f, -0.10691759f, 
-0.07302111f, 0.01983005f, -0.07305635f, -0.04872474f, -0.02887225f, -0.08092838f, -0.12548640f, -0.09483006f, 0.04197753f, -0.03333253f, 
0.11321080f, -0.08134472f, 0.03027699f, 0.10746668f, 0.05890196f, 0.10645214f, 0.09267668f, 0.08385987f, -0.12238324f, 0.01904132f, 
-0.05870709f, 0.04461865f, 0.04972772f, 0.08698048f, 0.00456740f, 0.09513748f, -0.04152149f, -0.13426398f, -0.08649614f, 0.00787600f, 
-0.03295970f, -0.06463938f, 0.05437987f, 0.00431163f, -0.02929299f, 0.04992527f, -0.03684900f, 0.01879447f, -0.10329302f, 0.09915084f, 
0.07095934f, -0.02732043f, -0.00660421f, 0.11223821f, 0.11888908f, -0.05773048f, -0.09213925f, 0.02419396f, -0.04568705f, 0.07205237f, 
-0.07645320f, 0.02572658f, 0.02230680f, 0.03329722f, -0.01159261f, 0.08286684f, 0.07223237f, 0.11316138f, -0.07465028f, 0.07331681f, 
-0.03264000f, 0.03259604f, 0.06656023f, 0.10517788f, -0.10581671f, 0.02605388f, -0.00114928f, 0.00911865f, -0.08227911f, -0.07840656f, 
0.08574782f, 0.02908209f, -0.15083428f, -0.03798185f, -0.04608236f, 0.07548381f, -0.12343952f, 0.12724696f, -0.00247211f, 0.04694705f, 
-0.11301898f, 0.02609974f, -0.04278780f, 0.03091888f, 0.05369571f, 0.03485038f, -0.05965727f, 0.06849705f, 0.08256707f, 0.09630743f, 
0.02227692f, 0.06631688f, -0.02208486f, -0.08386170f, 0.03739914f, 0.00292764f, -0.10034458f, 0.01621755f, -0.01645648f, -0.07711741f, 
-0.13789135f, -0.03664573f, 0.00533316f, 0.01229935f, 0.11819077f, 0.07139698f, -0.03731367f, 0.00704334f, -0.08103908f, 0.05567408f, 
0.14294627f, -0.00665693f, -0.02520002f, 0.05447598f, -0.07613739f, 0.03136781f, 0.00806693f, 0.04879893f, 0.04312275f, -0.01137021f, 
-0.05275823f, 0.03194191f, -0.04109412f, -0.00780380f, 0.16672477f, -0.10989413f, 0.04929469f, -0.07802483f, 0.06625962f, 0.00883985f, 
0.10350896f, -0.04957359f, -0.11945736f, 0.05210123f, -0.02615970f, 0.06312499f, 0.09340408f, 0.00967866f, -0.07198194f, 0.05095184f, 
-0.10521431f, -0.00451877f, 0.01349996f, 0.07143824f, 0.08840834f, 0.04254386f, 0.00983031f, -0.12080763f, 0.10316122f, -0.12360474f, 
-0.11573607f, -0.05141017f, -0.08430236f, -0.11837111f, 0.10712378f, 0.02923374f, -0.01925357f, -0.12325637f, -0.07651018f, 0.10493452f, 
-0.00490871f, -0.06500962f, -0.02111734f, 0.02134894f, -0.01237807f, 0.00464321f, 0.09013337f, 0.13399479f, 0.09382031f, -0.02927467f, 
0.07006048f, -0.06981162f, -0.05096179f, 0.04135568f, 0.05357247f, -0.05972385f, 0.15297903f, 0.11895744f, 0.15035108f, -0.00779941f, 
0.16733333f, -0.02690936f, -0.09331110f, 0.05231845f, -0.10577852f, 0.03846776f, -0.11447910f, 0.07312731f, 0.01103640f, 0.12629674f, 
-0.07577193f, -0.03756865f, -0.02431277f, 0.01946914f, 0.09227822f, -0.09742349f, -0.09259050f, 0.00714618f, -0.03550651f, 0.07125971f, 
0.03324243f, -0.07661492f, -0.05253212f, -0.05226660f, -0.02448440f, 0.03437052f, -0.05646805f, 0.09696034f, -0.04781319f, -0.05905533f, 
-0.05842716f, -0.00741010f, -0.01111358f, -0.07931551f, -0.05387326f, -0.10805071f, -0.10132721f, -0.02737935f, -0.00953315f, -0.03219928f, 
-0.02895396f, -0.00810268f, 0.07400604f, -0.01400914f, 0.00244932f, 0.08993667f, 0.11736802f, -0.08705040f, 0.02943625f, 0.13132338f, 
-0.11695633f, -0.08531484f, 0.05382859f, -0.09347769f, 0.04093432f, -0.00577737f, -0.03306198f, -0.06699544f, -0.07861289f, 0.09361795f, 
0.10842893f, 0.03735362f, -0.11911688f, 0.06346896f, 0.03997916f, -0.03882304f, -0.10815077f, -0.05426039f, -0.10686205f, 0.08333576f, 
0.02515827f, -0.03860435f, -0.09756070f, -0.02736622f, -0.02618225f, -0.08518007f, -0.02555291f, -0.08734991f, 0.03334980f, -0.09778352f, 
0.04277969f, 0.02689653f, -0.04798610f, 0.06231581f, -0.05795502f, 0.12937157f, 0.02486240f, -0.00336153f, -0.12615918f, 0.07261583f, 
-0.06634693f, 0.09961264f, 0.12453176f, 0.14022484f, -0.12713075f, -0.06795415f, -0.10490244f, 0.05452504f, -0.09166194f, 0.13049892f, 
-0.01396347f, -0.09176439f, -0.03761915f, -0.07813699f, -0.00383856f, 0.08659854f, 0.15810427f, 0.04965131f, 0.08785661f, 0.04887144f, 
0.01735669f, 0.08559682f, 0.08537617f, -0.06443972f, -0.03198455f, -0.06431126f, 0.05135373f, 0.09944031f, -0.01945871f, 0.07625949f, 
0.10089333f, -0.02231401f, 0.00353638f, -0.10835348f, 0.01074096f, -0.10314892f, -0.03623909f, 0.00093379f, -0.03649402f, 0.04193071f, 
0.00690125f, -0.03666218f, 0.04523389f, 0.15625550f, -0.08879642f, -0.07367160f, -0.00976815f, -0.00002490f, -0.04770505f, -0.00701302f, 
-0.10614329f, 0.03669451f, 0.01796643f, 0.01217378f, -0.04835410f, 0.01121084f, 0.00988327f, 0.01561703f, -0.17659703f, -0.00508824f, 
0.01337019f, 0.01250526f, 0.00821803f, 0.08914252f, -0.02655181f, 0.10168859f, -0.01532361f, -0.08108296f, 0.12291851f, 0.04142088f, 
0.12258208f, -0.08983887f, -0.00054237f, -0.01283351f, -0.09956078f, 0.01083161f, -0.07602748f, 0.01476691f, -0.04497914f, -0.03714820f, 
0.08768212f, 0.07092886f, 0.06542281f, -0.02787210f, 0.07479975f, 0.02066771f, 0.03829374f, -0.00191854f, 0.00754067f, -0.04934072f, 
0.05932267f, -0.03623042f, 0.00485278f, 0.10786948f, -0.09837954f, -0.11021389f, 0.04223834f, -0.04481092f, 0.03515751f, 0.06220560f, 
0.04755583f, -0.03382219f, -0.02281426f, 0.08264189f, 0.04751504f, -0.08662359f, -0.10171519f, -0.11045241f, 0.13518630f, -0.08866796f, 
-0.01305525f, -0.11635582f, -0.07883517f, -0.10096142f, 0.04483914f, -0.04255145f, 0.08373399f, -0.02304288f, -0.02255966f, 0.01510874f, 
-0.03268360f, 0.00555900f, -0.08545270f, -0.11113004f, 0.05706890f, -0.11490188f, -0.05739763f, 0.08721372f, 0.10910150f, 0.07400906f, 
0.11698658f, -0.02135490f, -0.05561031f, -0.00058871f, -0.09933768f, -0.08987863f, 0.02619960f, -0.01616669f, -0.05096103f, -0.02201509f, 
-0.08919366f, 0.00261692f, 0.01096046f, -0.02129605f, 0.00113059f, 0.10080689f, 0.00379795f, -0.10803340f, -0.13806166f, 0.03196271f, 
0.08746219f, 0.04378510f, -0.01070385f, 0.10395095f, 0.02690102f, 0.02806569f, -0.02771145f, -0.07235529f, 0.03106354f, 0.03471559f, 
0.07139075f, 0.04746297f, -0.01260192f, -0.04112431f, 0.02034365f, -0.01618948f, 0.03836853f, -0.09886376f, -0.12719560f, -0.07422051f, 
-0.05561170f, 0.10757849f, 0.00332528f, -0.03618864f, -0.15597402f, 0.00087900f, -0.08475973f, -0.05967538f, 0.04112509f, -0.01195904f, 
0.03366025f, -0.04367344f, -0.04394711f, 0.04269942f, 0.01184668f, 0.01021906f, -0.06202834f, 0.03829495f, -0.10364126f, -0.00418678f, 
0.03704986f, 0.08587355f, 0.06650827f, -0.02488150f, -0.03669250f, -0.03515881f, -0.10651053f, 0.06480680f, 0.01771297f, 0.04050479f, 
-0.01653150f, -0.09486167f, -0.12224624f, 0.02833822f, 0.03365368f, -0.01995749f, -0.01029965f, -0.08751310f, -0.01893667f, -0.02589216f, 
-0.06317011f, 0.03210943f, 0.00983823f, -0.00990229f, -0.13930933f, 0.04461486f, -0.03607442f, -0.09164664f, 0.03482146f, 0.12576795f, 
0.01232313f, -0.05525335f, -0.06576312f, 0.02483826f, 0.01903768f, -0.04812384f, -0.07847624f, -0.04916910f, -0.07912657f, -0.03093014f, 
-0.07142882f, 0.00287651f, 0.03991967f, 0.02041195f, 0.10077327f, 0.10197051f, -0.00720248f, -0.03985749f, -0.12146134f, 0.01045179f, 
-0.10993551f, 0.00616393f, 0.07299443f, 0.12826402f, -0.04171816f, -0.03521630f, 0.06876666f, 0.03341677f, -0.09855573f, -0.00116912f, 
-0.07672936f, -0.01537442f, 0.04141236f, -0.03274776f, 0.02316323f, -0.06310805f, -0.09003220f, -0.00512304f, 0.08716601f, 0.14449137f, 
0.05517386f, 0.01522964f, -0.01139313f, 0.05630756f, -0.10671684f, 0.05859758f, 0.11020029f, -0.06245877f, 0.06214975f, 0.09221007f, 
-0.00969409f, -0.03656479f, 0.09097754f, -0.12798032f, 0.06870195f, -0.02435431f, 0.01934430f, 0.09526357f, -0.09410334f, 0.05153140f, 
-0.02076181f, 0.06876611f, 0.01844922f, -0.13130377f, -0.13953651f, -0.14263752f, 0.00984103f, 0.05987609f, -0.02128813f, 0.03720304f, 
0.05126279f, -0.01098697f, -0.13112199f, 0.06791916f, -0.04448801f, -0.09182020f, 0.07722434f, -0.02196047f, -0.05138390f, 0.07334898f, 
0.11418274f, -0.04573757f, -0.11977255f, -0.03624016f, -0.13868350f, 0.01730523f, -0.06534114f, 0.07247482f, -0.06435008f, -0.10092772f, 
-0.12976386f, 0.03148876f, 0.02395114f, -0.02372716f, 0.01609445f, 0.00660127f, -0.10572597f, 0.02144137f, -0.06585455f, -0.03723326f, 
-0.13398720f, 0.05196091f, 0.04763705f, 0.06044578f, -0.08289599f, -0.02750088f, 0.05547058f, -0.10732967f, 0.09342116f, -0.02541996f, 
0.11358493f, -0.02521105f, -0.10792158f, 0.00742095f, 0.06977425f, -0.12157258f, 0.06521955f, -0.10807796f, -0.11748843f, 0.02322023f, 
0.09588289f, 0.07234326f, 0.05657727f, -0.00538712f, -0.12321180f, 0.13724186f, 0.03816403f, 0.02881845f, 0.02663188f, 0.12769520f, 
-0.15110560f, 0.12123344f, -0.04005727f, 0.05061773f, -0.07566129f, -0.02588146f, 0.09658162f, -0.11426866f, -0.00617222f, -0.06053156f, 
-0.10341750f, -0.07380652f, 0.06406941f, 0.08336394f, 0.03201221f, -0.13976204f, -0.06928683f, 0.00554058f, 0.05111198f, -0.11208800f, 
-0.01234747f, 0.03696039f, 0.01750881f, -0.04836914f, -0.12808548f, 0.02146533f, -0.01383053f, 0.11440338f, 0.05737088f, -0.05149765f, 
0.10875989f, 0.08439571f, -0.07281316f, -0.07123186f, -0.01061219f, -0.10014962f, 0.05624537f, 0.05811673f, -0.02287726f, 0.00212111f, 
-0.03381054f, -0.00124986f, -0.06156074f, -0.09937570f, -0.08170249f, -0.06676719f, -0.03250188f, 0.01712058f, 0.06579751f, 0.00092049f, 
0.05124554f, -0.05247941f, 0.01527817f, 0.00980442f, -0.03098738f, 0.01773594f, 0.12172480f, 0.08859930f, 0.03609401f, -0.03382117f, 
-0.01391383f, 0.00284598f, -0.00450718f, 0.01533480f, 0.09363626f, -0.09664222f, 0.06914832f, 0.05702204f, -0.06610570f, 0.06584121f, 
0.11729706f, -0.06622329f, 0.07052697f, -0.04243579f, 0.05334222f, 0.03820429f, -0.10302180f, -0.11608641f, 0.09304715f, -0.02916015f, 
-0.03803943f, -0.03432560f, 0.10848168f, -0.11290402f, 0.04010634f, -0.04489429f, 0.01213941f, 0.04345234f, -0.10417799f, 0.09630143f, 
0.11922073f, -0.05066624f, 0.06381842f, 0.00193893f, -0.03201934f, -0.07216278f, -0.11558335f, -0.01441542f, -0.12217135f, -0.01654930f, 
-0.04212239f, 0.14943771f, -0.00240570f, -0.17106572f, -0.05791126f, 0.07927923f, -0.08717737f, -0.12761314f, 0.06173588f, 0.10914502f, 
0.18130228f, -0.12555632f, -0.02275044f, 0.03011554f, -0.00030091f, -0.02936869f, 0.09239426f, 0.13853508f, 0.02778142f, -0.13132469f, 
-0.09327719f, 0.08377597f, -0.00466848f, -0.05670237f, -0.07386310f, 0.08912718f, -0.11230543f, 0.00929241f, -0.01799088f, 0.12178302f, 
-0.00626931f, 0.03574209f, 0.09411051f, 0.06425028f, -0.00445114f, 0.11103809f, -0.11443195f, -0.11791658f, -0.05905084f, -0.04027388f, 
-0.10564999f, 0.03993310f, -0.09776974f, 0.02947601f, -0.13031043f, 0.00808112f, -0.02390507f, 0.06696381f, 0.07927352f, -0.01600337f, 
0.11955273f, -0.09794196f, -0.06755388f, -0.09253809f, 0.00559133f, 0.12366922f, 0.07396305f, -0.00045805f, 0.11125391f, -0.02678978f, 
0.10536419f, -0.07182865f, -0.10816299f, -0.00121498f, -0.04179098f, 0.11719101f, 0.09057511f, -0.08626475f, -0.05355147f, 0.03211618f, 
0.01819956f, 0.17756291f, 0.06389837f, -0.01785340f, -0.10425749f, 0.08700649f, 0.11707501f, 0.04717868f, -0.11539404f, 0.03169698f, 
0.01705219f, 0.16840892f, -0.01142563f, -0.00025309f, -0.03512717f, -0.02664167f, 0.05812149f, -0.04765464f, -0.18776657f, 0.01381597f, 
0.02212968f, -0.08110061f, -0.02774126f, 0.00466461f, -0.05355747f, 0.02064963f, 0.06834476f, 0.07675554f, -0.04520057f, -0.01911533f, 
-0.06516392f, -0.00579156f, -0.09349459f, 0.06262504f, 0.00439629f, -0.00639513f, -0.08807614f, 0.06701043f, -0.05761209f, -0.00308410f, 
-0.10247932f, -0.11018541f, -0.06067809f, -0.14773926f, 0.12785335f, 0.05175463f, 0.14170648f, -0.15492249f, -0.03412508f, -0.12507321f, 
0.12119950f, 0.06905100f, -0.02987383f, 0.03027565f, 0.05047812f, -0.00131502f, -0.10407277f, 0.05221619f, 0.06012907f, -0.09560958f, 
0.06856076f, -0.02142813f, 0.09132899f, 0.06461444f, -0.11479130f, 0.14158118f, -0.11817756f, -0.11554757f, -0.11723923f, -0.01148878f, 
-0.16624214f, -0.11449260f, 0.07262038f, 0.00451148f, -0.05750309f, -0.06093537f, -0.15541874f, -0.07611913f, 0.16646563f, -0.05904844f, 
-0.14011127f, -0.07710397f, -0.13202173f, 0.07103594f, -0.09018543f, -0.02898963f, 0.07364900f, -0.10130670f, 0.02283392f, 0.03563744f, 
-0.09227000f, 0.03394738f, -0.08765914f, 0.02511618f, 0.14788495f, -0.05920337f, 0.07615050f, 0.11497046f, 0.17227656f, -0.02138427f, 
-0.00872303f, -0.15011941f, 0.20878181f, 0.04017791f, -0.12618534f, 0.10063394f, -0.00111176f, -0.14519419f, 0.11464535f, 0.17519814f, 
0.07776476f, -0.08568799f, -0.04595862f, 0.17323080f, 0.11340087f, -0.04121988f, -0.00843483f, 0.09738598f, -0.09075888f, -0.11388402f, 
-0.11082944f, 0.02631469f, -0.12798096f, 0.01788215f, 0.05343734f, -0.00306176f, -0.05289041f, 0.06109772f, -0.14256780f, 0.05491287f, 
-0.03786456f, 0.02872455f, -0.05313172f, -0.06185798f, -0.09815951f, 0.06309548f, -0.10408767f, 0.07139098f, -0.01992418f, 0.13388076f, 
0.00606531f, 0.07697317f, 0.06494833f, 0.00138037f, -0.03143987f, 0.02908894f, -0.07692885f, 0.01034102f, -0.07038248f, -0.10010657f, 
0.00514509f, 0.03301035f, 0.07831965f, 0.13849176f, 0.13235377f, 0.12732181f, 0.08679493f, 0.11914994f, -0.04260585f, -0.01434719f, 
-0.02963259f, 0.12412120f, -0.08323850f, 0.05580079f, -0.00143146f, -0.08800551f, 0.04913409f, -0.05617834f, -0.12449329f, -0.09400018f, 
-0.06191422f, -0.05490558f, -0.09042639f, 0.01079802f, -0.01168169f, 0.02482442f, 0.08580357f, -0.08198153f, 0.08983689f, -0.07775801f, 
0.00798064f, 0.04714662f, 0.13902687f, 0.01239009f, 0.12502511f, 0.07888965f, -0.05741296f, 0.10617131f, 0.10187870f, -0.08653495f, 
-0.16229275f, -0.17170846f, -0.13912147f, 0.00103174f, 0.13880238f, 0.08333644f, 0.03597649f, -0.04884382f, 0.04284237f, -0.08584595f, 
-0.11975352f, -0.10395422f, -0.22837470f, -0.11600851f, -0.20108141f, 0.09821993f, 0.13118130f, 0.06453275f, 0.15956368f, -0.01225941f, 
-0.06073799f, -0.02814987f, 0.16519208f, 0.15088701f, -0.12890925f, -0.02289009f, -0.15818065f, -0.10569310f, -0.06047049f, -0.05932112f, 
-0.14773400f, 0.16959156f, 0.07022845f, -0.09434811f, -0.03094043f, 0.09010867f, -0.11621997f, -0.09983996f, 0.06189557f, -0.02929833f, 
-0.02486284f, -0.00629246f, -0.17845084f, 0.11168827f, 0.08580172f, -0.06649764f, 0.00665213f, -0.04764335f, 0.03763744f, -0.16306597f, 
-0.16434652f, 0.11562319f, -0.15773422f, -0.06753467f, 0.07164104f, -0.08475441f, 0.04434820f, -0.03014693f, 0.05522424f, -0.03485864f, 
-0.07510643f, -0.12805936f, 0.13576847f, -0.03688604f, -0.02340107f, 0.10570931f, 0.12626410f, -0.15262638f, -0.11543263f, 0.11892874f, 
0.05973252f, -0.07312468f, 0.00796845f, 0.06390950f, 0.03011285f, 0.03431212f, -0.09459134f, -0.04528072f, -0.08602557f, -0.20653422f, 
0.17002843f, 0.04842821f, -0.03030656f, -0.02863416f, -0.10490011f, -0.08070262f, 0.13383339f, 0.02572217f, 0.07182612f, 0.14841087f, 
0.07479592f, -0.00332987f, 0.01215496f, -0.01959126f, 0.06388620f, -0.05326135f, 0.03279033f, -0.04289383f, -0.09456899f, 0.06548844f, 
-0.05469031f, -0.19420063f, -0.11641674f, -0.07032624f, 0.06725630f, 0.18686515f, 0.01007004f, 0.04077150f, 0.01957416f, 0.00368184f, 
0.04271536f, 0.01516574f, 0.17615302f, 0.13235952f, -0.12272854f, -0.04100902f, 0.17045057f, -0.21043509f, 0.01677216f, -0.01763527f, 
0.01789998f, 0.10025702f, 0.25054044f, -0.07247226f, -0.09545879f, 0.01104894f, 0.10920341f, -0.10324816f, -0.05239865f, 0.05399754f, 
0.00757064f, -0.06530257f, -0.09319546f, 0.08620971f, 0.08395157f, -0.11585587f, -0.32240093f, -0.04954794f, -0.04095268f, 0.03663122f, 
-0.04384011f, -0.05435322f, 0.01845138f, 0.04653997f, 0.10500284f, 0.04146963f, 0.07116742f, -0.12280475f, -0.15235031f, 0.04393997f, 
-0.03790420f, 0.01739166f, 0.10246418f, -0.13251716f, -0.14958270f, 0.01205728f, -0.32024503f, 0.04204551f, 0.12158711f, 0.07831086f, 
-0.01611223f, -0.01877598f, -0.17037600f, -0.03820624f, 0.16246086f, -0.06564319f, 0.08699212f, 0.08417778f, 0.02551679f, -0.08774991f, 
0.01635594f, 0.04456172f, -0.01936093f, -0.07393043f, -0.00531367f, -0.11123334f, 0.16828375f, 0.04407237f, 0.03096985f, -0.01541740f, 
-0.01205302f, 0.00056804f, 0.08148166f, -0.16948743f, 0.08318912f, -0.06419985f, 0.08508048f, 0.01167996f, 0.11733031f, -0.10676574f, 
0.04799404f, -0.20121169f, 0.01162990f, -0.11484391f, -0.13320510f, -0.00643887f, -0.12413845f, -0.13859367f, -0.00234926f, -0.11087090f, 
-0.16180885f, -0.08300456f, 0.19375920f, -0.16071729f, -0.04838775f, -0.10489015f, -0.02789719f, 0.08871364f, -0.28154343f, -0.17241921f, 
-0.08715535f, 0.02681284f, -0.13136962f, -0.10405410f, 0.05488243f, -0.02485047f, 0.00514362f, 0.10026669f, 0.00834424f, -0.24736525f, 
0.07226145f, 0.02275945f, -0.04897234f, 0.05631264f, -0.05000088f, -0.08298149f, 0.01655509f, 0.06585797f, -0.07893068f, -0.05812072f, 
-0.27979431f, -0.19834541f, 0.06839393f, -0.10789207f, -0.03034605f, 0.10042080f, -0.12362700f, 0.02866036f, -0.05929911f, -0.09927258f, 
-0.00300368f, 0.08489213f, -0.22888508f, 0.01390270f, -0.15232274f, 0.09688234f, -0.12085265f, -0.04760959f, 0.02789166f, 0.03990632f, 
0.07875837f, -0.01420552f, -0.17277645f, 0.07445870f, 0.11726189f, 0.10535587f, 0.08967402f, -0.02146825f, -0.05261172f, 0.05068718f, 
0.09376189f, 0.02721618f, -0.05271661f, 0.02230033f, 0.01333664f, 0.08803454f, 0.07816391f, 0.14021385f, -0.08985335f, 0.00544074f, 
-0.03849252f, -0.13204363f, -0.10038282f, -0.00902842f, -0.10991551f, -0.11620753f, -0.03939369f, 0.04669617f, 0.01200349f, 0.06405911f, 
-0.02239943f, 0.08697356f, -0.09367711f, -0.11985108f, 0.08211157f, -0.07231916f, -0.14610574f, -0.11519429f, 0.10442354f, -0.00825093f, 
-0.02126051f, -0.11519441f, -0.01175229f, 0.01704124f, -0.09554727f, 0.06359524f, -0.05587907f, -0.05138484f, -0.00981579f, -0.12159014f, 
0.10458272f, 0.07026744f, 0.03273453f, -0.00874358f, 0.07185363f, 0.04804193f, -0.12281222f, -0.03270279f, -0.03469504f, 0.00847881f, 
-0.03089438f, -0.04981029f, 0.08302676f, 0.10566033f, -0.07095578f, 0.03884219f, -0.03134575f, -0.03766791f, -0.13863401f, 0.08934773f, 
-0.04669998f, 0.10658266f, -0.10257997f, 0.12930185f, 0.00573443f, 0.13448569f, 0.02095934f, 0.14219837f, 0.09051484f, -0.05298124f, 
0.06000573f, -0.06930683f, 0.03536918f, 0.13331284f, 0.08031613f, 0.05038689f, 0.09575022f, -0.05748594f, 0.07537360f, 0.05530958f, 
0.06277613f, 0.01776221f, -0.09531008f, -0.04824939f, 0.06710803f, -0.06316250f, -0.02987816f, 0.06152080f, -0.09213448f, -0.08769854f, 
0.08464658f, 0.07244818f, 0.03214789f, 0.04587338f, 0.04765330f, 0.15392657f, -0.06756690f, 0.00242288f, -0.05849024f, -0.10004880f, 
0.00450626f, -0.11896409f, 0.05605283f, 0.04051618f, 0.06808385f, 0.03373552f, -0.03171292f, 0.04418110f, -0.04181147f, 0.01466720f, 
0.06147211f, -0.01362771f, 0.01675913f, -0.06497217f, 0.04492981f, 0.01281866f, 0.12636617f, -0.10067739f, -0.10774560f, -0.00687107f, 
0.03752109f, -0.03365935f, -0.10957088f, -0.02692619f, 0.00423556f, -0.01221961f, 0.03315006f, 0.08561602f, -0.00074693f, 0.03476414f, 
-0.07550429f, 0.10168611f, 0.00545059f, -0.04641687f, 0.02288447f, -0.07547484f, 0.01352856f, 0.05006458f, -0.04318858f, 0.04322410f, 
0.06840812f, 0.02643936f, 0.05982205f, 0.14082859f, 0.01701783f, -0.02883486f, 0.03585340f, 0.01436666f, 0.02330859f, 0.05969844f, 
-0.01143028f, -0.08800082f, 0.07206922f, -0.07968426f, 0.08791620f, 0.01405397f, 0.13692045f, -0.02017053f, 0.03662880f, -0.00347093f, 
-0.07155220f, -0.07595029f, 0.08248622f, -0.02138975f, 0.11402380f, 0.08160782f, 0.06653664f, -0.11060330f, 0.03663358f, -0.06940843f, 
0.11279816f, 0.14321163f, 0.01703904f, 0.02581080f, -0.02412404f, -0.02573398f, 0.02388536f, -0.00780314f, 0.04129062f, -0.11251879f, 
-0.08677690f, 0.00267447f, 0.01420222f, -0.00420497f, -0.08790252f, -0.01832648f, -0.05734138f, -0.04987707f, -0.13309433f, -0.05308115f, 
-0.08580397f, 0.07122646f, -0.10932197f, 0.04706106f, -0.06038762f, -0.08859941f, -0.02726247f, 0.03937515f, -0.02803485f, -0.05945545f, 
-0.06931598f, -0.10915944f, -0.01137178f, 0.00703954f, -0.07171024f, -0.03287837f, 0.02426715f, -0.07916917f, -0.10266531f, 0.02691766f, 
-0.04500171f, -0.07193397f, -0.00718574f, -0.02581417f, -0.10793152f, 0.03406582f, -0.10960270f, -0.15234935f, -0.04392905f, 0.10709555f, 
0.04032723f, 0.02045011f, 0.08459138f, 0.04378745f, 0.10620234f, 0.07819821f, -0.00486205f, -0.14440568f, 0.00824812f, 0.11690748f, 
0.04892045f, -0.14095289f, 0.00722337f, 0.02639967f, -0.08292215f, 0.09001952f, 0.03874949f, 0.04849190f, -0.00823677f, 0.13609910f, 
0.07303447f, 0.06873191f, 0.09654345f, -0.08358987f, -0.09031035f, 0.00758987f, -0.00406241f, 0.11051732f, -0.13910218f, -0.11885733f, 
-0.01382854f, -0.10782801f, 0.01856017f, -0.04594087f, -0.12018919f, -0.02500336f, 0.16932808f, -0.15362129f, 0.02955433f, -0.08755918f, 
-0.11375214f, -0.05627402f, -0.07110955f, 0.12151610f, 0.02666704f, 0.05719491f, 0.07562764f, -0.21379924f, -0.09343240f, -0.02521183f, 
-0.01493597f, 0.10711932f, -0.23647563f, 0.10506257f, -0.13933480f, 0.08104866f, 0.03423923f, 0.14538784f, 0.03906154f, -0.10352810f, 
-0.09954475f, -0.10540996f, -0.04040781f, -0.01105034f, 0.05055289f, -0.02698275f, -0.06056229f, 0.04656222f, -0.14346354f, 0.07421707f, 
0.02202783f, -0.17121936f, -0.00510916f, 0.00636243f, 0.05480653f, -0.14852607f, -0.05498041f, -0.06503598f, -0.07664208f, -0.04674822f, 
0.05303322f, 0.02590262f, -0.07678647f, 0.06836818f, -0.01903776f, -0.15252984f, -0.06400882f, -0.04547781f, 0.21568029f, -0.04324994f, 
-0.14245033f, 0.10759456f, 0.20563664f, 0.09818416f, 0.08756062f, -0.00213913f, -0.12743942f, -0.16439067f, -0.05308752f, 0.13918586f, 
-0.12078130f, 0.10453398f, 0.16192400f, 0.15949112f, -0.03981135f, 0.25405547f, -0.01807291f, 0.08692435f, -0.15247579f, 0.11055799f, 
-0.03097306f, 0.04137723f, -0.24843119f, 0.07770646f, -0.09725371f, -0.02924179f, 0.04497422f, -0.03883156f, -0.06808270f, -0.15090317f, 
-0.06141526f, 0.03909016f, -0.15661317f, 0.15796375f, -0.06561593f, 0.06038747f, 0.05440618f, -0.13027887f, -0.19801745f, -0.00155532f, 
0.13756156f, 0.15513000f, 0.04454918f, -0.00600316f, -0.03949825f, 0.14717546f, -0.13559800f, -0.18412946f, 0.02291751f, -0.14534470f, 
-0.00554681f, 0.02053427f, -0.01519974f, -0.02792372f, 0.12046458f, -0.00412715f, 0.03668882f, -0.09414793f, -0.21415925f, 0.15045415f, 
-0.01517250f, 0.09257521f, -0.19462720f, -0.11356401f, -0.02617386f, 0.08445250f, -0.13255860f, -0.02107354f, 0.09460967f, -0.10636768f, 
0.04478669f, 0.19425693f, -0.15683748f, 0.00363665f, -0.02758313f, -0.28852406f, -0.08322499f, 0.09721761f, 0.08382560f, -0.04093564f, 
-0.02316500f, -0.10892248f, 0.01393843f, -0.24128549f, -0.03709980f, -0.06150268f, -0.25173786f, -0.18367019f, 0.09210660f, 0.01490222f, 
0.06768666f, -0.07950144f, 0.06179785f, -0.27091023f, -0.27696252f, 0.07712685f, -0.09076460f, -0.01693245f, -0.08870627f, 0.06087989f, 
0.06459492f, 0.10362362f, 0.14493133f, 0.10771217f, 0.02997704f, 0.16810378f, -0.08251682f, 0.08969049f, -0.03051259f, -0.14542252f, 
0.06378268f, -0.15285130f, 0.15286307f, -0.09325270f, -0.05413609f, 0.02811401f, -0.05808704f, 0.03281891f, -0.18608902f, -0.14854121f, 
-0.11240359f, -0.22487751f, 0.02674893f, 0.21711642f, 0.13566597f, 0.09621283f, 0.15664962f, -0.10443667f, -0.16831464f, -0.10032848f, 
-0.14773409f, -0.01554070f, 0.04891228f, -0.06101266f, -0.10982039f, -0.00482323f, 0.12153307f, -0.20706579f, -0.16996479f, 0.05962535f, 
0.03800880f, 0.05175874f, -0.21288320f, -0.12369073f, -0.29062453f, 0.09119258f, -0.23101610f, 0.01461597f, -0.10604422f, 0.12344623f, 
-0.12764440f, -0.07908963f, 0.11770062f, -0.15568593f, 0.04887146f, 0.13054155f, 0.13132626f, -0.07501642f, 0.06285977f, -0.00306735f, 
-0.03987779f, -0.01127107f, 0.04717426f, -0.06283171f, -0.03309111f, 0.13437164f, -0.04155157f, -0.00063446f, -0.10178627f, 0.00329946f, 
-0.03589832f, 0.07987840f, -0.05831161f, -0.19829279f, -0.03120250f, 0.00776362f, 0.02994544f, 0.01326085f, -0.04522898f, 0.02386990f, 
0.13565736f, 0.00868013f, 0.09092338f, 0.04998206f, 0.03798810f, -0.00169241f, -0.02090095f, 0.09684396f, 0.09405497f, -0.19181824f, 
0.18684681f, 0.07637168f, -0.15122411f, -0.19759297f, -0.00297122f, -0.22440343f, -0.13485478f, -0.10536662f, 0.15771171f, 0.09723036f, 
0.13412710f, 0.06051431f, -0.16061760f, -0.01908756f, -0.04957626f, 0.09649751f, -0.01875900f, -0.11389773f, 0.15239316f, -0.02798368f, 
0.04293309f, -0.11836430f, 0.05902436f, -0.12016997f, -0.18268725f, 0.10765910f, -0.05800276f, -0.16790645f, -0.02722175f, -0.02792227f, 
-0.00313283f, -0.12647687f, -0.17752035f, 0.01173050f, 0.03517503f, -0.02557566f, 0.02226900f, -0.18189771f, -0.10537679f, -0.11990753f, 
-0.04843921f, 0.09975025f, -0.01211123f, -0.03217717f, -0.06819531f, -0.08372407f, -0.02942646f, -0.08899125f, 0.04433638f, 0.04659143f, 
-0.04684055f, -0.06219889f, -0.21603206f, -0.16087580f, -0.05308006f, -0.11284412f, 0.06666263f, 0.17307019f, 0.16509306f, 0.06200125f, 
-0.00078724f, 0.17209752f, 0.10961588f, 0.06404763f, 0.00230305f, -0.02802869f, -0.08274557f, -0.22983146f, -0.03922796f, -0.03212203f, 
-0.01748923f, -0.12143146f, -0.07925264f, 0.16301520f, -0.02178239f, -0.22089382f, -0.18264660f, -0.04639985f, 0.01803012f, 0.01646632f, 
0.02999867f, -0.18942946f, 0.12559822f, -0.18644072f, -0.17203848f, 0.05350520f, 0.14634314f, 0.06059415f, -0.09410087f, -0.08779046f, 
-0.08186642f, 0.02483028f, 0.00439418f, 0.05310715f, -0.13375960f, -0.01035326f, -0.18477550f, -0.08166745f, -0.08996090f, 0.11407375f, 
-0.09350661f, 0.06796316f, -0.00110036f, -0.11728966f, 0.00464721f, -0.01108238f, -0.01302981f, 0.00708483f, 0.00884362f, -0.00191379f, 
-0.13705079f, -0.06019127f, 0.01339105f, 0.01512909f, 0.00272868f, 0.08457068f, -0.12184835f, -0.05177449f, 0.03403472f, 0.10798267f, 
-0.08905987f, 0.13223158f, 0.01273198f, -0.06126292f, -0.14337265f, 0.06236584f, 0.03209622f, 0.17295897f, 0.04960641f, 0.11971795f, 
0.00972781f, -0.17629796f, 0.18697852f, 0.09969902f, -0.10317574f, 0.00275170f, 0.01825601f, -0.17343947f, 0.09733874f, -0.11538411f, 
-0.16737315f, 0.00162003f, 0.05966398f, 0.03326876f, 0.13880593f, 0.06942920f, -0.11887664f, 0.15317468f, 0.04018855f, 0.10600751f, 
0.04481424f, 0.05274616f, 0.00076243f, -0.15875012f, -0.09924120f, 0.05193450f, -0.11060844f, -0.19611655f, -0.02663423f, 0.01128564f, 
-0.03766579f, 0.08445110f, -0.01814450f, -0.04170672f, -0.02489477f, -0.14941740f, -0.03465460f, -0.02192946f, -0.02350912f, 0.15231632f, 
-0.01487350f, -0.17906536f, -0.04719445f, 0.09779228f, -0.14837225f, 0.00273879f, -0.19220543f, -0.12903526f, 0.02947805f, -0.20622152f, 
-0.05870852f, 0.10318459f, -0.16429096f, 0.05998041f, 0.10428741f, 0.17261353f, -0.05198752f, 0.09238911f, -0.30342513f, 0.10317907f, 
-0.04493265f, -0.02616188f, 0.10133420f, -0.19916439f, -0.05619815f, -0.04399659f, 0.06908852f, 0.14150457f, -0.07477111f, -0.08344732f, 
0.03634161f, 0.05394040f, 0.07722811f, 0.14528157f, 0.05936794f, 0.00221728f, 0.07832102f, -0.14139983f, -0.04487348f, 0.13256545f, 
0.06370647f, -0.07283023f, -0.11896294f, 0.06292277f, -0.06308124f, -0.00623489f, 0.00846007f, 0.12818092f, 0.07953043f, 0.11254977f, 
0.08888754f, -0.09103874f, -0.01209761f, 0.09912077f, -0.13927224f, -0.09164166f, 0.04808525f, 0.09552040f, -0.13552098f, 0.01651355f, 
0.05592378f, -0.01927650f, 0.09835581f, -0.04430362f, -0.07122064f, -0.02869377f, 0.09725060f, -0.04799144f, -0.11260783f, 0.17627282f, 
0.18069090f, 0.08854494f, 0.12720580f, 0.10210299f, -0.06533159f, -0.01224037f, 0.00466657f, -0.00968451f, -0.16465953f, -0.17211749f, 
-0.01981908f, 0.05958510f, -0.06164994f, 0.06517944f, 0.01286257f, 0.12609142f, -0.17743149f, -0.14498575f, -0.12988251f, -0.16060762f, 
-0.08289285f, -0.06448303f, -0.04431614f, -0.11947007f, -0.05954064f, -0.04154895f, 0.06589625f, 0.03801473f, 0.00965138f, -0.01190639f, 
-0.10724454f, 0.08724760f, 0.03176953f, 0.07761353f, -0.00462405f, -0.01842739f, -0.09611484f, 0.08911262f, -0.08546358f, -0.07036757f, 
0.09771553f, -0.05239732f, -0.08479280f, 0.08065112f, -0.03726277f, -0.00294828f, 0.01095308f, -0.08213753f, 0.10275585f, -0.10449911f, 
0.07644325f, 0.08202565f, -0.10165152f, -0.01443342f, -0.10168160f, -0.06004520f, -0.03390003f, -0.14770283f, -0.10333715f, -0.06609887f, 
-0.01251936f, 0.00998563f, -0.07238001f, -0.12329252f, -0.05045560f, -0.09962617f, 0.04336876f, 0.08558342f, -0.06641020f, -0.03244314f, 
0.04742609f, -0.04253123f, -0.02962337f, -0.13553470f, 0.07040874f, -0.00735139f, 0.03991932f, 0.07577026f, 0.03261561f, -0.11379816f, 
0.06979180f, 0.08664636f, 0.07172365f, 0.04596343f, 0.09862675f, 0.08506078f, -0.08819181f, 0.11794148f, 0.08570421f, -0.08793775f, 
-0.05900976f, 0.01302383f, 0.03678565f, 0.02676691f, -0.06127793f, -0.01994883f, -0.00029536f, -0.01621594f, 0.06867871f, -0.02486175f, 
0.09901445f, -0.00638110f, -0.03025928f, 0.04000579f, -0.04899190f, -0.13645910f, -0.03792081f, -0.08306093f, -0.04764258f, -0.14232405f, 
-0.01489616f, -0.09661295f, -0.11307815f, -0.04479253f, 0.10917675f, 0.03616592f, -0.05997116f, 0.11242902f, 0.07740113f, 0.09678467f, 
-0.01501190f, -0.03016767f, -0.13205367f, -0.02293823f, -0.01704091f, -0.11022217f, 0.03563659f, -0.02685549f, 0.04839183f, 0.08169159f, 
-0.11240999f, -0.09415483f, 0.02720396f, 0.06815522f, -0.10325964f, 0.04955375f, -0.07176271f, 0.09170970f, -0.03583380f, 0.10332993f, 
-0.06099298f, 0.04123603f, 0.00249644f, -0.02892014f, 0.02681247f, -0.07868095f, -0.04786902f, -0.04576455f, -0.00997428f, 0.10738337f, 
0.08815040f, 0.03611073f, -0.07563135f, -0.10372233f, -0.08594718f, -0.01590279f, 0.03400860f, 0.02318787f, 0.09568185f, -0.06577016f, 
-0.03751347f, -0.12434872f, -0.09772876f, -0.01877598f, -0.10300010f, -0.05229524f, -0.08738462f, 0.08529703f, -0.10835058f, -0.08172688f, 
-0.05843526f, 0.03202284f, -0.02986800f, -0.05651402f, 0.06277130f, 0.03989277f, -0.11784123f, -0.03243154f, 0.02417599f, 0.01387698f, 
-0.00765114f, -0.10416997f, 0.13858120f, 0.06578028f, 0.04290538f, 0.07810797f, -0.07104879f, 0.09771331f, 0.07371695f, -0.10743129f, 
-0.13805833f, 0.09600291f, -0.00661902f, 0.04540749f, -0.05881426f, -0.09798484f, 0.07492924f, -0.00529834f, -0.01297984f, 0.05958892f, 
0.06307924f, -0.07333159f, 0.05029589f, 0.03164653f, -0.11824758f, 0.10446404f, 0.02996209f, 0.05818602f, -0.03809511f, 0.11260399f, 
-0.15990308f, -0.10923855f, 0.00390005f, -0.07386301f, 0.00185886f, 0.06474414f, -0.10086828f, -0.05351938f, -0.03281819f, -0.01517679f, 
-0.11364429f, -0.10047328f, -0.03344841f, -0.04414705f, -0.12476552f, -0.08464582f, -0.03151233f, -0.12615377f, 0.00156743f, -0.06373087f, 
-0.00258549f, 0.10833940f, -0.02103235f, -0.00608935f, 0.04190299f, 0.04155780f, 0.04256120f, -0.09512085f, 0.00753520f, -0.13014030f, 
0.08548627f, 0.09069919f, -0.05581566f, 0.05413483f, -0.10566819f, -0.12947477f, -0.00540572f, 0.02916425f, -0.09539069f, 0.14894600f, 
-0.06503232f, 0.05917395f, -0.09623053f, -0.02250180f, 0.10635979f, 0.09839910f, -0.09053841f, 0.05319311f, 0.02607306f, 0.09441347f, 
0.01918318f, 0.10663138f, 0.03311313f, -0.08604807f, -0.02360370f, 0.10250949f, 0.08649813f, -0.11445083f, 0.07910182f, 0.10269338f, 
-0.09277844f, 0.11734423f, 0.10071956f, -0.00299211f, 0.04983929f, 0.10666467f, -0.07284891f, 0.01374879f, -0.10843326f, -0.03143127f, 
-0.06448648f, 0.05854224f, -0.02010600f, -0.12347618f, 0.01986881f, -0.03586638f, -0.09407037f, 0.10853938f, 0.11165238f, -0.07248202f, 
0.08689208f, -0.11955787f, 0.08570614f, -0.01918705f, 0.02447017f, -0.05927072f, 0.11395457f, 0.03751931f, -0.09270531f, -0.09260361f, 
-0.09675548f, -0.01617328f, -0.04336575f, -0.09199180f, 0.06730674f, -0.09248384f, 0.03756926f, -0.07160220f, -0.06388853f, -0.12080182f, 
-0.05555926f, -0.06048836f, 0.08369118f, -0.12946112f, 0.07645905f, 0.13976386f, -0.00257795f, -0.01187853f, -0.06890586f, 0.05989542f, 
-0.03906026f, -0.06422859f, 0.13003658f, -0.03779967f, -0.09334853f, -0.01446806f, -0.11577031f, -0.05807846f, 0.07275286f, 0.04377014f, 
0.05911604f, 0.12507595f, 0.11964279f, -0.06401490f, -0.08728788f, -0.05843028f, 0.06623146f, -0.00485604f, -0.04929545f, 0.08135082f, 
-0.07131948f, 0.00839341f, 0.10382805f, 0.01803955f, -0.04373410f, -0.11018287f, -0.04021951f, 0.08650918f, -0.08593177f, 0.09319793f, 
0.11659535f, -0.05425666f, 0.04919834f, 0.02751652f, 0.12104913f, -0.07387006f, -0.11101177f, 0.08915001f, 0.10895433f, 0.02649918f, 
0.13779195f, 0.06801397f, 0.06951679f, 0.02323114f, 0.09983311f, -0.02382262f, -0.12175399f, 0.04538835f, 0.02863823f, 0.11510166f, 
0.07293651f, -0.02339809f, -0.00324917f, 0.05801687f, 0.07562829f, 0.09059157f, -0.10033896f, -0.06403729f, 0.02742223f, 0.10854571f, 
0.09811871f, -0.04601735f, -0.02324195f, -0.14719553f, 0.04888178f, 0.07430732f, 0.06639652f, -0.10699251f, -0.12746508f, 0.10204081f, 
0.11802325f, 0.02307656f, 0.09375608f, 0.02852397f, -0.09986315f, -0.07777344f, -0.09094314f, -0.12841173f, -0.00304565f, -0.09304439f, 
0.11435919f, -0.04048224f, 0.06224041f, -0.04135112f, -0.03233460f, 0.12899862f, -0.02581340f, 0.02647983f, 0.01573544f, 0.02917089f, 
-0.11384697f, -0.08917178f, 0.08500938f, -0.09620073f, 0.12883626f, 0.02834230f, -0.02582763f, -0.10982385f, 0.10024117f, 0.00130805f, 
-0.06854634f, 0.05909676f, -0.05133766f, 0.04073951f, 0.04457382f, -0.06896755f, 0.04279340f, 0.06299540f, 0.00467169f, -0.04018780f, 
-0.09446504f, 0.05361988f, -0.09553194f, -0.05542098f, -0.05517516f, 0.04717056f, -0.08914445f, -0.05152939f, -0.10721087f, -0.01981325f, 
0.09987367f, -0.06478672f, -0.09964511f, 0.07398303f, -0.11696020f, -0.08794455f, 0.03018537f, 0.07230215f, -0.04677817f, 0.03363949f, 
-0.09170941f, -0.13327277f, -0.05630303f, -0.05533005f, 0.09294341f, -0.02684438f, -0.06069146f, 0.08756306f, 0.07128778f, 0.05368926f, 
-0.09290978f, 0.13295919f, -0.11435093f, -0.02338844f, 0.00836477f, -0.06628170f, -0.00385968f, -0.06945945f, -0.13153265f, 0.03138785f, 
-0.01979292f, -0.03803919f, -0.03596224f, 0.03947777f, -0.08950116f, -0.11672048f, 0.01012962f, 0.03592179f, 0.00815054f, 0.03985847f, 
-0.04356891f, -0.10313400f, 0.09926701f, -0.11595706f, 0.04167479f, 0.05419018f, 0.07275303f, 0.10364529f, -0.09978936f, -0.03316746f, 
-0.07778233f, -0.08096526f, -0.04414842f, -0.05028961f, -0.08968245f, -0.00415836f, -0.02479475f, 0.11615237f, 0.10421713f, 0.01435484f, 
0.02136157f, -0.10188487f, 0.12174629f, -0.08935751f, -0.13498180f, -0.05475032f, -0.03551017f, 0.07080844f, -0.01509493f, 0.08545958f, 
0.07362010f, -0.11129110f, -0.00362409f, 0.10329802f, 0.10119224f, -0.04832203f, -0.07208880f, 0.12024420f, -0.04029399f, -0.00165250f, 
0.05286958f, -0.00384470f, 0.07591697f, -0.03618928f, 0.02368034f, -0.09736139f, -0.05021790f, 0.09440283f, 0.09617651f, 0.00667742f, 
-0.06806514f, 0.05204310f, 0.03514991f, -0.04512929f, 0.13245064f, -0.04623612f, 0.00754800f, 0.13939792f, -0.05968596f, -0.00309191f, 
-0.03223342f, -0.09250874f, 0.03819421f, 0.01901860f, 0.12023351f, -0.12375101f, -0.07581168f, -0.17767313f, 0.04748125f, -0.02889500f, 
-0.05958936f, 0.06710667f, -0.04665794f, 0.02936403f, 0.05841251f, 0.07339218f, -0.01822494f, -0.16392012f, 0.10263190f, 0.02477502f, 
-0.04260309f, -0.08206629f, 0.09712052f, 0.02144991f, 0.05132495f, 0.08482246f, -0.10626987f, 0.10045389f, 0.11839684f, -0.08127063f, 
-0.19805944f, 0.07373113f, -0.05864588f, 0.07634131f, -0.01010052f, -0.01550114f, 0.04980509f, -0.12753741f, -0.07898277f, 0.06439707f, 
0.03311818f, -0.13849711f, -0.01752875f, 0.00601350f, -0.12877190f, -0.07226153f, -0.04085802f, 0.16048343f, -0.02554755f, -0.01828704f, 
-0.03735846f, 0.03569911f, 0.07769430f, -0.08128367f, 0.10655947f, 0.00483306f, 0.16484968f, -0.04306285f, 0.11897589f, -0.02915333f, 
-0.04297674f, -0.09709664f, 0.16346732f, -0.02436630f, 0.06411790f, 0.05985964f, 0.02674829f, 0.00718082f, 0.14574483f, -0.10339686f, 
-0.00288981f, 0.08011805f, 0.04925479f, 0.01121653f, -0.07350093f, -0.02551717f, -0.11797777f, 0.03887793f, -0.02740951f, 0.02909623f, 
0.16560276f, 0.02359596f, -0.00090341f, 0.06700372f, -0.02772335f, 0.11520334f, 0.12899207f, -0.08986369f, -0.07886854f, -0.08006081f, 
-0.18442717f, -0.09042026f, -0.10384316f, -0.09256417f, -0.08935007f, 0.01644010f, 0.02366209f, -0.15824364f, -0.06658135f, 0.06583605f, 
0.15168352f, 0.09829620f, 0.06531616f, -0.12828803f, 0.15324242f, -0.04766221f, -0.13158511f, -0.07390033f, -0.01099678f, 0.05055293f, 
-0.19582291f, -0.03394830f, 0.01736426f, 0.07161053f, 0.03848987f, 0.06095423f, 0.02261934f, 0.04551125f, 0.03505001f, -0.11514226f, 
0.12146132f, -0.08674189f, -0.12720762f, 0.00044513f, -0.15005994f, 0.10573884f, 0.06564450f, -0.05230527f, -0.05542127f, 0.05404322f, 
-0.01751849f, 0.02554279f, 0.00238039f, 0.04354998f, -0.10249180f, 0.03864390f, 0.07799739f, 0.04452657f, 0.09217411f, 0.07025763f, 
-0.00750316f, -0.03846317f, 0.05151948f, 0.01222806f, -0.12859926f, -0.07648014f, 0.00463072f, 0.11789148f, 0.04565233f, 0.01691464f, 
-0.02145226f, -0.05803033f, -0.07327601f, -0.05637798f, -0.12652884f, 0.07164031f, -0.00789006f, 0.17529625f, -0.10964781f, 0.02105940f, 
-0.03538889f, -0.08571640f, 0.14220434f, -0.05381968f, -0.01562693f, 0.00665339f, -0.05697082f, 0.03442740f, -0.08693308f, 0.00899941f, 
0.05165646f, 0.15254258f, -0.03655464f, -0.05730144f, 0.09232986f, 0.00906120f, -0.07139911f, 0.05276737f, -0.04863677f, 0.09767987f, 
0.21435419f, 0.10760912f, 0.01700411f, 0.04225131f, -0.12903319f, 0.11048144f, 0.08238174f, -0.18860415f, -0.11626169f, -0.07369741f, 
-0.07639498f, -0.05591512f, -0.05886998f, -0.12190562f, -0.02832200f, -0.09416505f, -0.10616946f, 0.06098779f, -0.02516381f, 0.10243968f, 
-0.00925443f, -0.01198598f, 0.11678614f, -0.10315429f, -0.10860766f, 0.06392749f, -0.04882727f, -0.00042662f, 0.09413795f, -0.01462909f, 
0.05167005f, 0.07730068f, -0.05734933f, -0.15303287f, -0.06777866f, 0.06945513f, -0.10649941f, 0.03652037f, 0.04515558f, 0.09566323f, 
0.09409937f, -0.01061847f, 0.05786042f, 0.02087421f, -0.07089425f, -0.14026524f, -0.01712054f, 0.07323846f, -0.00088188f, 0.01921342f, 
-0.00377443f, 0.01935325f, 0.14630827f, 0.03296087f, 0.01095325f, -0.01306955f, 0.08235747f, -0.01934941f, -0.08028011f, -0.26667878f, 
0.04617840f, -0.12921907f, 0.10445992f, -0.04102745f, 0.12132277f, -0.04792859f, 0.09708102f, 0.10077353f, -0.16082369f, -0.00562566f, 
0.04565712f, -0.09972005f, -0.10477208f, -0.12070154f, -0.13397445f, 0.08312514f, 0.00433785f, -0.16005948f, -0.01243666f, 0.05537998f, 
-0.05103432f, -0.05547025f, -0.00171301f, -0.07635865f, -0.14024739f, 0.09804188f, 0.15816309f, 0.00708197f, -0.10982263f, -0.02921274f, 
-0.03573940f, 0.03154487f, 0.11040547f, 0.04191011f, -0.02455579f, 0.04416129f, 0.02078408f, 0.00204063f, -0.06398284f, 0.02533144f, 
-0.02838752f, 0.01193014f, 0.07988069f, 0.11526115f, 0.06537852f, -0.04530264f, 0.06610556f, 0.01647561f, -0.08080803f, -0.00441053f, 
-0.01072371f, 0.02085108f, 0.00135942f, -0.05990932f, -0.07851552f, -0.09644325f, -0.08663287f, -0.06259110f, -0.06085289f, -0.07055701f, 
-0.16660291f, -0.03268053f, -0.02211462f, -0.07378564f, 0.04731115f, -0.08942350f, -0.06662977f, 0.08647381f, -0.04444144f, 0.00296651f, 
0.06009489f, 0.04288626f, 0.00062724f, -0.09952719f, -0.08608396f, 0.05855936f, -0.04202081f, 0.09936821f, -0.06699339f, 0.00285467f, 
-0.06935787f, 0.06715924f, 0.03863819f, -0.19792995f, -0.16858506f, 0.01898801f, 0.10915092f, 0.04859456f, 0.02026514f, -0.05311343f, 
0.06679653f, -0.09042611f, 0.03169856f, -0.05579532f, -0.00124133f, -0.03112713f, 0.00639266f, 0.10116392f, -0.11540812f, -0.04091058f, 
-0.12275884f, 0.16091619f, -0.08211102f, -0.00311320f, -0.12159216f, -0.11322508f, -0.11891834f, 0.08851089f, -0.04404038f, -0.03958458f, 
0.08753693f, -0.05593410f, 0.03885221f, 0.00299240f, 0.03904547f, 0.01504489f, -0.07967601f, 0.03000692f, 0.06938476f, -0.00776975f, 
0.07495106f, 0.05017769f, -0.09466997f, -0.14346947f, -0.08851640f, 0.01253859f, 0.04867791f, -0.02998040f, 0.02572237f, 0.16658951f, 
-0.09390913f, -0.10184930f, 0.03032565f, -0.08985785f, 0.04270243f, 0.05427381f, -0.11187176f, -0.23220584f, -0.04197311f, -0.09215789f, 
0.03494773f, -0.03085592f, 0.08560584f, 0.03052109f, 0.13254252f, 0.05823498f, -0.06523994f, -0.01489575f, -0.04000986f, -0.06341732f, 
0.06780509f, 0.13265947f, -0.09117709f, -0.00835508f, -0.04967678f, -0.16034691f, 0.00027869f, -0.12362470f, -0.03734058f, 0.12269463f, 
-0.01878986f, 0.12277466f, -0.10102387f, -0.02156332f, -0.19370629f, -0.05715521f, -0.11802431f, -0.07150022f, -0.07483437f, -0.04207314f, 
-0.15643999f, -0.09619376f, 0.01834294f, -0.02712325f, -0.03440295f, 0.11184407f, -0.08432268f, 0.04369034f, -0.02934380f, -0.08510168f, 
-0.11141187f, 0.06072407f, 0.05097263f, 0.02255031f, 0.10939938f, -0.01143621f, 0.02004788f, -0.03760603f, -0.05382542f, -0.03494279f, 
0.10696172f, 0.08545698f, 0.05669266f, -0.12269074f, 0.00812808f, -0.11546260f, 0.06826833f, 0.06513809f, 0.02723100f, 0.09025569f, 
-0.06171050f, -0.14641055f, -0.05010857f, -0.08784452f, -0.12326401f, -0.11444493f, -0.01090286f, -0.01239489f, 0.07916562f, 0.04261423f, 
0.04723958f, -0.03210733f, 0.07280096f, -0.03172104f, -0.12738356f, 0.05468554f, -0.00092486f, -0.05850826f, 0.06543187f, 0.00744400f, 
0.09387569f, 0.03514338f, 0.09093224f, -0.11388126f, 0.02022651f, -0.10174404f, 0.02591469f, 0.03462869f, 0.12334356f, 0.00738701f, 
0.08568820f, 0.00580229f, 0.08359516f, -0.03020034f, -0.08991672f, -0.10743581f, -0.02542614f, 0.02245578f, -0.04201753f, -0.05873641f, 
-0.11890450f, -0.11960576f, -0.14918235f, -0.03724309f, 0.06135934f, -0.01736842f, -0.11065713f, -0.14931569f, -0.07100091f, 0.09006503f, 
0.01677389f, -0.10189817f, -0.12450831f, -0.08959468f, 0.10026421f, 0.17247552f, -0.12269945f, -0.07202938f, -0.07231097f, -0.03540103f, 
-0.08231250f, -0.10654952f, -0.03079356f, 0.03421820f, -0.22480148f, -0.09010174f, 0.07119469f, -0.14105597f, 0.04929115f, 0.12050670f, 
-0.12168631f, 0.07262108f, -0.07458857f, 0.03457774f, 0.01549148f, -0.09669821f, -0.08763725f, 0.12641294f, -0.05187002f, -0.00188666f, 
-0.18930502f, 0.00761119f, -0.15071733f, 0.00106155f, -0.11088733f, -0.15018284f, -0.05687696f, -0.02363059f, -0.06413531f, 0.11156503f, 
-0.01065884f, 0.09753586f, 0.00787392f, -0.01675633f, -0.06388091f, -0.17118470f, -0.08719660f, 0.03381951f, 0.01957001f, 0.08531891f, 
0.01123483f, 0.01230579f, 0.02054961f, 0.10620025f, 0.04850448f, 0.07570909f, -0.12270085f, -0.06308394f, -0.10147598f, 0.11062520f, 
0.08022183f, 0.02324486f, 0.01092853f, 0.10309877f, -0.04050952f, -0.02197641f, -0.12509453f, -0.08974491f, -0.08063740f, -0.13578047f, 
-0.13496377f, -0.06604385f, 0.14820099f, 0.15601191f, -0.05752059f, -0.00179052f, -0.12078787f, 0.02809058f, 0.09480598f, -0.01998083f, 
0.04364203f, -0.06541721f, -0.13481538f, 0.06992471f, 0.09016833f, -0.05244913f, 0.03688569f, 0.01208621f, -0.05408113f, 0.10100646f, 
0.14730780f, 0.13077174f, -0.11861201f, -0.00422644f, -0.05758974f, -0.06760784f, -0.05430464f, 0.03442234f, -0.08390605f, -0.21910258f, 
0.05531526f, -0.02320835f, 0.01451995f, -0.03857277f, 0.06245591f, 0.13168958f, 0.05441532f, -0.04442802f, 0.05049638f, 0.04498002f, 
0.06029802f, 0.11141613f, 0.15112931f, 0.05061084f, 0.08173671f, -0.07712233f, 0.09391730f, -0.06500108f, -0.13856788f, -0.01340260f, 
0.15485600f, -0.03993568f, -0.03338886f, 0.01603935f, -0.10550921f, -0.03348273f, 0.03346051f, -0.02724497f, 0.06541493f, -0.07078135f, 
-0.03178911f, 0.09642310f, 0.12686086f, -0.05068979f, -0.00439685f, -0.12007485f, 0.10495338f, -0.12781435f, -0.07504074f, 0.05649129f, 
0.07743458f, 0.04067239f, -0.01642800f, -0.06278770f, -0.02313271f, 0.06943296f, 0.08991719f, 0.03495752f, -0.05517341f, 0.08293002f, 
0.06491464f, 0.02357645f, 0.00278228f, -0.02889102f, -0.10615381f, -0.05761677f, 0.02498696f, 0.05184885f, -0.06165500f, -0.07600327f, 
-0.07499214f, 0.16460437f, 0.14626139f, 0.06303523f, 0.05667582f, -0.06600747f, 0.12182641f, -0.06447411f, -0.08781873f, 0.04240356f, 
0.13166884f, 0.02002463f, 0.04114117f, -0.07268662f, -0.03728472f, 0.06669205f, 0.09035609f, -0.06781977f, -0.04030871f, 0.13413242f, 
-0.05709842f, 0.03278784f, -0.14459966f, -0.01580927f, 0.10661384f, 0.01386932f, 0.02759600f, -0.05763328f, 0.13729315f, -0.09944122f, 
0.03651446f, 0.07137062f, 0.06662922f, -0.12029130f, -0.05504967f, 0.00503874f, -0.00203771f, -0.06251796f, -0.10262981f, -0.08825310f, 
-0.02547749f, 0.06627627f, 0.11082887f, 0.03864214f, 0.04732507f, -0.04438620f, 0.10414204f, 0.01114903f, -0.16569498f, 0.11267616f, 
0.08775371f, 0.16484156f, -0.08709633f, -0.08124456f, -0.02212436f, -0.07723402f, -0.17822705f, -0.08872499f, -0.03963134f, -0.03570153f, 
0.11415139f, -0.06312978f, -0.17783274f, 0.10774747f, -0.15856023f, -0.13285314f, -0.11521149f, -0.18109593f, -0.00233153f, 0.04738390f, 
-0.03965802f, 0.04336070f, 0.08817613f, 0.13990584f, -0.08684969f, 0.03750904f, -0.02132756f, -0.18521571f, 0.01788293f, -0.03929966f, 
-0.02987075f, -0.06557534f, -0.05011935f, 0.03691933f, 0.01457523f, -0.03657600f, 0.07706233f, 0.05839909f, 0.09931426f, 0.07575330f, 
-0.03011101f, 0.04669219f, 0.03853190f, 0.04494215f, -0.08895719f, -0.01969659f, 0.11630366f, 0.05182175f, 0.09139272f, -0.05393137f, 
-0.10029747f, 0.08041113f, -0.00470537f, 0.12536313f, -0.08951116f, 0.06953176f, -0.08706747f, -0.16669267f, 0.04031413f, -0.18399455f, 
0.07440367f, 0.07076821f, 0.03468112f, -0.00845393f, 0.07042129f, -0.09793294f, -0.02869135f, -0.00676816f, 0.04608505f, 0.01174045f, 
0.11373159f, 0.06470674f, -0.00608143f, -0.11609819f, 0.04748689f, 0.23152320f, 0.00772553f, 0.03802153f, -0.06661191f, 0.15999952f, 
-0.03572585f, -0.09487051f, -0.00849045f, 0.06610170f, 0.10589464f, -0.10144750f, 0.10856952f, 0.05827464f, 0.02564491f, 0.07668032f, 
0.04704506f, -0.06653791f, 0.08856452f, 0.13582496f, -0.10135306f, -0.03574059f, -0.02936383f, 0.03626833f, 0.02628069f, -0.03543060f, 
-0.01260494f, 0.19927643f, 0.05563458f, 0.02984101f, 0.03151887f, -0.04874547f, -0.01026971f, -0.11775845f, 0.20001154f, 0.10635860f, 
-0.08545932f, -0.11639843f, 0.02006544f, 0.06793823f, -0.05711394f, 0.09154617f, 0.11754094f, 0.21124491f, 0.10831260f, -0.04899783f, 
0.04156348f, -0.07771589f, 0.05150951f, 0.04914547f, 0.02221132f, 0.10496565f, -0.10824443f, -0.08661502f, -0.06874283f, -0.04566265f, 
0.06256583f, -0.06494519f, 0.12338048f, -0.05406474f, 0.04928115f, 0.00145212f, -0.14807540f, -0.17502254f, 0.12424739f, -0.07384340f, 
0.15261504f, 0.24769156f, -0.15828750f, 0.02005811f, 0.10376921f, 0.18421403f, -0.01007994f, 0.01309547f, 0.05332151f, -0.01339214f, 
-0.21370825f, 0.08111387f, -0.09978063f, 0.02963008f, -0.00143727f, -0.01359547f, -0.00553995f, 0.04903844f, 0.04126253f, 0.07674817f, 
0.04665484f, 0.09691913f, 0.00135219f, -0.07010833f, 0.16363463f, -0.03349625f, 0.01849650f, 0.05657792f, 0.09895915f, -0.08091505f, 
-0.02867729f, -0.02448325f, -0.03359177f, 0.03793572f, -0.02164710f, -0.11918139f, -0.05823245f, 0.00321923f, 0.14412689f, -0.06028432f, 
-0.17441118f, 0.02113430f, -0.09492940f, -0.00224869f, 0.06510761f, 0.01148361f, -0.03612133f, 0.07683890f, -0.13764861f, -0.11055382f, 
-0.06095764f, 0.11955291f, 0.20548218f, 0.07858813f, 0.06891448f, -0.01132303f, 0.12859322f, -0.01628824f, 0.01743619f, 0.01809461f, 
-0.08492687f, -0.13233264f, 0.10991094f, -0.14020927f, -0.08846935f, 0.03627911f, 0.01035121f, -0.03276418f, -0.02288799f, -0.11807047f, 
0.05148714f, 0.08828723f, -0.08255966f, 0.07574342f, -0.04800060f, 0.04530499f, -0.07945523f, -0.10424351f, 0.03452045f, -0.04217906f, 
0.00661991f, 0.04940504f, 0.01378519f, -0.17133503f, 0.05357185f, 0.15303667f, 0.00982126f, -0.10856158f, -0.17241187f, 0.08473882f, 
-0.08115625f, 0.04210419f, -0.08174983f, -0.12130358f, 0.02093697f, -0.08592720f, -0.04430103f, -0.07815378f, 0.04864691f, 0.03870261f, 
-0.03005966f, 0.01994211f, 0.02905435f, -0.01184575f, -0.02307190f, 0.04850429f, -0.01555982f, -0.12174095f, -0.01110571f, 0.02731549f, 
0.07523330f, 0.08015414f, -0.10375571f, 0.02300902f, -0.05622560f, 0.01154595f, 0.03341237f, 0.09090349f, 0.11246847f, -0.14002673f, 
-0.12091167f, 0.11521268f, 0.02600153f, 0.06461161f, 0.10301867f, 0.00839000f, 0.06241823f, -0.00038397f, 0.10751165f, 0.07891206f, 
-0.03595073f, -0.14344196f, 0.01698574f, 0.02343864f, 0.17293127f, -0.03143845f, 0.03549863f, 0.04685860f, -0.04864557f, 0.04849816f, 
-0.11634643f, -0.19428888f, -0.05736306f, -0.09298912f, -0.00743589f, -0.09535819f, 0.13369848f, 0.07753561f, 0.00342259f, -0.12398763f, 
0.07122287f, -0.07776679f, -0.07009280f, -0.12143277f, -0.01946529f, -0.12206438f, 0.06519964f, 0.09198335f, 0.02967523f, 0.09487347f, 
-0.06397962f, -0.16542883f, -0.07102536f, -0.04932069f, -0.11606384f, 0.01447443f, -0.14241709f, 0.20035292f, 0.14904997f, -0.12784940f, 
-0.14410898f, 0.07372925f, -0.05050429f, 0.05153679f, 0.04633005f, -0.06168859f, 0.06250898f, -0.05697853f, -0.00433217f, -0.04143092f, 
0.05222463f, -0.01775869f, 0.03575357f, 0.08032416f, 0.00296535f, 0.07586625f, 0.10848749f, 0.05794843f, -0.09017539f, -0.02282818f, 
0.05330412f, 0.05708189f, 0.08596049f, 0.00679183f, -0.07929071f, -0.03980744f, -0.10224993f, -0.02815924f, 0.06267153f, -0.09565954f, 
0.06273902f, 0.05477093f, -0.12545867f, 0.00910617f, -0.01475316f, -0.04502358f, -0.12557468f, -0.02941421f, 0.02264540f, 0.05035095f, 
-0.01075664f, -0.12465300f, -0.08877202f, -0.00765214f, -0.08873096f, 0.00281762f, 0.03515512f, -0.07821181f, -0.09433381f, 0.02925973f, 
0.10885747f, 0.02142014f, 0.13491333f, 0.10413593f, -0.04007943f, 0.05376923f, -0.07674532f, -0.06432971f, -0.09551433f, 0.05542641f, 
-0.00118323f, 0.09090290f, 0.03145973f, -0.08236466f, -0.09754288f, 0.11793815f, -0.04363772f, 0.04569788f, -0.07326577f, -0.03500811f, 
0.10723905f, -0.03708067f, 0.06374700f, 0.08572233f, -0.00724361f, -0.03712563f, 0.11934121f, -0.04284294f, -0.00901383f, 0.02046297f, 
-0.06284069f, -0.10415014f, -0.11036089f, -0.00880339f, -0.00529111f, 0.00892306f, -0.06552076f, 0.04721846f, 0.08897723f, -0.09167872f, 
0.00436090f, -0.06757511f, -0.06466725f, 0.02698269f, -0.00576775f, 0.09305629f, 0.10307302f, 0.05528289f, -0.09119989f, -0.11799098f, 
0.00975643f, -0.05038745f, 0.08375646f, -0.04293166f, -0.11255961f, 0.05613820f, -0.08161363f, -0.11338641f, -0.13173594f, -0.04006696f, 
0.04773223f, 0.04337213f, -0.08651826f, -0.02193790f, -0.05384345f, 0.02392437f, 0.09323241f, -0.06246778f, -0.01558136f, -0.00814644f, 
0.01841399f, 0.03785336f, 0.12160803f, -0.03420628f, -0.10875396f, 0.08050753f, -0.03802800f, -0.08215302f, 0.06304872f, 0.07008742f, 
-0.10381220f, 0.12529097f, 0.12915914f, -0.02383408f, 0.11348976f, 0.07746077f, -0.10045424f, 0.04798089f, -0.02702603f, -0.00064688f, 
0.13049163f, 0.11198102f, -0.01182359f, 0.06346654f, 0.10935876f, -0.02835733f, 0.12096675f, -0.07424995f, 0.02922796f, 0.10224067f, 
0.06598793f, 0.04801255f, 0.05877396f, -0.01863573f, 0.01810160f, -0.10379118f, -0.11180275f, 0.10209829f, 0.03118642f, 0.01061863f, 
-0.03774454f, 0.02084024f, 0.10905351f, -0.06884294f, -0.02762170f, 0.09130985f, -0.08742109f, -0.02730113f, -0.02010261f, 0.03628844f, 
0.04558576f, -0.06102572f, -0.00392473f, -0.03422067f, -0.04058173f, -0.10531311f, -0.05405560f, -0.05294570f, -0.03216340f, 0.09966373f, 
-0.11424059f, 0.08154385f, 0.11829211f, -0.04099635f, 0.04230219f, -0.10917318f, 0.00638579f, 0.07705279f, 0.05135675f, 0.02153361f, 
-0.01241317f, -0.00907463f, -0.05728723f, -0.00681831f, 0.03687446f, 0.01780071f, 0.09201876f, -0.02765212f, 0.04633276f, 0.07251577f, 
0.03185704f, -0.07344063f, -0.08390395f, -0.09444648f, 0.04881907f, 0.00546295f, 0.06099976f, -0.10031015f, 0.01531549f, -0.09507160f, 
0.06816074f, -0.09572024f, -0.12466847f, -0.07487238f, -0.06609036f, 0.01785325f, 0.10827167f, -0.06333698f, 0.13490720f, -0.03026845f, 
0.10054659f, -0.12437689f, -0.10943402f, 0.04417913f, 0.06807660f, 0.06614084f, 0.03260329f, 0.11661804f, 0.07837094f, 0.05334512f, 
0.08236079f, -0.09463251f, 0.08913119f, -0.02279883f, 0.05044267f, -0.01052654f, -0.07724863f, -0.05481770f, -0.12784016f, -0.04144347f, 
-0.04087814f, -0.06242636f, 0.00478102f, 0.08855112f, 0.11835858f, -0.04648485f, 0.01152345f, 0.06605988f, -0.06890041f, 0.00628994f, 
-0.04076947f, 0.13656615f, 0.00240186f, 0.09693612f, -0.00878714f, 0.00933707f, -0.10959953f, 0.00980672f, 0.04939657f, 0.10915761f, 
0.11562976f, -0.07925890f, -0.07958773f, 0.05512919f, 0.03371404f, -0.03160782f, 0.09523766f, 0.07429972f, -0.06937440f, -0.06924156f, 
-0.05922735f, 0.04190590f, 0.07222059f, -0.06877588f, 0.09303807f, 0.07246215f, 0.09437949f, 0.11138217f, -0.06962400f, 0.10389604f, 
0.07806199f, 0.09509216f, -0.00550116f, -0.11395856f, -0.01508738f, -0.04415994f, 0.10730033f, 0.09610682f, 0.01822715f, -0.03300690f, 
0.04202007f, -0.06650313f, -0.12293582f, -0.11977632f, -0.10794330f, 0.12599139f, 0.10745601f, 0.09448614f, -0.01782392f, -0.01423642f, 
0.00146101f, 0.07915939f, -0.06264843f, 0.01924230f, -0.06290396f, 0.06349263f, 0.13114090f, 0.11986434f, -0.02305469f, -0.07835300f, 
0.00717836f, -0.08956670f, -0.10760665f, -0.04462314f, -0.06488737f, -0.01484107f, -0.03716088f, 0.08869193f, 0.08629446f, -0.06153392f, 
0.07872308f, 0.00137636f, -0.12375022f, -0.04409883f, -0.00603391f, 0.08597559f, -0.09840611f, -0.08839359f, 0.05879797f, 0.11491907f, 
-0.10043387f, -0.04291114f, -0.10166065f, 0.02449943f, -0.02009921f, -0.00916859f, 0.00184332f, -0.01792762f, 0.02220377f, -0.01260172f, 
-0.02051452f, -0.10259772f, 0.00125524f, 0.03141731f, 0.03915228f, -0.07758768f, 0.04072917f, 0.06671627f, -0.00617031f, -0.15029290f, 
0.05426563f, -0.03798492f, 0.07103015f, -0.06573394f, 0.07252392f, 0.11380424f, 0.13223082f, -0.09980871f, -0.09042150f, -0.00543648f, 
-0.10296366f, 0.08037224f, -0.01256988f, -0.05490326f, -0.14275552f, -0.04121317f, 0.03923443f, -0.10009247f, 0.01861054f, -0.09029176f, 
0.01387536f, -0.12584911f, -0.03097026f, 0.01414443f, -0.12106777f, -0.02766492f, 0.09773244f, -0.03296734f, -0.10467709f, -0.00573939f, 
0.09475374f, 0.09096466f, -0.03419939f, -0.01188765f, -0.06059146f, -0.10339345f, 0.01961587f, -0.02828638f, -0.11213815f, -0.02470372f, 
-0.12835474f, -0.02930223f, -0.10905451f, -0.07440303f, -0.08299594f, 0.05220349f, -0.00214865f, 0.02629408f, 0.01561595f, 0.08360251f, 
0.08160236f, 0.01156237f, 0.04721714f, -0.05503305f, -0.09860820f, -0.08707220f, 0.10804757f, -0.03902046f, 0.04494228f, 0.04796605f, 
0.08161952f, -0.05602556f, -0.04274898f, 0.09688856f, 0.05258371f, -0.00155475f, 0.07441721f, 0.02246803f, 0.01646134f, -0.13283676f, 
0.03201459f, -0.00775670f, -0.12423957f, -0.03441824f, 0.07427064f, 0.07911237f, 0.01622940f, 0.01316971f, 0.03462742f, -0.09709678f, 
-0.04822580f, -0.09846568f, -0.11129995f, -0.09827739f, 0.04827547f, 0.02461966f, -0.09689686f, -0.10388189f, 0.03763471f, -0.03368393f, 
-0.00929299f, -0.09892659f, -0.01489830f, 0.11968683f, 0.02456386f, 0.04647773f, -0.11054394f, 0.01050640f, 0.00564339f, -0.04405769f, 
-0.10863714f, 0.06807204f, 0.08135052f, 0.07608414f, 0.13863604f, -0.00883523f, -0.02184193f, 0.08527650f, -0.13109556f, -0.02524235f, 
0.02578118f, -0.12589410f, -0.08647946f, 0.02074936f, -0.01773968f, 0.04033563f, -0.00817279f, -0.06893963f, 0.00081393f, 0.06557734f, 
-0.00754335f, 0.07777620f, 0.03566753f, 0.03780763f, 0.07242184f, 0.07732298f, 0.07328848f, -0.00130933f, -0.09241541f, -0.08590490f, 
0.03271034f, -0.10875959f, -0.11338253f, -0.07233496f, -0.07549494f, -0.00614626f, 0.04662450f, 0.02457812f, 0.01199131f, 0.08207735f, 
0.11325086f, 0.13044083f, -0.01855735f, 0.08671076f, 0.08909435f, 0.10053644f, -0.12343881f, -0.11470693f, -0.00952058f, 0.14009720f, 
0.10748394f, -0.09761488f, -0.01847404f, -0.07575873f, 0.08410282f, -0.05214198f, 0.10598388f, 0.03001913f, -0.09405357f, 0.08005852f, 
0.10353280f, 0.03878268f, 0.00711569f, -0.08335984f, -0.00607349f, 0.03531707f, 0.10150543f, 0.11693241f, -0.03315023f, 0.07637917f, 
0.02183217f, -0.13493797f, -0.11720324f, -0.07229035f, -0.12178806f, -0.00406937f, 0.09422632f, -0.08608261f, 0.05461750f, -0.02651283f, 
-0.07309701f, -0.01013341f, -0.06854130f, 0.08743786f, -0.08383166f, 0.02371369f, 0.00070718f, -0.12261962f, 0.07245489f, 0.00374001f, 
0.01545272f, -0.10073253f, 0.08870731f, -0.03469033f, -0.00202423f, 0.06465656f, -0.10361068f, 0.05362273f, -0.09246808f, 0.13026679f, 
-0.00951318f, -0.06262589f, -0.31109831f, -0.14483243f, 0.03328955f, -0.03582351f, -0.12319376f, -0.07965870f, 0.10502928f, -0.10488464f, 
-0.14045194f, -0.07805569f, 0.03184706f, -0.03899211f, 0.08035066f, 0.07223387f, -0.00795031f, -0.17096175f, -0.07114502f, -0.11002906f, 
0.04033319f, 0.01879224f, 0.04996623f, 0.00978365f, -0.18611915f, 0.05251392f, -0.19091704f, -0.00314072f, -0.03092543f, -0.03218052f, 
0.10888197f, 0.03555212f, 0.02944614f, -0.12474906f, -0.03442298f, 0.07327027f, 0.06587686f, 0.03390334f, 0.10792389f, -0.14589566f, 
-0.04839556f, -0.13842775f, -0.03455628f, -0.11138182f, 0.09414767f, -0.02760358f, -0.19953834f, -0.12736894f, -0.07928541f, 0.00789408f, 
-0.18877663f, -0.24002466f, 0.00914870f, 0.11195982f, -0.13038747f, 0.07035786f, -0.03990216f, -0.13862868f, -0.20036110f, -0.09859009f, 
0.02302136f, 0.03222171f, 0.07502995f, 0.01620238f, -0.23559096f, -0.00931195f, -0.00694116f, -0.27575162f, -0.12892865f, 0.04984449f, 
-0.11507459f, -0.26550680f, -0.07799990f, -0.20277242f, -0.00969963f, -0.00583916f, -0.29810902f, -0.07846345f, 0.06939463f, -0.12906307f, 
-0.11697657f, -0.01821842f, -0.02169126f, 0.08207745f, 0.07185846f, 0.12320674f, -0.18704194f, -0.26416034f, -0.00803236f, 0.01875434f, 
0.08091061f, -0.00654509f, 0.10529922f, 0.12633990f, 0.07280374f, -0.17549278f, 0.07295144f, 0.11661039f, -0.11663200f, 0.12768717f, 
0.07133722f, 0.08192404f, 0.11030213f, -0.09100074f, -0.01847877f, -0.05176338f, -0.25116438f, 0.01560731f, 0.06048137f, -0.09052360f, 
-0.10187060f, -0.05694509f, 0.06159333f, -0.02828940f, 0.03558813f, -0.15724035f, 0.05891631f, 0.11873265f, -0.17876089f, 0.05990693f, 
-0.21183923f, 0.09963227f, 0.05943337f, 0.02439864f, 0.00929123f, 0.03362196f, 0.02061850f, -0.08487007f, -0.37552589f, -0.04736135f, 
-0.20843443f, -0.01486554f, 0.01826704f, 0.10423096f, -0.16081361f, 0.01413980f, 0.04182080f, 0.08694234f, -0.00707112f, 0.05794834f, 
0.01496919f, -0.23872516f, -0.08861996f, 0.12224486f, 0.00899778f, -0.00956485f, 0.06569595f, -0.13502665f, 0.01332806f, -0.13015239f, 
-0.09520750f, 0.04658315f, 0.09000336f, 0.04015604f, -0.16355203f, 0.02350487f, -0.03672688f, 0.01993955f, 0.04159079f, -0.14181818f, 
0.05707431f, 0.14308691f, -0.09544846f, -0.28167152f, -0.09327317f, -0.30538848f, 0.01812050f, 0.10763313f, -0.01618984f, 0.06113198f, 
-0.24683677f, -0.00212213f, -0.00198320f, 0.08206917f, 0.04410653f, -0.00964011f, 0.09280283f, 0.06269475f, 0.07182082f, -0.06766202f, 
-0.20896453f, 0.11506231f, 0.11724623f, -0.03816693f, -0.11236326f, 0.11118550f, 0.07359562f, -0.01740814f, -0.03026977f, 0.07732580f, 
-0.14838977f, 0.10593498f, 0.05629215f, -0.09130314f, 0.07498851f, -0.11855621f, 0.09782854f, 0.04723570f, -0.08561654f, 0.06226680f, 
-0.06879321f, -0.16241288f, -0.12648489f, 0.05286180f, 0.09305651f, -0.09286830f, 0.03907942f, -0.27545452f, -0.02289778f, 0.03925180f, 
-0.06696501f, -0.14646526f, -0.08140469f, 0.06551997f, -0.16588590f, -0.20113081f, -0.24006787f, -0.17666717f, -0.15105250f, -0.02594739f, 
-0.14263126f, -0.03106709f, 0.03810778f, -0.02126074f, -0.35157752f, -0.02278657f, -0.18741381f, -0.03597994f, 0.00393473f, 0.03587607f, 
-0.10195109f, -0.01968244f, 0.08253206f, -0.01329481f, 0.11149499f, 0.05355568f, 0.12105164f, 0.10857412f, 0.04393183f, 0.04316442f, 
-0.01856249f, -0.06584055f, -0.10258809f, 0.01484537f, -0.00110941f, 0.04855818f, 0.08002514f, -0.05927077f, 0.05810976f, -0.07163554f, 
0.08860260f, -0.03724762f, -0.03266476f, 0.10358476f, -0.06013507f, 0.10467076f, 0.08372565f, -0.04902127f, -0.01271460f, 0.11710502f, 
-0.09722382f, 0.09198608f, -0.03108116f, -0.04004410f, 0.09248275f, 0.08424716f, -0.01961441f, -0.03129269f, 0.00039154f, 0.03684300f, 
-0.09286965f, 0.02302191f, -0.11113100f, -0.05657068f, -0.10111126f, -0.03204694f, -0.04292917f, 0.08985531f, 0.07087819f, 0.01689132f, 
0.02653860f, 0.05209102f, 0.11526278f, 0.09273219f, 0.04589446f, -0.01968106f, 0.11002634f, 0.06497005f, 0.00466126f, -0.09769499f, 
0.05186798f, -0.07954461f, -0.08127427f, -0.07997121f, -0.03996164f, -0.11057087f, 0.06144571f, 0.09083146f, -0.05012560f, -0.02815907f, 
-0.11236660f, -0.07260153f, -0.07682028f, -0.06794392f, 0.03619327f, -0.10880814f, -0.12336143f, -0.12194060f, -0.12162800f, -0.07424346f, 
0.08511981f, -0.04890688f, 0.04443448f, 0.06705812f, -0.05203129f, -0.10200855f, -0.06822973f, 0.00575995f, 0.10405113f, -0.02585945f, 
-0.01714138f, -0.05897648f, 0.02517141f, -0.03802111f, -0.02881916f, 0.10003552f, -0.03057401f, -0.09936511f, -0.06768777f, -0.10461170f, 
0.08169794f, 0.08631780f, -0.04456699f, -0.06705821f, -0.07051960f, -0.07387969f, 0.03883308f, 0.09470421f, -0.04469357f, 0.01987101f, 
-0.00995583f, 0.04040020f, 0.03369246f, 0.02697819f, -0.02876765f, -0.03244185f, 0.09809263f, -0.10790282f, -0.00589480f, -0.04229125f, 
0.00274867f, 0.12188744f, 0.03398256f, -0.05094679f, 0.09806064f, 0.00520079f, 0.05758619f, -0.13008142f, -0.10790662f, 0.12188318f, 
0.06709915f, -0.08154144f, 0.08080714f, -0.07286886f, -0.01750931f, 0.05628724f, 0.02041151f, -0.01590860f, -0.01982529f, 0.02228777f, 
0.01302665f, 0.03689399f, 0.06629047f, 0.09924914f, 0.06506203f, 0.03131412f, 0.12432103f, 0.03677130f, -0.12417756f, 0.00656267f, 
0.05422638f, 0.10776883f, -0.10819405f, 0.11122525f, 0.11791922f, 0.03794529f, 0.09211778f, -0.04308194f, -0.07416548f, 0.05054219f, 
